{"learner":{"attributes":{"best_iteration":"103","best_score":"0.770656880733945"},"feature_names":[],"feature_types":[],"gradient_booster":{"model":{"gbtree_model_param":{"num_parallel_tree":"1","num_trees":"114"},"iteration_indptr":[0,1,2,3,4,5,6,7,8,9,10,11,12,13,14,15,16,17,18,19,20,21,22,23,24,25,26,27,28,29,30,31,32,33,34,35,36,37,38,39,40,41,42,43,44,45,46,47,48,49,50,51,52,53,54,55,56,57,58,59,60,61,62,63,64,65,66,67,68,69,70,71,72,73,74,75,76,77,78,79,80,81,82,83,84,85,86,87,88,89,90,91,92,93,94,95,96,97,98,99,100,101,102,103,104,105,106,107,108,109,110,111,112,113,114],"tree_info":[0,0,0,0,0,0,0,0,0,0,0,0,0,0,0,0,0,0,0,0,0,0,0,0,0,0,0,0,0,0,0,0,0,0,0,0,0,0,0,0,0,0,0,0,0,0,0,0,0,0,0,0,0,0,0,0,0,0,0,0,0,0,0,0,0,0,0,0,0,0,0,0,0,0,0,0,0,0,0,0,0,0,0,0,0,0,0,0,0,0,0,0,0,0,0,0,0,0,0,0,0,0,0,0,0,0,0,0,0,0,0,0,0,0],"trees":[{"base_weights":[8.8675216E-2,-7.363585E-1,7.3626375E-1,7.280448E-2,-1.2844571E0,-2.0038006E-1,8.7391394E-1,-4.2737478E-1,6.7457515E-1,-2.2496767E0,-1.0467212E0,-9.506039E-2,-2.9042944E-1,5.1367646E-1,1.0648073E0,-1.1348743E-1,-1.2769265E0,-1.545974E0,7.6502687E-1,-2.4648948E0,6.209202E-1,-1.1066786E0,6.6768485E-1,-1.1664459E0,1.4680417E-1,5.532601E-1,-1.545974E0,2.2135116E-1,1.0928429E0,-1.790551E0,5.2475516E-2,-2.603573E0,-2.4952666E-1,8.7993495E-2,-2.794283E-1,-2.3548868E-1,8.22868E-1,-2.7808292E0,-1.6419676E-1,1.0727151E-1,-1.2974337E-2,2.8126103E-1,-1.1903251E0,-6.3518053E-1,1.1388599E-1,2.4857712E-1,-2.113576E0,-2.4426828E-1,2.2235027E-1,3.9114665E-2,6.916447E-1,-2.7502963E-1,5.7719875E-2,-1.9961534E-1,4.7540194E-1,9.74621E-1,1.2210739E0,9.186648E-2,-3.1309947E-1,1.4973702E-1,-2.7502963E-1,2.2620122E-1,-3.441362E-1,-2.116805E0,5.1393944E-1,8.621782E-1,-6.3518053E-1,-1.7351356E0,-3.399152E0,-2.5195384E-1,6.747219E-1,-7.9940194E-1,8.10226E-1,-1.5108029E0,-7.700459E-1,-2.1355782E-1,8.7993495E-2,8.722674E-1,-2.1355782E-1,2.2620122E-1,-3.281638E-1,-1.0528158E0,3.8643736E-1,5.349615E-1,-1.1433998E0,7.3806065E-1,-7.9940194E-1,-8.9904535E-1,8.7081265E-1,-6.3518053E-1,9.9467874E-1,1.2313899E0,7.826187E-3,1.0727151E-1,-1.9961534E-1,2.452066E-1,-2.701692E-1,-3.1591065E-2,8.7993495E-2,-3.096972E-1,8.7993495E-2,8.2252496E-1,-2.1355782E-1,9.109996E-1,-2.608406E-1,-2.1355782E-1,8.7993495E-2,1.0061134E-1,-2.603573E0,-3.5886583E-1,-1.0145204E0,1.15722515E-1,-3.1591065E-2,-2.7502963E-1,1.0727151E-1,1.0946037E0,-3.1591065E-2,-1.9419754E0,-9.138918E-1,2.2720197E-1,-1.0968745E0,7.826187E-3,1.15722515E-1,-3.1591065E-2,8.7993495E-2,1.01097845E-1,-3.0783173E-1,4.4108564E-1,-1.9961534E-1,-9.43063E-1,8.231188E-1,-3.096972E-1,-1.6715597E-1,7.6127225E-1,-1.9961534E-1,-2.7502963E-1,1.0727151E-1,-2.3548868E-1,8.7993495E-2,1.1740512E-1,-3.1591065E-2,-2.1355782E-1,8.7993495E-2,1.0206027E0,7.773113E-3,1.2418995E0,7.826187E-3,-2.6477018E-1,3.3822432E-1,1.0388535E0,-3.1591065E-2,7.763391E-1,1.0956126E0,-2.3548868E-1,1.0727151E-1,-2.3548868E-1,8.722674E-1,-1.009644E0,-3.39514E-1,8.7993495E-2,-2.4426828E-1,1.2350652E-1,3.1218698E-2,-2.4705281E0,-1.9915281E-1,-2.6767783E0,-5.865621E-1,-1.398114E0,7.469517E-1,-8.601707E-1,-3.326264E-1,4.9722415E-1,-1.9961534E-1,-2.794283E-1,8.752537E-2,1.0040365E0,-2.608406E-1,-1.4726439E0,6.747219E-1,-8.9904535E-1,7.919261E-1,-1.5084448E-1,1.0432082E0,-2.1355782E-1,7.435205E-1,1.2487212E0,3.1218698E-2,-1.1335264E0,4.5909622E-1,1.20006874E-1,7.826187E-3,4.6567744E-1,1.0159807E0,1.143045E0,7.826187E-3,1.15722515E-1,7.826187E-3,5.258117E-1,-2.7502963E-1,-3.2024462E0,-1.580621E0,1.996902E-1,-2.701692E-1,5.7719875E-2,-3.3327383E-1,-1.4057323E-1,-2.2368605E0,9.186648E-2,-2.9042944E-1,9.387103E-1,-6.3518053E-1,-1.5553678E0,-3.3760905E-1,8.694517E-1,1.7171514E-1,1.16473E0,-4.8350748E-1,1.0727151E-1,-2.3548868E-1,-2.7502963E-1,8.7993495E-2,-3.1591065E-2,1.15722515E-1,-2.3548868E-1,8.7993495E-2,-5.531696E-1,8.313994E-1,1.0727151E-1,-2.2536352E-1,4.7327808E-1,1.084877E0,7.826187E-3,1.0727151E-1,1.2579304E0,7.435205E-1,8.752537E-2,-2.9042944E-1,-1.2991738E0,6.26775E-1,-2.2536352E-1,6.582673E-1,1.1156695E0,-3.1591065E-2,7.826187E-3,1.1952794E0,8.7993495E-2,7.826187E-3,-3.3527475E-2,-3.586109E-1,4.9362144E-1,-2.1499176E0,-2.5195384E-1,5.836155E-1,2.4333443E-1,-1.3997747E0,-4.6145016E-1,-3.281638E-1,-1.9961534E-1,1.0727151E-1,-1.2974337E-2,1.0608866E0,-2.1355782E-1,8.7993495E-2,-3.2641208E-1,-1.091923E0,-2.1538897E0,-4.632277E-2,9.751709E-2,1.0318868E0,-2.6477018E-1,3.9106613E-1,1.2537299E-1,7.826187E-3,-1.9961534E-1,8.7993495E-2,-2.3548868E-1,5.258117E-1,9.751633E-1,5.383877E-1,9.1922E-1,-2.4426828E-1,-1.2974337E-2,1.0978255E0,9.691432E-1,1.275506E-1,1.0727151E-1,7.826187E-3,-2.794283E-1,-3.3527475E-2,8.691968E-1,1.7471099E-1,8.403843E-1,-7.730963E-1,1.222948E0,2.2620122E-1,3.1218698E-2,1.2312782E0,-1.9961534E-1,8.752537E-2,1.2046782E-1,-2.1355782E-1,-1.4221133E0,-3.3508E-1,-2.1355782E-1,8.7019676E-1,4.0661088E-1,-2.3548868E-1,-3.0143714E-1,-2.3755358E-1,-2.4426828E-1,8.752537E-2,1.1981191E-1,3.7046835E-1,-1.3608148E0,1.0727151E-1,8.7993495E-2,-3.1144983E-1,1.0901171E-1,-2.5195384E-1,8.7332207E-1,-2.1355782E-1,1.1335082E0,-1.2974337E-2,5.389334E-1,-2.2536352E-1,8.7993495E-2,7.826187E-3,-4.8350748E-1,1.0093206E0,6.194264E-1,-2.1355782E-1,1.0977551E0,-1.2974337E-2,1.1110418E0,-1.2974337E-2,1.2717262E-1,9.186648E-2,8.752537E-2,-1.9961534E-1,-2.1355782E-1,9.763095E-1,-2.5873786E-1,4.6709335E-1,9.664634E-1,-3.1591065E-2,8.7993495E-2,-2.2536352E-1,3.1218698E-2,1.2728851E0,-3.1591065E-2,8.7993495E-2,1.3122089E-1,6.209202E-1,-2.1355693E0,-7.780156E-2,1.072316E0,-3.1591065E-2,6.352796E-1,-1.309718E0,5.0493795E-1,-2.2536352E-1,-1.2974337E-2,8.7993495E-2,-1.8147234E0,3.9505208E-1,3.3825585E-1,-1.6145808E0,3.1218698E-2,1.0727151E-1,5.0493795E-1,1.2762502E-1,7.728437E-1,-7.2175515E-1,8.7993495E-2,-1.9961534E-1,1.0764709E0,4.2747077E-1,4.7155775E-2,9.068833E-1,7.826187E-3,1.2717262E-1,2.2620122E-1,1.1266077E0,8.7993495E-2,-4.8350748E-2,-4.8350748E-1,1.0626024E0,8.305478E-1,-4.5224628E-1,1.1418281E0,9.186648E-2,6.9355774E-1,1.3271232E-1,1.0727151E-1,-1.2974337E-2,-2.6445646E0,8.7993495E-2,7.435205E-1,-2.2536352E-1,1.22008614E-1,7.826187E-3,1.0519621E0,1.8200172E-1,-2.6477018E-1,8.7993495E-2,-3.1591065E-2,1.0727151E-1,-3.3052883E-1,-8.5243946E-1,-3.1591065E-2,8.752537E-2,-2.1355782E-1,4.6367982E-1,8.7993495E-2,-2.8342795E-1,1.0727151E-1,-3.1591065E-2,-1.9961534E-1,9.194755E-1,-2.701692E-1,1.0727151E-1,5.299988E-1,1.1448736E0,-1.9961534E-1,7.5123274E-1,2.9736093E-1,-2.2536352E-1,1.0596188E0,-2.608406E-1,8.7993495E-2,-3.1591065E-2,1.1365786E0,7.826187E-3,-1.9961534E-1,8.7993495E-2,4.0860945E-1,1.1748153E0,1.0996975E0,-6.3518053E-1,-1.545974E0,1.0727151E-1,1.2595586E-1,7.826187E-3,1.0727151E-1,-1.9961534E-1,3.1218698E-2,8.7993495E-2,5.7719875E-2,-3.319541E-1,7.826187E-3,1.0727151E-1,-3.1591065E-2,1.2930495E-1,-2.6477018E-1,7.648811E-1,6.209202E-1,-1.723266E0,-3.3965135E-1,7.3518795E-1,-3.1591065E-2,1.0318868E0,9.33058E-1,-2.1355782E-1,7.826187E-3,1.1675068E0,1.1388599E-1,-3.3527475E-2,-7.2175515E-1,7.138634E-1,1.1393857E0,-1.2974337E-2,1.0727151E-1,-2.3548868E-1,7.826187E-3,1.1467472E0,1.08860455E-1,-2.1355782E-1,8.10226E-1,1.3023353E-1,7.826187E-3,1.2359643E-1,-2.1355782E-1,8.7993495E-2,8.7993495E-2,-2.794283E-1,9.751709E-2,1.2350652E-1,-1.2974337E-2,1.0727151E-1,8.7993495E-2,-2.3156667E0,4.9362144E-1,-2.5873786E-1,9.3378E-1,-2.608406E-1,-1.2974337E-2,1.1335082E0,1.1740512E-1,-1.2974337E-2,1.1911534E0,7.826187E-3,8.752537E-2,-1.9961534E-1,-2.701692E-1,1.0727151E-1,1.1388599E-1,9.751709E-2,2.2620122E-1,1.25031E0,7.535421E-1,1.1833882E0,1.20006874E-1,-1.9961534E-1,-2.1355782E-1,8.7332207E-1,-3.1883103E-1,8.7993495E-2,-4.8350748E-1,1.01097845E-1,-3.3527475E-2,1.1418281E0,1.0727151E-1,-2.3548868E-1,3.1218698E-2,1.1852821E0,3.7046835E-1,1.2226372E0,1.0727151E-1,-8.9904535E-1,8.7993495E-2,-3.1591065E-2,6.9355774E-1,1.2982991E-1,-7.780156E-2,1.1581469E0,7.0932585E-1,1.203058E0,1.0727151E-1,3.1218698E-2,8.7993495E-2,-1.9961534E-1,-2.1355782E-1,1.0727151E-1,3.1218698E-2,1.2130167E-1,3.1218698E-2,1.245617E0,-1.2974337E-2,8.7993495E-2,3.1218698E-2,1.2394118E-1,8.7993495E-2,-2.3548868E-1,8.7993495E-2,3.1218698E-2,1.01097845E-1,-2.4426828E-1,3.1218698E-2,1.2717262E-1,1.08860455E-1,-3.1591065E-2,1.210995E0,3.1218698E-2,3.1218698E-2,1.3168274E-1,3.1218698E-2,1.2191023E0,1.2273854E0,3.1218698E-2,3.1218698E-2,1.2358503E0,1.2445029E0,3.1218698E-2,1.2533496E-1,3.1218698E-2],"categories":[],"categories_nodes":[],"categories_segments":[],"categories_sizes":[],"default_left":[0,0,0,0,0,0,0,0,0,1,0,0,0,0,0,0,0,0,0,0,0,0,1,0,0,0,1,0,0,0,1,0,0,0,0,0,1,0,0,0,0,0,0,0,0,0,0,0,0,0,0,0,0,0,0,0,1,0,0,0,0,0,0,0,0,0,0,0,0,0,0,0,0,0,0,0,0,0,0,0,0,0,1,0,0,0,0,0,0,1,0,1,0,0,0,0,0,0,0,0,0,0,0,0,0,0,0,0,0,0,0,0,0,0,0,0,0,0,0,0,1,0,0,0,0,0,0,1,0,0,1,0,0,0,0,0,0,0,0,0,0,0,0,0,0,0,0,0,0,0,0,0,0,0,0,0,0,0,0,0,0,0,0,0,1,0,0,0,0,0,0,0,0,0,0,0,0,0,0,0,0,0,0,0,0,0,0,0,0,0,0,0,0,0,0,0,0,0,0,0,0,0,0,0,0,0,0,0,0,0,0,0,0,0,0,1,0,0,0,0,0,0,0,0,0,0,0,0,0,0,0,0,0,0,0,0,0,0,0,0,0,0,0,0,0,0,0,0,0,0,0,0,0,0,0,0,0,0,0,0,0,0,0,0,0,0,0,0,0,0,0,0,0,0,0,0,0,0,0,0,0,0,0,0,0,0,0,0,0,0,0,0,0,0,0,0,0,0,0,0,0,0,0,0,0,1,0,0,0,0,0,0,0,1,0,0,0,0,0,0,0,0,0,0,0,0,0,0,0,0,0,0,0,0,0,0,0,0,0,0,0,0,0,0,0,0,0,0,0,0,0,0,0,0,0,0,0,0,0,0,0,0,0,0,0,0,0,0,0,0,0,0,0,0,0,0,0,0,0,0,0,0,0,0,0,0,0,1,1,0,0,1,0,0,0,0,0,0,0,0,0,0,0,0,0,0,0,0,0,0,0,0,0,0,0,0,0,0,0,0,0,0,0,0,0,0,0,0,0,0,0,0,0,0,0,0,0,0,0,0,0,0,0,0,0,0,0,0,0,0,0,0,0,0,0,0,0,0,0,0,0,0,0,0,1,0,0,0,0,0,0,0,0,0,0,0,0,0,0,0,0,0,0,0,0,0,0,0,0,0,0,0,0,0,0,0,0,0,0,0,0,0,0,0,0,0,0,0,0,0,0,0,0,0,0,0,0,0,0,0,0,0,0,0,0,0,0,0,0,0,0,0,0,0,0,0,1,0,0,0,0,0,0,0,0,0,0,0,0,0,0,0,0,0,0,0,0,0,0,0,0,0,0,0,0,0,0,0,0,0,0,1,0,0,0],"id":0,"left_children":[1,3,5,7,9,11,13,15,17,19,21,23,-1,25,27,29,31,33,35,37,39,41,43,45,47,49,51,53,55,57,59,61,63,-1,-1,-1,65,67,69,-1,-1,71,73,75,-1,77,79,-1,81,83,85,-1,-1,-1,87,89,91,93,-1,95,-1,97,-1,99,101,103,105,107,109,-1,111,113,115,117,119,-1,-1,121,-1,123,-1,125,127,129,131,133,135,137,139,141,143,145,-1,-1,-1,147,-1,-1,-1,-1,-1,149,-1,151,153,-1,-1,155,157,-1,159,-1,-1,-1,-1,161,-1,163,165,167,169,-1,-1,-1,-1,-1,-1,171,-1,173,175,-1,177,179,-1,-1,-1,-1,-1,-1,-1,-1,-1,181,183,185,-1,-1,187,189,-1,191,193,-1,-1,-1,195,197,-1,-1,-1,-1,-1,199,201,203,205,207,209,211,-1,213,-1,-1,-1,215,217,219,221,223,225,227,229,-1,231,233,-1,235,237,-1,-1,239,241,243,-1,-1,-1,245,-1,247,249,251,-1,-1,-1,253,255,257,-1,259,261,263,265,267,269,271,273,-1,-1,-1,-1,-1,-1,-1,-1,275,277,-1,-1,279,281,-1,-1,283,285,-1,-1,287,289,-1,291,293,-1,-1,295,-1,-1,297,-1,299,301,-1,303,305,307,309,-1,-1,-1,-1,311,-1,-1,-1,313,315,317,319,321,-1,323,-1,-1,-1,-1,-1,325,327,329,331,-1,-1,333,335,-1,-1,-1,-1,337,339,341,343,345,347,349,-1,351,-1,-1,-1,-1,353,-1,-1,355,357,-1,-1,359,-1,-1,-1,361,363,-1,-1,-1,365,-1,367,-1,369,-1,371,-1,-1,-1,373,375,377,-1,379,-1,381,-1,-1,383,-1,-1,-1,385,-1,387,389,-1,-1,-1,-1,391,-1,-1,-1,393,395,397,399,-1,401,403,405,-1,-1,-1,407,409,411,413,-1,-1,415,-1,417,419,-1,-1,421,423,425,427,-1,-1,429,431,-1,-1,433,435,437,439,441,443,445,-1,-1,-1,447,-1,449,-1,-1,-1,451,453,-1,-1,-1,-1,-1,455,-1,-1,-1,457,-1,-1,-1,-1,-1,459,-1,-1,461,463,-1,465,467,-1,469,471,-1,-1,473,-1,-1,-1,475,477,479,481,483,-1,-1,-1,-1,-1,-1,-1,-1,-1,-1,-1,-1,-1,-1,485,487,489,491,493,-1,495,497,-1,-1,499,-1,501,503,505,507,-1,-1,-1,-1,509,-1,-1,511,-1,-1,-1,-1,-1,-1,-1,513,-1,-1,-1,-1,515,517,-1,519,521,-1,523,-1,-1,525,-1,-1,-1,-1,-1,-1,527,529,531,533,535,-1,-1,-1,537,-1,-1,539,-1,541,543,-1,-1,-1,545,547,549,-1,551,-1,-1,553,-1,555,557,559,561,-1,-1,-1,-1,-1,-1,-1,-1,-1,563,-1,-1,-1,-1,-1,-1,-1,-1,-1,-1,-1,-1,-1,-1,565,-1,-1,-1,-1,567,569,-1,-1,571,573,-1,-1,-1],"loss_changes":[9.461989E2,3.4551068E2,1.2808783E2,9.524071E1,1.04204956E2,3.6156364E1,5.894879E1,4.595739E1,3.0020683E1,5.769101E1,3.9231598E1,3.2347824E1,0E0,2.544445E1,1.3108643E1,3.5536533E1,6.2792015E1,2.0478966E1,2.6954353E1,6.115619E1,2.5602639E0,4.2384613E1,8.874172E0,3.1324461E1,2.0534264E1,2.1079636E1,1.680312E1,1.1887328E1,7.0895386E0,2.9293484E1,3.2263866E1,4.8687607E1,4.0060097E1,0E0,0E0,0E0,8.391075E0,4.2250793E1,2.402277E1,0E0,0E0,1.2878677E1,4.487381E1,1.135509E1,0E0,1.689484E1,3.8653507E1,0E0,2.137472E1,3.812137E1,1.6762558E1,0E0,0E0,0E0,1.0689386E1,9.967438E0,2.9456787E0,1.3922806E1,0E0,3.1661848E1,0E0,2.2465038E0,0E0,2.6602188E1,1.8279026E1,7.566765E0,1.135509E1,4.763234E1,1.70354E1,0E0,4.7243214E0,3.0469742E1,5.1052456E0,4.7868683E1,4.9110794E1,0E0,0E0,1.8830752E0,0E0,2.2465038E0,0E0,5.199285E1,1.253601E1,2.0262892E1,3.6134735E1,1.5935455E1,3.0469742E1,1.3893674E1,5.647784E0,1.135509E1,7.3081055E0,3.0011597E0,0E0,0E0,0E0,3.0792118E1,0E0,0E0,0E0,0E0,0E0,4.9636545E0,0E0,2.3397293E0,2.024938E1,0E0,0E0,2.195934E1,2.2069092E1,0E0,1.5034702E1,0E0,0E0,0E0,0E0,9.430475E-1,0E0,1.0185211E2,4.6200172E1,3.300373E1,5.6812836E1,0E0,0E0,0E0,0E0,0E0,0E0,1.3077972E1,0E0,2.9141853E1,7.8753223E0,0E0,1.6239388E1,1.2212051E1,0E0,0E0,0E0,0E0,0E0,0E0,0E0,0E0,0E0,7.5358276E0,1.4719113E1,1.2165527E0,0E0,0E0,1.9826721E1,2.3915977E0,0E0,5.3066635E0,2.4050713E0,0E0,0E0,0E0,1.8830752E0,2.31722E1,0E0,0E0,0E0,0E0,0E0,5.0406555E1,2.7430124E1,2.8996254E1,5.2016815E1,2.1620337E1,8.366453E0,3.710267E1,0E0,1.0408987E1,0E0,0E0,0E0,8.565235E0,2.024938E1,1.971112E1,4.7243214E0,1.3893674E1,1.2267883E1,1.8237305E1,5.9813232E0,0E0,1.4360678E0,2.3294067E-1,0E0,3.2865944E1,3.0592346E1,0E0,0E0,2.0156116E1,6.0592766E0,2.6494522E0,0E0,0E0,0E0,7.4869764E-1,0E0,5.5506927E1,4.8776176E1,2.6702322E1,0E0,0E0,0E0,2.7915237E1,2.6420181E1,1.3922806E1,0E0,3.5511494E0,1.135509E1,3.1414177E1,3.1859262E1,4.965975E0,3.0556065E1,2.8516502E0,9.945006E0,0E0,0E0,0E0,0E0,0E0,0E0,0E0,0E0,1.4731173E1,8.592865E0,0E0,0E0,2.8780865E1,4.1384277E0,0E0,0E0,8.270264E-3,1.4360678E0,0E0,0E0,1.7162052E1,1.0027264E1,0E0,9.530961E0,3.5601387E0,0E0,0E0,1.1078949E0,0E0,0E0,1.2360657E1,0E0,2.036121E1,2.310852E1,0E0,1.8995024E1,1.9863466E1,2.4571085E1,1.9994865E1,0E0,0E0,0E0,0E0,1.7897987E0,0E0,0E0,0E0,2.2558292E1,2.7007858E1,2.0666918E1,1.5947928E1,4.0754204E0,0E0,1.8874874E1,0E0,0E0,0E0,0E0,0E0,7.4869764E-1,7.6614227E0,1.7244951E1,3.5932226E0,0E0,0E0,4.2244873E0,4.721821E0,0E0,0E0,0E0,0E0,1.2360657E1,2.1463371E1,2.8403303E1,4.7814484E0,1.2669339E1,1.224205E0,2.2465038E0,0E0,1.3963928E0,0E0,0E0,0E0,0E0,2.0545383E1,0E0,0E0,5.278369E0,1.7623217E1,0E0,0E0,1.4491999E1,0E0,0E0,0E0,1.4792347E0,2.676616E1,0E0,0E0,0E0,2.0658829E1,0E0,4.1953135E-1,0E0,2.1104164E0,0E0,1.3407659E1,0E0,0E0,0E0,9.945006E0,5.049057E0,1.1816427E1,0E0,2.711998E0,0E0,3.1737366E0,0E0,0E0,3.0338793E0,0E0,0E0,0E0,7.9238586E0,0E0,1.0833405E1,4.179039E0,0E0,0E0,0E0,0E0,1.3144302E-1,0E0,0E0,0E0,2.5602639E0,2.3922234E1,1.6910221E1,2.523901E0,0E0,7.066309E0,1.8022995E1,3.758263E0,0E0,0E0,0E0,3.4689407E1,2.8489316E0,1.5186579E1,2.1201601E1,0E0,0E0,3.758263E0,0E0,1.6955128E1,2.896533E1,0E0,0E0,4.093994E0,1.424895E1,1.5153443E1,8.825184E0,0E0,0E0,2.2465038E0,2.465454E0,0E0,0E0,9.945006E0,3.618801E0,9.686303E0,1.7528507E1,2.8037415E0,1.3922806E1,7.788205E-2,0E0,0E0,0E0,2.8636414E1,0E0,1.4360678E0,0E0,0E0,0E0,6.942148E0,3.4376602E1,0E0,0E0,0E0,0E0,0E0,2.3187126E1,0E0,0E0,0E0,9.926734E0,0E0,0E0,0E0,0E0,0E0,5.3323593E0,0E0,0E0,1.902364E1,2.5859375E0,0E0,4.619282E0,1.0521915E1,0E0,4.1879616E0,2.024938E1,0E0,0E0,2.5145874E0,0E0,0E0,0E0,1.91288E1,1.1364594E0,2.6333485E0,1.135509E1,2.0478966E1,0E0,0E0,0E0,0E0,0E0,0E0,0E0,0E0,0E0,0E0,0E0,0E0,0E0,0E0,5.226446E0,2.5602639E0,1.9154236E1,2.3549368E1,6.8652534E0,0E0,4.0754204E0,3.8573923E0,0E0,0E0,2.7021027E0,0E0,1.2360657E1,2.896533E1,4.4043627E0,3.7700539E0,0E0,0E0,0E0,0E0,2.5605774E0,0E0,0E0,1.8654964E1,0E0,0E0,0E0,0E0,0E0,0E0,0E0,1.5947928E1,0E0,0E0,0E0,0E0,2.878722E1,5.2989187E0,0E0,5.6992283E0,2.024938E1,0E0,9.3558884E-1,0E0,0E0,2.2898102E0,0E0,0E0,0E0,0E0,0E0,0E0,8.864454E0,2.2465038E0,4.688263E-2,7.886652E0,1.1741943E0,0E0,0E0,0E0,4.1953135E-1,0E0,0E0,9.945006E0,0E0,1.6128317E1,9.902744E-1,0E0,0E0,0E0,1.1138E0,1.4792347E0,1.1677246E0,0E0,1.3893674E1,0E0,0E0,7.788205E-2,0E0,2.441984E1,1.1070614E0,4.6598563E0,1.0880127E0,0E0,0E0,0E0,0E0,0E0,0E0,0E0,0E0,0E0,1.3402023E0,0E0,0E0,0E0,0E0,0E0,0E0,0E0,0E0,0E0,0E0,0E0,0E0,0E0,0E0,1.1144409E0,0E0,0E0,0E0,0E0,1.1416626E0,1.1698608E0,0E0,0E0,1.1989136E0,1.2290039E0,0E0,0E0,0E0],"parents":[2147483647,0,0,1,1,2,2,3,3,4,4,5,5,6,6,7,7,8,8,9,9,10,10,11,11,13,13,14,14,15,15,16,16,17,17,18,18,19,19,20,20,21,21,22,22,23,23,24,24,25,25,26,26,27,27,28,28,29,29,30,30,31,31,32,32,36,36,37,37,38,38,41,41,42,42,43,43,45,45,46,46,48,48,49,49,50,50,54,54,55,55,56,56,57,57,59,59,61,61,63,63,64,64,65,65,66,66,67,67,68,68,70,70,71,71,72,72,73,73,74,74,77,77,79,79,81,81,82,82,83,83,84,84,85,85,86,86,87,87,88,88,89,89,90,90,91,91,95,95,101,101,103,103,104,104,107,107,108,108,110,110,115,115,117,117,118,118,119,119,120,120,127,127,129,129,130,130,132,132,133,133,143,143,144,144,145,145,148,148,149,149,151,151,152,152,156,156,157,157,163,163,164,164,165,165,166,166,167,167,168,168,169,169,171,171,175,175,176,176,177,177,178,178,179,179,180,180,181,181,182,182,184,184,185,185,187,187,188,188,191,191,192,192,193,193,197,197,199,199,200,200,201,201,205,205,206,206,207,207,209,209,210,210,211,211,212,212,213,213,214,214,215,215,216,216,225,225,226,226,229,229,230,230,233,233,234,234,237,237,238,238,240,240,241,241,244,244,247,247,249,249,250,250,252,252,253,253,254,254,255,255,260,260,264,264,265,265,266,266,267,267,268,268,270,270,276,276,277,277,278,278,279,279,282,282,283,283,288,288,289,289,290,290,291,291,292,292,293,293,294,294,296,296,301,301,304,304,305,305,308,308,312,312,313,313,317,317,319,319,321,321,323,323,327,327,328,328,329,329,331,331,333,333,336,336,340,340,342,342,343,343,348,348,352,352,353,353,354,354,355,355,357,357,358,358,359,359,363,363,364,364,365,365,366,366,369,369,371,371,372,372,375,375,376,376,377,377,378,378,381,381,382,382,385,385,386,386,387,387,388,388,389,389,390,390,391,391,395,395,397,397,401,401,402,402,408,408,412,412,418,418,421,421,422,422,424,424,425,425,427,427,428,428,431,431,435,435,436,436,437,437,438,438,439,439,454,454,455,455,456,456,457,457,458,458,460,460,461,461,464,464,466,466,467,467,468,468,469,469,474,474,477,477,485,485,490,490,491,491,493,493,494,494,496,496,499,499,506,506,507,507,508,508,509,509,510,510,514,514,517,517,519,519,520,520,524,524,525,525,526,526,528,528,531,531,533,533,534,534,535,535,536,536,546,546,561,561,566,566,567,567,570,570,571,571],"right_children":[2,4,6,8,10,12,14,16,18,20,22,24,-1,26,28,30,32,34,36,38,40,42,44,46,48,50,52,54,56,58,60,62,64,-1,-1,-1,66,68,70,-1,-1,72,74,76,-1,78,80,-1,82,84,86,-1,-1,-1,88,90,92,94,-1,96,-1,98,-1,100,102,104,106,108,110,-1,112,114,116,118,120,-1,-1,122,-1,124,-1,126,128,130,132,134,136,138,140,142,144,146,-1,-1,-1,148,-1,-1,-1,-1,-1,150,-1,152,154,-1,-1,156,158,-1,160,-1,-1,-1,-1,162,-1,164,166,168,170,-1,-1,-1,-1,-1,-1,172,-1,174,176,-1,178,180,-1,-1,-1,-1,-1,-1,-1,-1,-1,182,184,186,-1,-1,188,190,-1,192,194,-1,-1,-1,196,198,-1,-1,-1,-1,-1,200,202,204,206,208,210,212,-1,214,-1,-1,-1,216,218,220,222,224,226,228,230,-1,232,234,-1,236,238,-1,-1,240,242,244,-1,-1,-1,246,-1,248,250,252,-1,-1,-1,254,256,258,-1,260,262,264,266,268,270,272,274,-1,-1,-1,-1,-1,-1,-1,-1,276,278,-1,-1,280,282,-1,-1,284,286,-1,-1,288,290,-1,292,294,-1,-1,296,-1,-1,298,-1,300,302,-1,304,306,308,310,-1,-1,-1,-1,312,-1,-1,-1,314,316,318,320,322,-1,324,-1,-1,-1,-1,-1,326,328,330,332,-1,-1,334,336,-1,-1,-1,-1,338,340,342,344,346,348,350,-1,352,-1,-1,-1,-1,354,-1,-1,356,358,-1,-1,360,-1,-1,-1,362,364,-1,-1,-1,366,-1,368,-1,370,-1,372,-1,-1,-1,374,376,378,-1,380,-1,382,-1,-1,384,-1,-1,-1,386,-1,388,390,-1,-1,-1,-1,392,-1,-1,-1,394,396,398,400,-1,402,404,406,-1,-1,-1,408,410,412,414,-1,-1,416,-1,418,420,-1,-1,422,424,426,428,-1,-1,430,432,-1,-1,434,436,438,440,442,444,446,-1,-1,-1,448,-1,450,-1,-1,-1,452,454,-1,-1,-1,-1,-1,456,-1,-1,-1,458,-1,-1,-1,-1,-1,460,-1,-1,462,464,-1,466,468,-1,470,472,-1,-1,474,-1,-1,-1,476,478,480,482,484,-1,-1,-1,-1,-1,-1,-1,-1,-1,-1,-1,-1,-1,-1,486,488,490,492,494,-1,496,498,-1,-1,500,-1,502,504,506,508,-1,-1,-1,-1,510,-1,-1,512,-1,-1,-1,-1,-1,-1,-1,514,-1,-1,-1,-1,516,518,-1,520,522,-1,524,-1,-1,526,-1,-1,-1,-1,-1,-1,528,530,532,534,536,-1,-1,-1,538,-1,-1,540,-1,542,544,-1,-1,-1,546,548,550,-1,552,-1,-1,554,-1,556,558,560,562,-1,-1,-1,-1,-1,-1,-1,-1,-1,564,-1,-1,-1,-1,-1,-1,-1,-1,-1,-1,-1,-1,-1,-1,566,-1,-1,-1,-1,568,570,-1,-1,572,574,-1,-1,-1],"split_conditions":[1.0079451E-4,-5.3418806E-4,1.4145733E-3,3.7771544E-1,-1.0106948E1,1.9588028E-1,4.2024633E-4,-7.936088E-4,4.9E0,1.89E1,2.3613913E-2,-3.205645E1,-2.9042944E-1,8.297543E1,2.6058506E1,9.238468E-4,1E0,-7.9230336E-4,2.9596412E-1,5.332669E-3,-1.7528923E-3,-9.452675E0,6.6936237E-1,5.5903398E-5,-6.2951036E-3,4.9532847E-3,3.2E1,-1.8582414E0,8.5932255E-4,2.6765E1,2.44E1,1.01E1,2.3521775E-1,8.7993495E-2,-2.794283E-1,-2.3548868E-1,7.6119405E-1,2.0773815E-1,9.4E0,1.0727151E-1,-1.2974337E-2,-1.1709658E-4,-9.485095E-2,2.0473973E-4,1.1388599E-1,-4.6575344E1,7E0,-2.4426828E-1,5.1650226E-5,1E0,-9.969096E-5,-2.7502963E-1,5.7719875E-2,-1.9961534E-1,1.2977718E0,-6.654275E-1,4.75E1,-2.4216068E1,-3.1309947E-1,-4.7486988E-1,-2.7502963E-1,9.7E0,-3.441362E-1,-5.533524E-4,7.100412E1,1.0019311E-2,9.704142E-1,-1.865676E-1,6.7746855E-4,-2.5195384E-1,1.13E1,4.4494102E-4,-1.1617469E-1,1E0,-3.7784594E-1,-2.1355782E-1,8.7993495E-2,4.9105034E0,-2.1355782E-1,6.4E0,-3.281638E-1,-2.0632856E1,1.07E1,1.489425E-4,1.4922404E-4,7.5053036E-1,1.0651325E0,-5.173102E-3,-1.1729059E-3,5.49E1,5.060241E-1,2.6574957E-3,7.826187E-3,1.0727151E-1,-1.9961534E-1,-3.151341E-1,-2.701692E-1,-3.1591065E-2,8.7993495E-2,-3.096972E-1,8.7993495E-2,-1.3068119E-4,-2.1355782E-1,1E0,8.556698E1,-2.1355782E-1,8.7993495E-2,1.6090716E-4,-7.500788E-4,-3.5886583E-1,7.110381E-4,1.15722515E-1,-3.1591065E-2,-2.7502963E-1,1.0727151E-1,1.5249138E-1,-3.1591065E-2,6.7038903E0,-3.1666666E1,-2.55833E-4,6.992305E-1,7.826187E-3,1.15722515E-1,-3.1591065E-2,8.7993495E-2,1.01097845E-1,-3.0783173E-1,7.409639E-1,-1.9961534E-1,1E0,1.13E1,-3.096972E-1,4.0762255E-4,4E0,-1.9961534E-1,-2.7502963E-1,1.0727151E-1,-2.3548868E-1,8.7993495E-2,1.1740512E-1,-3.1591065E-2,-2.1355782E-1,8.7993495E-2,1.23E1,7.5053036E-1,3.238022E-3,7.826187E-3,-2.6477018E-1,-1.3270948E1,-3.4173012E-3,-3.1591065E-2,1.5E1,1.269768E-3,-2.3548868E-1,1.0727151E-1,-2.3548868E-1,-1.0970325E-4,3.939865E-2,-3.39514E-1,8.7993495E-2,-2.4426828E-1,1.2350652E-1,3.1218698E-2,8.9E0,2.6E0,-4.789559E-4,1.2561552E-3,3.8091442E1,2.0971166E-3,1.1139663E-3,-3.326264E-1,-9.898619E-4,-1.9961534E-1,-2.794283E-1,8.752537E-2,1E0,1.6835962E-4,-4.3379766E-4,7.6016726E-4,8.384712E-1,8.5E0,5.3072923E-5,1.35E1,-2.1355782E-1,2.0026034E-4,-3.004507E-4,3.1218698E-2,5.444853E-1,6.3282675E-1,1.20006874E-1,7.826187E-3,1.2882859E0,8.033548E1,1.01E1,7.826187E-3,1.15722515E-1,7.826187E-3,5.7E0,-2.7502963E-1,-1.5538757E0,9.2E0,7.9E0,-2.701692E-1,5.7719875E-2,-3.3327383E-1,-2.0741624E-1,-4.192081E-4,3.542987E1,-2.9042944E-1,-3.1943326E-3,8.8E0,8.17757E-1,-6.198327E0,-3.9274674E-3,7.3677593E-1,7.037037E-1,6.225755E-4,1.0727151E-1,-2.3548868E-1,-2.7502963E-1,8.7993495E-2,-3.1591065E-2,1.15722515E-1,-2.3548868E-1,8.7993495E-2,1.2669206E1,-5.1539147E-4,1.0727151E-1,-2.2536352E-1,1E0,-6.900903E0,7.826187E-3,1.0727151E-1,3.2367374E1,1.9077169E-3,8.752537E-2,-2.9042944E-1,5.4555375E-4,-3.1371089E-3,-2.2536352E-1,4.91857E-4,1.4788248E-2,-3.1591065E-2,7.826187E-3,1.62E1,8.7993495E-2,7.826187E-3,6.217121E-4,-3.586109E-1,1.7614671E-4,1E0,-2.5195384E-1,-3.310772E-1,6.570397E1,3.6073658E-1,-7.688601E-1,-3.281638E-1,-1.9961534E-1,1.0727151E-1,-1.2974337E-2,-4.5E1,-2.1355782E-1,8.7993495E-2,-3.2641208E-1,3E0,-5.7407406E1,1.6968608E-3,-4.9295863E-3,-3.3007056E-4,-2.6477018E-1,-2.3054755E-4,1.2537299E-1,7.826187E-3,-1.9961534E-1,8.7993495E-2,-2.3548868E-1,-3.024346E-4,-5.080645E1,1.3294029E-3,-1.0541266E-4,-2.4426828E-1,-1.2974337E-2,1.2237909E-3,-1.6963312E-3,1.275506E-1,1.0727151E-1,7.826187E-3,-2.794283E-1,7.517586E-4,-9.13164E-1,-9.989756E-1,9.068027E0,6.6E0,2.35E1,-7.251193E-4,3.1218698E-2,1.0039041E0,-1.9961534E-1,8.752537E-2,1.2046782E-1,-2.1355782E-1,-2.9300573E-1,-3.3508E-1,-2.1355782E-1,5.750646E-5,9.5127475E-1,-2.3548868E-1,-3.0143714E-1,5.4E0,-2.4426828E-1,8.752537E-2,1.1981191E-1,7.4E0,4.2247632E-1,1.0727151E-1,8.7993495E-2,-3.1144983E-1,3.1860578E-5,-2.5195384E-1,1.34E1,-2.1355782E-1,-4.1614647E-4,-1.2974337E-2,6.0869564E1,-2.2536352E-1,8.7993495E-2,7.826187E-3,4.3930635E-1,6.214605E1,3.3942412E-4,-2.1355782E-1,-2.8528208E-1,-1.2974337E-2,1E0,-1.2974337E-2,1.2717262E-1,6.80203E-1,8.752537E-2,-1.9961534E-1,-2.1355782E-1,-1.9135712E-2,-2.5873786E-1,-6.25E-2,5.4060787E-5,-3.1591065E-2,8.7993495E-2,-2.2536352E-1,3.1218698E-2,-3.380783E1,-3.1591065E-2,8.7993495E-2,1.3122089E-1,-2.5124365E-4,2E0,-3.2458047E-4,1.417415E1,-3.1591065E-2,1.4525868E-3,-4.7812573E-5,5.1506306E-4,-2.2536352E-1,-1.2974337E-2,8.7993495E-2,1.5530935E-1,3.1227142E-1,-1.5318218E-2,-4.5955883E-4,3.1218698E-2,1.0727151E-1,-1.0226305E-3,1.2762502E-1,9.159664E-1,2.6663824E-4,8.7993495E-2,-1.9961534E-1,3.443819E1,5.4911867E-5,-5.8811344E-4,5.3871283E-3,7.826187E-3,1.2717262E-1,-1.7981242E-3,1E0,8.7993495E-2,-4.8350748E-2,-2.850369E0,8.418803E-1,1.0558063E0,8.595041E-1,5.407883E-2,5.820157E-4,7.510917E-1,1.3271232E-1,1.0727151E-1,-1.2974337E-2,2.129812E-4,8.7993495E-2,1.55E1,-2.2536352E-1,1.22008614E-1,7.826187E-3,-8.522968E-5,1.0440263E-3,-2.6477018E-1,8.7993495E-2,-3.1591065E-2,1.0727151E-1,-3.3052883E-1,1.5620932E-4,-3.1591065E-2,8.752537E-2,-2.1355782E-1,-1.3264073E-1,8.7993495E-2,-2.8342795E-1,1.0727151E-1,-3.1591065E-2,-1.9961534E-1,-1.8909948E-3,-2.701692E-1,1.0727151E-1,-6.598597E-4,3.3E0,-1.9961534E-1,2.1075421E-4,1.8728254E-3,-2.2536352E-1,3.583286E-4,-8.304053E-4,8.7993495E-2,-3.1591065E-2,5.266145E-2,7.826187E-3,-1.9961534E-1,8.7993495E-2,-4.6042982E-4,-6.506024E0,-5.4024005E0,3.06E1,-4.318955E-4,1.0727151E-1,1.2595586E-1,7.826187E-3,1.0727151E-1,-1.9961534E-1,3.1218698E-2,8.7993495E-2,5.7719875E-2,-3.319541E-1,7.826187E-3,1.0727151E-1,-3.1591065E-2,1.2930495E-1,-2.6477018E-1,-4.9637477E-3,3.1E0,3.1E0,-7.6277653E-4,4.263566E1,-3.1591065E-2,-4.016685E-3,2.7298841E0,-2.1355782E-1,7.826187E-3,3.96E1,1.1388599E-1,-1.3831259E-3,2E0,-3.7518352E-1,3.1672642E0,-1.2974337E-2,1.0727151E-1,-2.3548868E-1,7.826187E-3,-2.7072927E-1,1.08860455E-1,-2.1355782E-1,1E0,1.3023353E-1,7.826187E-3,1.2359643E-1,-2.1355782E-1,8.7993495E-2,8.7993495E-2,-2.794283E-1,5.1506306E-4,1.2350652E-1,-1.2974337E-2,1.0727151E-1,8.7993495E-2,1.39E1,9.2E0,-2.5873786E-1,4.7E0,-4.0126112E-4,-1.2974337E-2,5.5903398E-5,1.1740512E-1,-1.2974337E-2,1.1761972E-4,7.826187E-3,8.752537E-2,-1.9961534E-1,-2.701692E-1,1.0727151E-1,1.1388599E-1,4.4E0,-1.5048908E-4,-4.182545E-4,-4.5598686E-1,9.8E0,1.20006874E-1,-1.9961534E-1,-2.1355782E-1,2.865877E-4,-3.1883103E-1,8.7993495E-2,1.5024039E-4,1.01097845E-1,-4.8950023E-5,2.865877E-4,1.0727151E-1,-2.3548868E-1,3.1218698E-2,-6.730107E-4,1.74E1,1.1841233E0,1.0727151E-1,1.9593118E-3,8.7993495E-2,-3.1591065E-2,-2.9769287E-4,1.2982991E-1,1.7842584E0,9.3E0,-7.410701E-4,2.05E1,1.0727151E-1,3.1218698E-2,8.7993495E-2,-1.9961534E-1,-2.1355782E-1,1.0727151E-1,3.1218698E-2,1.2130167E-1,3.1218698E-2,8.5E0,-1.2974337E-2,8.7993495E-2,3.1218698E-2,1.2394118E-1,8.7993495E-2,-2.3548868E-1,8.7993495E-2,3.1218698E-2,1.01097845E-1,-2.4426828E-1,3.1218698E-2,1.2717262E-1,1.08860455E-1,-3.1591065E-2,3.7E0,3.1218698E-2,3.1218698E-2,1.3168274E-1,3.1218698E-2,3.973458E-1,-1.6527956E-2,3.1218698E-2,3.1218698E-2,2E0,3E0,3.1218698E-2,1.2533496E-1,3.1218698E-2],"split_indices":[15,6,9,10,10,7,15,6,3,50,19,12,0,11,11,9,28,4,48,19,4,10,46,5,8,10,47,10,15,11,1,47,22,0,0,0,0,22,3,0,0,15,17,4,0,12,47,0,5,23,6,0,0,0,46,16,47,12,0,10,0,3,0,6,11,9,0,17,13,0,2,13,17,28,16,0,0,10,0,3,0,12,47,5,4,17,7,8,6,1,17,52,0,0,0,17,0,0,0,0,0,15,0,25,11,0,0,14,15,0,13,0,0,0,0,7,0,10,12,6,46,0,0,0,0,0,0,48,0,28,49,0,5,2,0,0,0,0,0,0,0,0,0,49,17,5,0,0,10,19,0,3,5,0,0,0,4,17,0,0,0,0,0,3,50,6,19,11,9,9,0,14,0,0,0,45,5,6,19,7,47,5,47,0,4,6,0,46,46,0,0,10,11,47,0,0,0,3,0,21,3,2,0,0,0,21,13,11,0,8,3,48,10,8,10,0,4,0,0,0,0,0,0,0,0,10,6,0,0,23,10,0,0,11,9,0,0,5,8,0,5,19,0,0,1,0,0,5,0,13,32,0,22,12,7,7,0,0,0,0,12,0,0,0,23,12,5,8,13,0,6,0,0,0,0,0,4,12,5,13,0,0,13,13,0,0,0,0,5,7,21,10,3,47,6,0,7,0,0,0,0,21,0,0,15,46,0,0,3,0,0,0,3,46,0,0,0,15,0,3,0,6,0,12,0,0,0,0,12,5,0,7,0,20,0,0,0,0,0,0,19,0,17,15,0,0,0,0,12,0,0,0,4,34,15,12,0,9,6,13,0,0,0,22,16,19,6,0,0,13,0,0,5,0,0,11,5,8,18,0,0,6,38,0,0,10,48,46,0,17,4,0,0,0,0,5,0,3,0,0,0,15,14,0,0,0,0,0,5,0,0,0,16,0,0,0,0,0,8,0,0,13,3,0,15,9,0,15,13,0,0,46,0,0,0,13,12,10,3,4,0,0,0,0,0,0,0,0,0,0,0,0,0,0,19,3,1,17,12,0,19,10,0,0,49,0,6,26,17,10,0,0,0,0,17,0,0,32,0,0,0,0,0,0,0,13,0,0,0,0,3,3,0,3,6,0,5,0,0,15,0,0,0,0,0,0,3,4,4,21,1,0,0,0,5,0,0,5,0,4,5,0,0,0,14,3,10,0,9,0,0,6,0,10,3,6,2,0,0,0,0,0,0,0,0,0,49,0,0,0,0,0,0,0,0,0,0,0,0,0,0,3,0,0,0,0,17,19,0,0,26,54,0,0,0],"split_type":[0,0,0,0,0,0,0,0,0,0,0,0,0,0,0,0,0,0,0,0,0,0,0,0,0,0,0,0,0,0,0,0,0,0,0,0,0,0,0,0,0,0,0,0,0,0,0,0,0,0,0,0,0,0,0,0,0,0,0,0,0,0,0,0,0,0,0,0,0,0,0,0,0,0,0,0,0,0,0,0,0,0,0,0,0,0,0,0,0,0,0,0,0,0,0,0,0,0,0,0,0,0,0,0,0,0,0,0,0,0,0,0,0,0,0,0,0,0,0,0,0,0,0,0,0,0,0,0,0,0,0,0,0,0,0,0,0,0,0,0,0,0,0,0,0,0,0,0,0,0,0,0,0,0,0,0,0,0,0,0,0,0,0,0,0,0,0,0,0,0,0,0,0,0,0,0,0,0,0,0,0,0,0,0,0,0,0,0,0,0,0,0,0,0,0,0,0,0,0,0,0,0,0,0,0,0,0,0,0,0,0,0,0,0,0,0,0,0,0,0,0,0,0,0,0,0,0,0,0,0,0,0,0,0,0,0,0,0,0,0,0,0,0,0,0,0,0,0,0,0,0,0,0,0,0,0,0,0,0,0,0,0,0,0,0,0,0,0,0,0,0,0,0,0,0,0,0,0,0,0,0,0,0,0,0,0,0,0,0,0,0,0,0,0,0,0,0,0,0,0,0,0,0,0,0,0,0,0,0,0,0,0,0,0,0,0,0,0,0,0,0,0,0,0,0,0,0,0,0,0,0,0,0,0,0,0,0,0,0,0,0,0,0,0,0,0,0,0,0,0,0,0,0,0,0,0,0,0,0,0,0,0,0,0,0,0,0,0,0,0,0,0,0,0,0,0,0,0,0,0,0,0,0,0,0,0,0,0,0,0,0,0,0,0,0,0,0,0,0,0,0,0,0,0,0,0,0,0,0,0,0,0,0,0,0,0,0,0,0,0,0,0,0,0,0,0,0,0,0,0,0,0,0,0,0,0,0,0,0,0,0,0,0,0,0,0,0,0,0,0,0,0,0,0,0,0,0,0,0,0,0,0,0,0,0,0,0,0,0,0,0,0,0,0,0,0,0,0,0,0,0,0,0,0,0,0,0,0,0,0,0,0,0,0,0,0,0,0,0,0,0,0,0,0,0,0,0,0,0,0,0,0,0,0,0,0,0,0,0,0,0,0,0,0,0,0,0,0,0,0,0,0,0,0,0,0,0,0,0,0,0,0,0,0,0,0,0,0,0,0,0,0,0,0,0,0,0,0,0,0,0,0,0,0,0,0,0,0,0,0,0,0,0,0,0],"sum_hessian":[1.7689569E3,7.77842E2,9.9111487E2,3.1446362E2,4.633784E2,1.2693399E2,8.6418085E2,1.7188565E2,1.4257796E2,8.990333E1,3.7347504E2,1.2317152E2,3.7624738E0,3.0060187E2,5.63579E2,1.2633991E2,4.554574E1,4.9506235E0,1.3762733E2,8.376455E1,6.1387734E0,3.611975E2,1.2277547E1,2.1980768E1,1.0119075E2,2.9565125E2,4.9506235E0,1.841632E1,5.4516266E2,1.0495322E1,1.158446E2,1.920842E1,2.6337318E1,1.7822245E0,3.168399E0,1.7822245E0,1.3584511E2,7.3467255E1,1.02972975E1,3.564449E0,2.5743244E0,2.039657E1,3.4080093E2,3.168399E0,9.109148E0,9.109148E0,1.2871621E1,1.9802494E0,9.9210495E1,6.297193E1,2.326793E2,2.970374E0,1.9802495E0,1.1881497E0,1.722817E1,2.881263E2,2.5703638E2,4.752599E0,5.7427235E0,1.1287422E2,2.970374E0,4.554574E0,1.4653846E1,7.128898E0,1.920842E1,1.3267671E2,3.168399E0,2.8713617E1,4.4753635E1,2.1782744E0,8.119023E0,6.5348234E0,1.3861747E1,1.9188617E2,1.4891476E2,1.3861746E0,1.7822245E0,7.722973E0,1.3861746E0,4.554574E0,8.317048E0,1.0693347E1,8.851715E1,4.475364E1,1.8218294E1,2.2614449E2,6.5348234E0,3.564449E0,1.3663721E1,3.168399E0,2.849579E2,2.5466008E2,2.3762994E0,3.564449E0,1.1881497E0,1.1010187E2,2.772349E0,2.7723494E0,1.7822245E0,5.3466735E0,1.7822245E0,1.7822245E1,1.3861746E0,1.2733004E2,5.3466735E0,1.3861746E0,1.7822245E0,9.505198E0,1.920842E1,4.0991165E1,3.762474E0,5.3466735E0,2.7723494E0,2.970374E0,3.564449E0,1.1089397E1,2.7723494E0,1.1010187E2,8.17843E1,3.683264E1,1.1208212E2,2.3762994E0,5.3466735E0,2.7723494E0,1.7822245E0,5.5446987E0,5.1486487E0,8.7329E1,1.1881497E0,6.930873E0,3.7822765E1,5.3466735E0,1.2871621E1,2.2495634E2,1.1881497E0,2.970374E0,3.564449E0,1.7822245E0,1.7822245E0,1.0891372E1,2.7723494E0,1.3861746E0,1.7822245E0,2.7763098E2,7.326923E0,2.5228378E2,2.3762994E0,2.5743244E0,1.0752755E2,1.5049896E1,2.7723494E0,7.663566E1,5.0694386E1,1.7822245E0,3.564449E0,1.7822245E0,7.722973E0,7.128898E0,1.2079521E1,1.7822245E0,1.9802494E0,8.911122E0,2.1782744E0,8.41606E1,2.5941269E1,1.1683472E1,7.010083E1,8.515073E0,2.8317568E1,1.0257692E2,9.505198E0,8.6140854E1,1.1881497E0,3.168399E0,3.762474E0,3.2476093E1,5.3466735E0,4.752599E0,8.119023E0,3.564449E0,2.2139189E2,5.1486487E0,2.7248233E2,1.3861746E0,5.940748E0,2.5010551E2,2.1782744E0,7.524948E0,1.000026E2,1.2673596E1,2.3762994E0,3.4654366E1,4.198129E1,4.831809E1,2.3762994E0,5.3466735E0,2.3762994E0,4.158524E0,2.970374E0,4.475364E1,3.9406963E1,2.3168919E1,2.772349E0,1.9802495E0,9.703222E0,5.604106E1,1.4059772E1,4.752599E0,3.7624738E0,2.5149168E1,3.168399E0,4.3169437E1,5.9407482E1,3.9406963E1,4.6733887E1,2.9505718E1,2.970374E0,3.564449E0,1.7822245E0,2.970374E0,1.7822245E0,2.7723494E0,5.3466735E0,1.7822245E0,1.7822245E0,5.940748E0,2.1545114E2,3.564449E0,1.5841995E0,1.9406445E1,2.5307588E2,2.3762994E0,3.564449E0,2.4416476E2,5.940748E0,3.762474E0,3.7624738E0,8.119022E0,9.1883575E1,1.5841995E0,3.3070168E1,3.920894E1,2.7723494E0,2.3762994E0,4.5941788E1,1.7822245E0,2.3762994E0,4.9506235E0,3.9803013E1,8.515073E0,3.0891891E1,2.1782744E0,2.0990644E1,4.3565487E1,1.2475572E1,5.7427235E0,8.317048E0,1.1881497E0,3.564449E0,2.5743244E0,2.2574844E1,1.3861746E0,1.7822245E0,7.9209976E0,3.524844E1,7.326923E0,5.2080563E1,7.128898E0,3.2278065E1,2.5743244E0,4.4159565E1,2.7129417E1,2.3762994E0,1.1881497E0,1.7822245E0,1.7822245E0,4.158524E0,1.4297401E2,7.247713E1,1.7426195E1,1.9802494E0,2.5743244E0,2.5050156E2,1.722817E1,2.2693658E2,3.564449E0,2.3762994E0,3.168399E0,4.9506235E0,5.920946E1,3.2674118E1,2.9703743E1,3.366424E0,3.4654366E1,4.554574E0,2.1782744E0,4.3763515E1,1.1881497E0,3.762474E0,7.128898E0,1.3861746E0,2.0594595E1,1.02972975E1,1.3861746E0,1.960447E1,4.1783264E1,1.7822245E0,4.5545735E0,7.920998E0,1.9802494E0,3.762474E0,1.8218296E1,4.356549E0,3.168399E1,3.564449E0,1.7822245E0,5.544698E0,4.9902287E1,2.1782744E0,5.7427235E0,1.3861746E0,2.9703743E1,2.5743244E0,4.2575363E1,1.5841995E0,1.7822245E0,2.3762994E0,2.970374E0,1.4000363E2,7.109096E1,1.3861746E0,1.48518715E1,2.5743244E0,2.4792723E2,2.5743244E0,1.2475572E1,4.752599E0,3.762474E0,1.1881497E0,1.3861746E0,5.7823284E1,2.3762994E0,3.0297817E1,2.6931393E1,2.7723494E0,1.7822245E0,1.5841995E0,2.1782744E0,3.2476093E1,2.7723494E0,1.7822245E0,3.762474E1,6.1387734E0,1.3069647E1,7.524948E0,1.683212E1,2.7723494E0,3.7426716E1,4.356549E0,6.336798E0,1.5841995E0,2.5743244E0,1.7822245E0,2.5149168E1,6.5348234E0,4.475364E1,5.1486487E0,2.1782744E0,3.564449E0,6.336798E0,2.3366943E1,3.6238567E1,6.336798E0,1.7822245E0,1.1881497E0,1.24755714E2,1.5247921E1,2.4159044E1,4.693191E1,2.3762994E0,1.2475572E1,4.554574E0,2.4337267E2,1.7822245E0,2.970374E0,2.970374E0,5.485291E1,2.1782743E1,8.515073E0,2.2178795E1,4.752599E0,3.960499E0,2.8515593E1,3.564449E0,2.5743244E0,1.1287422E1,1.7822245E0,5.940748E0,1.5841995E0,1.4455821E1,2.3762994E0,1.881237E1,1.8614346E1,2.5743244E0,1.7822245E0,2.7723494E0,3.564449E0,8.911122E0,1.6238045E1,2.7723494E0,3.762474E0,1.3861746E0,4.3367462E1,1.7822245E0,3.366424E0,3.564449E0,2.7723494E0,1.1881497E0,3.5050415E1,2.772349E0,3.564449E0,1.48518715E1,1.0990385E2,1.1881497E0,1.4059772E1,2.2574844E1,1.5841995E0,4.158524E1,5.3466735E0,1.7822245E0,2.7723494E0,2.4099637E2,2.3762994E0,1.1881497E0,1.7822245E0,8.713098E0,4.6139812E1,1.8614346E1,3.168399E0,4.9506235E0,3.564449E0,1.9802494E1,2.3762994E0,3.564449E0,1.1881497E0,2.1782744E0,1.7822245E0,1.9802495E0,9.307173E0,2.3762994E0,3.564449E0,2.7723494E0,1.604002E1,2.5743244E0,1.604002E1,6.1387734E0,1.0099272E1,1.0891372E1,3.2476093E1,2.7723494E0,3.2278065E1,1.3465696E1,1.3861746E0,2.3762994E0,1.0752755E2,9.109148E0,4.9506235E0,6.336798E0,1.6238047E1,3.9010914E1,2.5743244E0,3.564449E0,1.7822245E0,2.3762994E0,2.3862006E2,7.326923E0,1.3861746E0,1.3861747E1,3.2278065E1,2.3762994E0,1.6238047E1,1.3861746E0,1.7822245E0,1.7822245E0,3.168399E0,7.128898E0,8.911122E0,2.5743244E0,3.564449E0,1.7822245E0,8.317048E0,8.515073E0,2.3762994E0,2.7129417E1,5.3466735E0,2.5743244E0,2.9703743E1,1.0891372E1,2.5743244E0,1.05151245E2,2.3762994E0,3.762474E0,1.1881497E0,2.772349E0,3.564449E0,9.109148E0,7.128898E0,4.554574E0,3.445634E1,2.2178795E1,2.1644127E2,1.2673596E1,1.1881497E0,1.3861746E0,5.7427235E0,6.534823E0,1.7822245E0,2.970374E0,5.5446987E0,4.9506235E0,2.2178795E1,3.564449E0,1.7822245E0,2.1782744E0,2.7525467E1,4.356549E0,1.007947E2,3.564449E0,3.564449E0,1.7822245E0,2.7723494E0,3.960499E0,3.0495842E1,7.524948E0,1.4653846E1,1.0099273E1,2.06342E2,3.564449E0,2.1782744E0,1.7822245E0,1.1881497E0,1.3861746E0,3.564449E0,2.1782744E0,2.000052E1,2.1782744E0,2.5347193E1,2.5743244E0,1.7822245E0,2.1782744E0,9.8616425E1,1.7822245E0,1.7822245E0,1.7822245E0,2.1782744E0,5.5446987E0,1.9802494E0,2.1782744E0,1.2475572E1,7.326923E0,2.7723494E0,2.0416373E2,2.1782744E0,2.1782744E0,2.3168919E1,2.1782744E0,2.0198544E2,1.9980717E2,2.1782744E0,2.1782744E0,1.9762889E2,1.9545062E2,2.1782744E0,1.9327235E2,2.1782744E0],"tree_param":{"num_deleted":"0","num_feature":"55","num_nodes":"575","size_leaf_vector":"1"}},{"base_weights":[7.1116686E-2,-6.5023154E-1,7.110396E-1,8.1977494E-2,-1.015875E0,2.9506272E-1,1.011542E0,-3.495073E-1,6.121318E-1,-1.3750651E0,-4.86258E-1,-2.6809397E-1,4.1887042E-1,-1.9377135E-1,1.023328E0,-2.6121438E-1,-2.5153312E-1,-2.4057667E-1,6.940018E-1,-2.341606E0,-1.2398007E0,-1.6081215E0,-2.8502136E-1,-2.5740382E-1,-4.4293076E-2,4.4342974E-1,-2.2371565E-1,6.4707273E-1,1.0966363E0,-1.4202243E0,-1.2088039E-1,7.5673544E-1,-2.0892584E-1,-2.6859176E0,8.31095E-2,-1.0929521E0,-2.0498307E0,3.54877E-1,-1.9046098E0,-2.471915E-1,-2.2000271E-1,9.305545E-2,-2.2818203E-1,-4.4122574E-1,5.166845E-1,-2.2520135E-1,7.330962E-1,3.793793E-1,1.1096673E0,-2.0965312E0,3.422254E-1,-1.4112077E0,1.0916389E-1,7.930697E-1,-1.7274311E-1,-6.52994E-1,-2.8892297E-1,-2.1377525E0,-9.4284314E-1,-2.187521E0,5.6508012E-2,-1.1755666E-2,8.4683314E-2,-2.1457098E0,7.273604E-2,-6.484007E-2,-1.047656E0,-1.4309931E0,2.5235456E-1,-2.4261115E-1,5.091349E-2,-1.9839689E-1,5.3828895E-1,8.0320597E-1,-2.1151619E-1,-1.8589082E-1,9.44586E-1,2.2968467E-4,1.1153606E0,-2.676756E-1,5.484551E-2,8.4683314E-2,-1.3954855E-2,-2.3373656E0,8.484604E-1,1.9050395E-1,-2.2428031E-1,8.295195E-1,-1.651413E-1,-1.8683296E-1,8.4683314E-2,-2.3421836E0,5.597077E-2,-3.691321E-1,-1.2536323E0,-2.3339367E0,5.458355E-2,-2.8958595E-1,-9.104009E-1,6.802377E-2,-1.6111645E0,-1.9511163E0,4.9243224E-1,-2.475818E-1,8.331444E-2,-5.7981217E-1,5.762398E-1,7.467997E-1,-1.4171857E0,5.598646E-1,-1.9209348E-1,8.548415E-1,-5.0366664E-1,2.6378026E-2,1.13222264E-1,1.1210793E0,1.1928647E-3,8.769383E-2,-2.8518805E-1,2.5928E-2,1.0624597E-1,7.4966466E-1,-7.341548E-2,8.847845E-1,-2.9986998E-1,-2.8211242E-1,-5.679295E-1,-1.5706325E0,6.4509134E-3,-1.6312841E0,-6.6785115E-1,-2.6479552E0,-8.168162E-1,-2.3818676E-1,3.99658E-3,-2.4364471E-1,1.5015389E-1,8.323265E-2,-2.0640092E0,-7.822567E-5,-2.759703E-1,-7.9166144E-1,1.18723586E-1,-1.9365742E0,9.784518E-1,-1.1795151E0,8.190406E-1,1.0893682E0,-4.637423E-1,-2.4976097E-1,9.6027374E-2,-3.1736454E-1,6.2100345E-1,9.002118E-1,-3.850636E-2,-1.880281E-1,8.3604455E-2,1.1268021E0,2.4190338E-3,9.6555674E-1,-3.6179635E-1,-2.3524645E-1,6.186435E-2,9.9947536E-1,5.096853E-1,-1.9150227E-1,4.8043123E-1,6.465885E-1,-2.0758013E-1,-2.6426607E-1,4.0053904E-2,1.5739548E-1,-2.22457E-1,1.3820787E-1,-1.9253559E0,-2.2260952E0,-1.9748773E-1,-2.8670618E-1,-5.473472E-1,-2.2690283E-1,6.6330063E-1,5.823674E-1,-1.7184058E-1,-3.8081548E-1,4.9369743E-1,2.8247425E-2,-2.6631925E-1,7.744989E-1,-1.707624E-1,-1.9913332E-1,8.397468E-2,8.331444E-2,-2.658331E-1,2.8640706E-2,1.1652591E-1,-2.2716916E-1,8.331444E-2,9.9427366E-1,-7.246272E-1,1.2362837E-1,2.7614465E-2,-1.7610012E-1,8.308543E-2,1.0949933E-1,-2.2320548E-1,5.085818E-1,1.086805E0,9.468728E-1,-3.1322226E-1,3.9513535E-3,1.1325282E0,-2.7689382E-1,1.1038809E0,1.028496E-1,-2.1802397E-1,-1.2577736E0,2.637382E-1,1.0584959E0,2.585074E-1,-1.9977765E-1,7.203456E-1,8.304813E-2,5.475437E-3,2.7606193E-2,8.3462514E-2,9.923933E-2,-2.0255898E-1,-2.1165645E-1,2.9722512E-1,7.083624E-1,-2.0126413E-1,5.921109E-1,-2.1586506E0,-2.755216E-1,8.397468E-2,-2.5373927E-1,1.3268128E-1,8.4683314E-2,-1.8065448E-1,8.397468E-2,3.0074751E-2,-1.3578351E-2,1.030853E-1,-6.974944E-1,1.0832127E0,-1.2733784E0,6.102159E-1,1.0188977E-1,2.8964749E-2,-1.5781686E-2,1.0908108E0,-1.9838914E-1,8.331444E-2,-1.0182385E0,1.0891711E-1,5.444167E-1,-2.1175878E-1,2.6071144E-3,1.1348783E0,6.1843585E-2,1.0017481E0,8.3604455E-2,-1.648101E-1,6.5041363E-1,1.1488901E0,-1.5925847E-1,8.470059E-2,4.7762906E-3,1.1999766E-1,4.8906702E-1,-2.551428E-1,-2.1960056E-1,4.0585804E-1,1.8170018E-1,1.1084146E0,-1.912228E-1,9.794694E-2,8.86262E-1,-1.7487241E-1,3.9438382E-1,-1.8790847E-1,-2.978807E-1,1.0830517E-1,1.02959394E-1,-1.0726375E-2,-5.46082E-1,-2.51664E0,-2.2910006E-1,3.7765536E-1,-2.6255196E-1,-3.444214E-1,2.9632146E-2,1.2488782E-1,8.397468E-2,-2.3707484E-1,-1.6337492E-1,6.600864E-1,8.098052E-3,1.1695927E0,1.0280662E-1,-2.5852945E-1,5.6328595E-1,-1.7691733E-1,1.1927862E0,4.5901728E-1,-1.8148266E-1,1.02739885E-1,1.04578E0,-1.927342E-2,-1.8329974E-1,9.7912073E-1,8.511032E-1,1.1714866E0,8.470059E-2,4.9262424E-3,4.939531E-1,-1.8067269E-1,1.0276934E-1,-1.7161457E-1,3.442009E-1,1.1744672E0,-1.7055394E-2,1.0068733E0,-5.1820595E-2,9.675382E-1,-1.610903E-1,8.3665825E-2,-2.4958193E-1,1.0587595E-1,-2.773131E0,-9.5749155E-2,-1.1220554E0,6.2346035E-1,-1.0464274E0,3.0747017E-1,7.1052045E-1,-1.5638076E-1,2.8072739E-2,1.2283171E0,-9.042518E-2,6.3843423E-1,2.7022174E-2,1.2312787E0,-1.24793565E-2,9.996342E-2,4.256802E-3,1.0786817E0,6.3748675E-4,1.1487198E-1,1.0011116E0,-5.219215E-1,1.1756074E0,3.0509979E-2,-1.0151179E0,6.231443E-1,9.606251E-2,-1.6965456E-1,-1.9518232E-2,1.2293602E0,1.1531125E0,-1.27448095E-2,6.539692E-1,-2.5680014E-1,1.2113167E-1,1.0464653E-1,-2.9164144E-1,-1.2172728E-2,1.0482222E-1,-1.8841724E-1,-2.1998239E-1,8.470059E-2,7.767085E-1,-1.700204E-1,1.02717735E-1,-1.5280483E0,8.026672E-1,-1.2186764E0,-5.9748954E-1,7.7262324E-1,2.8770084E-2,1.2965219E-1,-1.0859865E0,4.9323952E-1,6.702091E-1,-7.9961073E-1,6.3994646E-1,1.2715634E0,6.2952684E-3,1.1135228E0,9.8127976E-2,1.1668931E0,-1.914522E-1,8.3235346E-2,4.8711395E-1,1.1816529E0,8.3509654E-2,-2.171173E-1,-1.6584451E-1,6.98178E-1,6.324053E-1,1.2555336E0,2.6505431E-2,1.23840444E-1,-1.8697612E-1,8.979409E-1,1.1321547E-1,-1.8432729E-1,9.22786E-1,-4.6088913E-1,-2.7004427E-1,-2.1561971E-1,-1.653346E-1,1.0673832E0,8.4683314E-2,-2.2878392E-1,-1.8928275E-1,8.373285E-2,3.8745797E-1,9.5935804E-1,2.1883322E-1,-2.4606259E-1,-2.0141986E-1,8.971103E-1,5.2283347E-1,1.0024153E0,8.580787E-2,-2.060682E-1,2.6505291E-2,8.3366476E-2,5.228728E-2,1.2950316E-1,1.1368017E0,2.6772156E-2,1.05617225E-1,-1.846419E-1,6.952396E-1,1.2680598E-1,8.397468E-2,5.533219E-3,1.1086628E0,1.2550111E-1,-5.8608735E-1,7.9001397E-1,8.329326E-2,2.5196424E-2,5.1290225E-2,1.2700914E-1,2.1033293E-1,1.1744708E0,1.0824752E0,1.0384428E-1,8.3382286E-2,-1.7669663E-1,8.341947E-1,-2.1447678E-1,1.2308315E-1,7.3345075E-3,-2.0927913E-1,6.941966E-1,6.9051754E-1,1.2937143E-1,8.921404E-2,-3.4987417E-1,1.2119967E-1,-2.3211963E-1,5.912688E-1,-1.2000605E0,-2.9589444E-1,1.0733286E0,1.1613292E0,2.784585E-2,5.700483E-3,1.0237318E-1,1.1309732E0,-3.7899982E-2,8.3509654E-2,-1.8568613E-1,8.9066005E-1,-5.033379E-1,-1.6853786E-1,8.51774E-1,3.1479843E-2,1.321007E-1,1.2369757E0,-1.5112867E-2,-1.6721171E-1,1.032232E-1,1.0293181E-1,2.9453943E-2,-9.0810823E-1,1.0390558E0,9.3863595E-1,-3.7446964E-1,8.323265E-2,-1.7341441E-1,8.921404E-2,-1.6363409E-1,-1.6177015E-1,6.223341E-1,-2.3080213E-1,8.323265E-2,8.4683314E-2,-1.6420242E-1,1.2246443E-1,5.0492257E-1,8.145149E-1,1.2203317E0,1.9070475E-3,1.1440171E0,-2.8672308E-1,9.6963406E-1,-1.8452938E-1,8.921404E-2,1.056776E-1,2.8353563E-2,6.4063644E-1,1.3293919E-1,8.4683314E-2,-2.1143535E-1,1.1615876E-1,4.1923686E-3,1.0654414E0,-1.2685831E-2,8.352846E-2,-2.1720408E-1,1.20714135E-1,7.6595676E-1,-1.8248783E-1,9.031623E-1,-1.5385014E-2,1.08610034E-1,6.3149565E-1,1.2533854E0,1.152463E0,2.4365945E-2,-1.5710665E-1,8.337902E-2,1.0182028E0,4.748652E-3,8.351675E-2,2.6394045E-2,6.894351E-3,1.1777935E0,6.110526E-1,-2.55707E-1,8.267828E-1,-2.7933618E-1,1.10161856E-1,5.0021904E-3,8.420101E-2,2.3832193E-2,6.532419E-1,1.290595E-1,1.160966E0,2.5716169E-2,5.938079E-1,1.2018743E0,2.8691491E-2,1.2667184E-1,9.6478605E-1,-1.078342E0,8.6528766E-1,-3.6190234E-2,-2.2963583E-1,1.0520951E-1,2.823756E-2,8.397468E-2,4.5666674E-1,1.1735135E0,9.530941E-1,-1.8338703E-1,5.0505906E-1,1.2953398E-1,-1.9345723E-2,1.1193527E0,8.680443E-2,-2.3949054E-1,-1.6995806E-1,9.1326517E-1,8.331581E-2,7.443057E-4,1.1864058E0,4.6867502E-1,1.1309385E-1,6.5021925E-3,7.904596E-3,8.470059E-2,1.0419442E-2,1.254653E0,9.552828E-1,-3.313155E-1,6.277665E-1,1.1946503E0,2.990163E-3,8.331581E-2,1.3099532E-1,5.1954586E-2,1.0143387E0,-4.7856737E-2,-1.6876368E-1,8.3366476E-2,8.3235346E-2,2.4365945E-2,6.2953985E-1,1.2032232E0,2.3490441E-1,1.0764918E0,-2.0154706E-1,1.0459814E-1,2.4232762E-2,8.3604455E-2,6.401913E-1,1.2119813E-1,-2.0193838E-1,1.1098113E-1,1.1156471E0,3.128099E-1,8.3604455E-2,2.6267802E-2,6.6474384E-1,1.1741772E0,8.3366476E-2,-1.7631806E-2,1.1719122E-1,-5.249019E-1,6.862971E-1,1.2699318E0,8.3604455E-2,-1.9377548E-1,-3.412015E-1,1.0033953E0,5.2434083E-2,1.2874119E-1,8.3665825E-2,-1.7278807E-1,1.16874956E-1,2.5859376E-2],"categories":[],"categories_nodes":[],"categories_segments":[],"categories_sizes":[],"default_left":[0,0,0,0,0,0,0,0,0,0,0,0,1,0,0,0,0,0,1,0,0,0,0,0,0,0,0,0,0,0,0,0,0,0,0,0,0,0,0,0,0,0,0,0,0,0,0,0,0,1,0,0,1,0,0,0,0,0,0,1,0,0,0,0,0,0,0,0,0,0,0,0,0,0,0,0,0,0,0,0,0,0,0,0,0,0,0,0,0,0,0,0,0,0,0,1,0,0,0,0,0,0,0,0,0,0,0,0,0,0,0,1,0,0,0,0,0,0,0,0,0,0,0,0,0,0,0,0,1,0,0,0,0,0,0,0,0,0,0,0,0,0,0,0,0,0,0,0,0,0,0,0,1,1,0,0,0,0,0,0,0,0,0,0,0,0,0,0,0,0,0,0,0,0,0,1,0,0,0,0,0,0,0,0,0,0,0,0,0,0,0,0,0,0,0,0,0,0,0,0,0,0,0,0,0,1,0,0,0,0,0,0,0,0,0,0,0,0,0,0,0,0,0,0,0,0,0,0,0,0,0,0,0,0,0,0,0,0,0,0,0,0,0,0,0,0,0,0,0,0,0,0,0,0,0,1,0,0,0,0,0,0,0,0,0,0,0,0,0,0,0,0,0,0,0,0,0,0,0,0,0,1,0,0,0,0,0,0,0,0,0,0,0,0,0,0,0,0,0,0,0,0,0,0,0,0,0,0,0,0,0,0,0,0,0,0,0,0,0,0,0,0,0,0,0,0,0,0,0,0,0,0,0,0,0,0,0,0,0,0,0,0,0,0,0,0,0,0,0,0,0,0,0,0,0,0,0,0,0,0,0,0,0,0,0,0,0,0,0,0,0,0,0,0,0,0,0,0,0,0,0,0,0,0,0,0,0,0,0,0,0,0,0,0,0,0,0,0,0,0,0,0,0,0,0,0,0,0,0,0,0,0,0,0,0,0,0,0,0,0,0,0,0,0,0,0,0,0,0,0,0,0,0,0,0,0,0,0,0,0,0,0,0,0,0,0,0,0,0,0,0,0,0,0,0,0,0,0,0,0,0,0,0,0,0,0,1,0,0,0,0,0,0,0,0,0,0,0,0,0,0,0,0,0,0,0,0,0,0,0,0,0,0,0,0,0,0,0,0,0,0,0,0,0,0,0,0,0,0,0,1,0,0,0,0,0,0,0,0,0,0,0,0,0,0,0,0,0,0,0,0,0,0,0,0,0,0,0,0,0,0,0,0,0,0,0,0,0,0,0,0,0,0,0,0,0,0,0,0,0,0,0,0,0,0,0,0,0,0,0,0,0,0,0,0,0,0,0,0,0,0,0,0,0,0,0,0,0,0,0,0,0,0,0,0,0,0,0,0,0,0,0,0,1,0,0,0,0,0,0,0,0,0,0,0,0,0,0,0,0,0,0,0,0,0,0,0,0,0,0,0,0,0,0,0,0,0],"id":1,"left_children":[1,3,5,7,9,11,13,15,17,19,21,23,25,-1,27,29,-1,-1,31,33,35,37,39,-1,41,43,-1,45,47,49,51,53,-1,55,-1,57,59,61,63,-1,65,67,-1,69,71,-1,73,75,77,79,81,83,85,87,-1,89,-1,91,93,95,-1,-1,-1,97,-1,99,101,103,105,-1,107,-1,109,111,-1,-1,113,-1,115,-1,-1,-1,-1,117,119,121,-1,123,-1,-1,-1,125,-1,127,129,131,-1,-1,133,135,137,139,141,-1,-1,143,145,147,149,151,-1,153,155,-1,-1,157,-1,-1,-1,-1,-1,159,161,163,165,-1,167,169,171,173,175,177,179,-1,181,-1,183,-1,185,187,-1,189,-1,191,193,195,197,199,201,-1,-1,203,205,207,-1,-1,-1,209,-1,211,213,-1,215,217,219,-1,221,223,-1,-1,225,227,-1,229,231,233,235,-1,237,-1,239,241,-1,243,245,-1,-1,247,-1,-1,-1,-1,-1,-1,-1,-1,-1,249,251,-1,-1,-1,-1,253,-1,255,257,259,261,-1,263,265,267,-1,-1,269,271,273,275,-1,277,-1,-1,-1,-1,-1,-1,-1,279,281,-1,283,285,-1,-1,-1,287,-1,-1,-1,-1,-1,-1,289,291,293,295,-1,-1,-1,297,-1,-1,299,-1,301,-1,-1,303,305,307,-1,-1,309,311,-1,-1,-1,-1,313,-1,-1,315,317,319,-1,-1,321,-1,323,-1,325,-1,-1,-1,327,329,-1,331,-1,333,-1,-1,-1,-1,-1,335,-1,337,-1,-1,339,-1,341,343,-1,-1,345,-1,-1,347,349,351,-1,-1,353,-1,-1,-1,355,357,-1,359,361,363,-1,-1,-1,-1,365,367,369,371,373,375,377,-1,-1,379,381,383,-1,385,-1,-1,-1,387,-1,-1,389,391,393,-1,395,397,-1,-1,-1,399,401,-1,403,-1,-1,405,-1,-1,-1,-1,-1,-1,407,-1,-1,409,411,413,415,417,-1,-1,419,421,423,425,427,429,-1,431,433,435,-1,-1,437,439,-1,-1,-1,441,443,445,-1,-1,-1,447,-1,-1,449,451,-1,453,-1,455,-1,-1,-1,-1,457,459,461,-1,-1,463,465,467,-1,-1,-1,-1,-1,-1,469,-1,-1,-1,471,-1,-1,-1,473,-1,475,477,-1,-1,-1,-1,479,481,483,485,-1,-1,487,-1,-1,-1,-1,489,491,-1,-1,493,-1,495,497,499,501,503,505,-1,-1,-1,507,-1,-1,-1,509,511,-1,513,-1,-1,515,-1,-1,-1,-1,-1,517,519,521,523,-1,-1,-1,-1,-1,525,-1,-1,-1,-1,-1,527,529,531,-1,533,535,537,-1,-1,-1,-1,539,-1,-1,-1,-1,-1,541,-1,-1,-1,543,545,-1,547,-1,-1,549,551,553,-1,-1,-1,555,-1,-1,-1,-1,557,559,-1,561,563,-1,-1,-1,-1,565,-1,567,-1,569,571,-1,-1,573,575,577,-1,-1,-1,-1,-1,579,581,583,-1,585,-1,-1,587,-1,-1,-1,589,-1,-1,591,593,-1,-1,-1,-1,-1,595,597,599,601,603,-1,-1,-1,-1,605,607,-1,-1,-1,-1,609,611,613,615,-1,-1,-1,-1,617,-1,-1,-1,619,621,-1,-1,623,625,-1,-1,-1,627,629,631,-1,-1,633,635,-1,-1,-1,-1,-1,-1],"loss_changes":[8.097321E2,2.2086935E2,1.1588953E2,6.325466E1,1.0397565E2,2.7391727E1,2.0726807E1,2.8517786E1,3.2311165E1,3.9878906E1,5.0078125E1,3.659069E1,2.1939445E1,0E0,1.4122742E1,2.3852554E1,0E0,0E0,2.2798489E1,4.4888214E1,3.215869E1,2.0365784E1,2.6616997E1,0E0,2.0448988E1,2.0902317E1,0E0,2.4127594E1,3.7720337E0,1.9621702E1,3.958724E1,1.2162697E1,0E0,1.2770218E1,0E0,3.6714233E1,1.6803879E1,1.3272285E0,2.0311432E1,0E0,2.3895634E1,1.5656497E1,0E0,2.4482178E1,1.7010117E1,0E0,1.9328388E1,1.3805243E1,2.7720947E0,1.9273457E1,1.3963952E0,4.4200474E1,2.2174156E1,1.1931427E1,0E0,9.814009E0,0E0,1.7983002E1,3.835634E1,1.7794647E1,0E0,0E0,0E0,2.2682327E1,0E0,3.2613506E1,4.1859707E1,1.6521078E1,1.5936802E1,0E0,2.2473005E1,0E0,1.6640182E1,6.2938347E0,0E0,0E0,7.574434E-1,0E0,2.7494507E0,0E0,0E0,0E0,0E0,2.6604263E1,5.5643845E-1,1.6405567E1,0E0,7.5966034E0,0E0,0E0,0E0,2.2443054E1,0E0,3.5170807E1,3.005806E1,1.6593674E1,0E0,0E0,1.5861612E1,3.053052E1,1.5614216E1,2.954403E1,1.1348537E1,0E0,0E0,3.723781E1,1.8944046E1,6.6739655E0,2.0599297E1,1.5834747E1,0E0,5.0695686E0,8.823216E0,0E0,0E0,2.7069702E0,0E0,0E0,0E0,0E0,0E0,8.895533E0,2.3632593E1,4.318878E0,8.767231E0,0E0,1.4650085E1,3.2153164E1,2.0675749E1,4.4451797E1,4.125299E1,1.323877E1,1.912566E1,0E0,9.233734E0,0E0,2.6260918E1,0E0,1.6052597E1,9.902834E0,0E0,1.0863177E1,0E0,2.074997E1,7.580309E-1,1.4055706E1,1.090189E1,1.0795269E0,8.151441E0,0E0,0E0,1.6311796E1,1.3738518E1,4.899338E0,0E0,0E0,0E0,2.652893E0,0E0,5.477892E0,1.8726732E1,0E0,1.9748587E1,3.4397354E0,1.639907E1,0E0,6.992185E-1,1.03141785E-1,0E0,0E0,1.8537935E1,1.8901209E1,0E0,1.74093E1,4.4081512E1,2.3551636E1,3.4941303E1,0E0,9.034584E0,0E0,5.6663513E-2,2.3732274E0,0E0,2.7050163E1,1.8735336E1,0E0,0E0,3.1523752E-1,0E0,0E0,0E0,0E0,0E0,0E0,0E0,0E0,0E0,3.9784698E0,1.0314589E1,0E0,0E0,0E0,0E0,1.9922081E1,0E0,2.2019428E1,2.631298E0,3.751976E0,7.148752E0,0E0,2.6524658E0,6.9892836E0,2.711399E0,0E0,0E0,2.349301E1,2.327903E1,3.2267075E0,1.3747714E1,0E0,1.2553833E1,0E0,0E0,0E0,0E0,0E0,0E0,0E0,1.2373514E1,4.4859285E0,0E0,2.241721E0,3.725418E1,0E0,0E0,0E0,2.473559E1,0E0,0E0,0E0,0E0,0E0,0E0,3.125168E1,9.958296E-1,1.5253312E1,1.0310846E1,0E0,0E0,0E0,2.4275284E0,0E0,0E0,2.969896E1,0E0,1.0580688E1,0E0,0E0,1.4052811E0,1.2103783E1,4.0872803E0,0E0,0E0,1.5224138E1,1.7990723E0,0E0,0E0,0E0,0E0,7.497126E-1,0E0,0E0,1.2858064E1,1.0457926E1,3.3265228E0,0E0,0E0,3.4645824E0,0E0,1.3729589E1,0E0,6.979399E0,0E0,0E0,0E0,4.4675808E1,3.356378E1,0E0,1.4476021E1,0E0,1.911977E1,0E0,0E0,0E0,0E0,0E0,1.02430725E1,0E0,1.1864166E0,0E0,0E0,1.0792686E1,0E0,1.2771149E0,1.880603E0,0E0,0E0,2.3111038E0,0E0,0E0,2.4970398E0,7.3118916E0,1.0107422E0,0E0,0E0,1.229553E1,0E0,0E0,0E0,1.080587E1,5.323471E0,0E0,4.0173645E0,5.6775307E1,4.8091106E0,0E0,0E0,0E0,0E0,1.8346039E1,1.4772166E1,1.3789668E1,1.2983301E1,2.1548641E1,1.7658577E1,6.984585E0,0E0,0E0,1.373333E0,1.413651E1,9.497131E0,0E0,2.1620178E-1,0E0,0E0,0E0,2.3752823E0,0E0,0E0,4.385374E0,8.956402E0,1.0118408E0,0E0,1.2717318E1,1.0697763E1,0E0,0E0,0E0,2.2384644E-1,1.2447491E0,0E0,1.7087479E1,0E0,0E0,1.46229925E1,0E0,0E0,0E0,0E0,0E0,0E0,6.1040573E0,0E0,0E0,2.501612E1,1.2990979E1,1.4755353E1,9.397815E0,5.1734314E0,0E0,0E0,1.6615162E1,1.7446121E1,8.896614E0,1.1584296E1,1.255045E-1,1.6269684E-2,0E0,1.0098801E0,1.2670603E1,3.2584763E-1,0E0,0E0,7.180557E-1,6.2927246E-1,0E0,0E0,0E0,6.909048E0,1.5259421E-1,1.2306213E-2,0E0,0E0,0E0,4.2203865E0,0E0,0E0,3.6053638E0,8.208734E0,0E0,1.9887306E1,0E0,2.5409698E0,0E0,0E0,0E0,0E0,2.1880793E1,3.7131271E0,2.4245431E0,0E0,0E0,5.256879E0,1.6671707E1,5.661236E0,0E0,0E0,0E0,0E0,0E0,0E0,1.0377426E0,0E0,0E0,0E0,1.342747E0,0E0,0E0,0E0,6.9917145E0,0E0,9.174748E0,7.1433525E0,0E0,0E0,0E0,0E0,1.1111004E1,1.6674995E0,4.7008476E0,1.1198205E1,0E0,0E0,3.820095E-1,0E0,0E0,0E0,0E0,1.4562615E1,8.424375E0,0E0,0E0,7.512974E0,0E0,7.6016045E0,9.987854E0,1.4310595E1,7.220317E0,4.1336784E0,2.8579712E-1,0E0,0E0,0E0,2.807373E0,0E0,0E0,0E0,4.748661E0,9.796782E0,0E0,4.7030544E-1,0E0,0E0,3.1429672E-1,0E0,0E0,0E0,0E0,0E0,1.2160662E1,2.4862938E0,3.5214825E0,1.5922324E1,0E0,0E0,0E0,0E0,0E0,9.257729E0,0E0,0E0,0E0,0E0,0E0,1.40044365E1,3.3493347E0,2.0970154E-1,0E0,1.1852417E0,6.7701154E0,1.9799194E0,0E0,0E0,0E0,0E0,1.2902331E-1,0E0,0E0,0E0,0E0,0E0,2.4383411E0,0E0,0E0,0E0,4.1052147E1,6.63414E0,0E0,1.9838028E0,0E0,0E0,1.9244528E-1,2.2192383E-1,1.1534119E0,0E0,0E0,0E0,2.6359138E0,0E0,0E0,0E0,0E0,1.2338028E0,1.671392E1,0E0,4.680687E0,1.9295864E1,0E0,0E0,0E0,0E0,9.5520735E-2,0E0,1.1312866E0,0E0,1.4793349E1,1.2354774E0,0E0,0E0,4.193533E0,1.4925148E1,1.2962463E1,0E0,0E0,0E0,0E0,0E0,8.291551E-1,1.1224213E0,2.088067E0,0E0,6.717111E-1,0E0,0E0,2.5814743E0,0E0,0E0,0E0,5.1104355E0,0E0,0E0,8.2458496E-2,7.7006304E-1,0E0,0E0,0E0,0E0,0E0,2.4057388E-2,5.31723E0,7.3106236E0,1.6936111E-1,1.000824E-1,0E0,0E0,0E0,0E0,3.8181992E0,1.4805571E1,0E0,0E0,0E0,0E0,1.7661655E-1,7.846069E-2,1.7004494E1,1.9699631E0,0E0,0E0,0E0,0E0,1.3332796E-1,0E0,0E0,0E0,1.1560364E0,1.464602E0,0E0,0E0,7.0924478E0,2.1016693E0,0E0,0E0,0E0,9.117988E0,4.4534106E0,3.0136108E-3,0E0,0E0,7.524639E0,9.164915E-1,0E0,0E0,0E0,0E0,0E0,0E0],"parents":[2147483647,0,0,1,1,2,2,3,3,4,4,5,5,6,6,7,7,8,8,9,9,10,10,11,11,12,12,14,14,15,15,18,18,19,19,20,20,21,21,22,22,24,24,25,25,27,27,28,28,29,29,30,30,31,31,33,33,35,35,36,36,37,37,38,38,40,40,41,41,43,43,44,44,46,46,47,47,48,48,49,49,50,50,51,51,52,52,53,53,55,55,57,57,58,58,59,59,63,63,65,65,66,66,67,67,68,68,70,70,72,72,73,73,76,76,78,78,83,83,84,84,85,85,87,87,91,91,93,93,94,94,95,95,98,98,99,99,100,100,101,101,102,102,105,105,106,106,107,107,108,108,109,109,111,111,112,112,115,115,121,121,122,122,123,123,124,124,126,126,127,127,128,128,129,129,130,130,131,131,132,132,134,134,136,136,138,138,139,139,141,141,143,143,144,144,145,145,146,146,147,147,148,148,151,151,152,152,153,153,157,157,159,159,160,160,162,162,163,163,164,164,166,166,167,167,170,170,171,171,173,173,174,174,175,175,176,176,178,178,180,180,181,181,183,183,184,184,187,187,197,197,198,198,203,203,205,205,206,206,207,207,208,208,210,210,211,211,212,212,215,215,216,216,217,217,218,218,220,220,228,228,229,229,231,231,232,232,236,236,243,243,244,244,245,245,246,246,250,250,253,253,255,255,258,258,259,259,260,260,263,263,264,264,269,269,272,272,273,273,274,274,277,277,279,279,281,281,285,285,286,286,288,288,290,290,296,296,298,298,301,301,303,303,304,304,307,307,310,310,311,311,312,312,315,315,319,319,320,320,322,322,323,323,324,324,329,329,330,330,331,331,332,332,333,333,334,334,335,335,338,338,339,339,340,340,342,342,346,346,349,349,350,350,351,351,353,353,354,354,358,358,359,359,361,361,364,364,371,371,374,374,375,375,376,376,377,377,378,378,381,381,382,382,383,383,384,384,385,385,386,386,388,388,389,389,390,390,393,393,394,394,398,398,399,399,400,400,404,404,407,407,408,408,410,410,412,412,417,417,418,418,419,419,422,422,423,423,424,424,431,431,435,435,439,439,441,441,442,442,447,447,448,448,449,449,450,450,453,453,458,458,459,459,462,462,464,464,465,465,466,466,467,467,468,468,469,469,473,473,477,477,478,478,480,480,483,483,489,489,490,490,491,491,492,492,498,498,504,504,505,505,506,506,508,508,509,509,510,510,515,515,521,521,525,525,526,526,528,528,531,531,532,532,533,533,537,537,542,542,543,543,545,545,546,546,551,551,553,553,555,555,556,556,559,559,560,560,561,561,567,567,568,568,569,569,571,571,574,574,578,578,581,581,582,582,588,588,589,589,590,590,591,591,592,592,597,597,598,598,603,603,604,604,605,605,606,606,611,611,615,615,616,616,619,619,620,620,624,624,625,625,626,626,629,629,630,630],"right_children":[2,4,6,8,10,12,14,16,18,20,22,24,26,-1,28,30,-1,-1,32,34,36,38,40,-1,42,44,-1,46,48,50,52,54,-1,56,-1,58,60,62,64,-1,66,68,-1,70,72,-1,74,76,78,80,82,84,86,88,-1,90,-1,92,94,96,-1,-1,-1,98,-1,100,102,104,106,-1,108,-1,110,112,-1,-1,114,-1,116,-1,-1,-1,-1,118,120,122,-1,124,-1,-1,-1,126,-1,128,130,132,-1,-1,134,136,138,140,142,-1,-1,144,146,148,150,152,-1,154,156,-1,-1,158,-1,-1,-1,-1,-1,160,162,164,166,-1,168,170,172,174,176,178,180,-1,182,-1,184,-1,186,188,-1,190,-1,192,194,196,198,200,202,-1,-1,204,206,208,-1,-1,-1,210,-1,212,214,-1,216,218,220,-1,222,224,-1,-1,226,228,-1,230,232,234,236,-1,238,-1,240,242,-1,244,246,-1,-1,248,-1,-1,-1,-1,-1,-1,-1,-1,-1,250,252,-1,-1,-1,-1,254,-1,256,258,260,262,-1,264,266,268,-1,-1,270,272,274,276,-1,278,-1,-1,-1,-1,-1,-1,-1,280,282,-1,284,286,-1,-1,-1,288,-1,-1,-1,-1,-1,-1,290,292,294,296,-1,-1,-1,298,-1,-1,300,-1,302,-1,-1,304,306,308,-1,-1,310,312,-1,-1,-1,-1,314,-1,-1,316,318,320,-1,-1,322,-1,324,-1,326,-1,-1,-1,328,330,-1,332,-1,334,-1,-1,-1,-1,-1,336,-1,338,-1,-1,340,-1,342,344,-1,-1,346,-1,-1,348,350,352,-1,-1,354,-1,-1,-1,356,358,-1,360,362,364,-1,-1,-1,-1,366,368,370,372,374,376,378,-1,-1,380,382,384,-1,386,-1,-1,-1,388,-1,-1,390,392,394,-1,396,398,-1,-1,-1,400,402,-1,404,-1,-1,406,-1,-1,-1,-1,-1,-1,408,-1,-1,410,412,414,416,418,-1,-1,420,422,424,426,428,430,-1,432,434,436,-1,-1,438,440,-1,-1,-1,442,444,446,-1,-1,-1,448,-1,-1,450,452,-1,454,-1,456,-1,-1,-1,-1,458,460,462,-1,-1,464,466,468,-1,-1,-1,-1,-1,-1,470,-1,-1,-1,472,-1,-1,-1,474,-1,476,478,-1,-1,-1,-1,480,482,484,486,-1,-1,488,-1,-1,-1,-1,490,492,-1,-1,494,-1,496,498,500,502,504,506,-1,-1,-1,508,-1,-1,-1,510,512,-1,514,-1,-1,516,-1,-1,-1,-1,-1,518,520,522,524,-1,-1,-1,-1,-1,526,-1,-1,-1,-1,-1,528,530,532,-1,534,536,538,-1,-1,-1,-1,540,-1,-1,-1,-1,-1,542,-1,-1,-1,544,546,-1,548,-1,-1,550,552,554,-1,-1,-1,556,-1,-1,-1,-1,558,560,-1,562,564,-1,-1,-1,-1,566,-1,568,-1,570,572,-1,-1,574,576,578,-1,-1,-1,-1,-1,580,582,584,-1,586,-1,-1,588,-1,-1,-1,590,-1,-1,592,594,-1,-1,-1,-1,-1,596,598,600,602,604,-1,-1,-1,-1,606,608,-1,-1,-1,-1,610,612,614,616,-1,-1,-1,-1,618,-1,-1,-1,620,622,-1,-1,624,626,-1,-1,-1,628,630,632,-1,-1,634,636,-1,-1,-1,-1,-1,-1],"split_conditions":[1.12790505E-4,-6.046558E-4,4.1172863E-4,3.7771544E-1,-1.0253875E0,-3.1263146E-1,1.1295185E-3,-4.7486988E-1,1.88E1,6E0,-7.399678E-2,5.2E0,8.255814E-1,-1.9377135E-1,2.4206399E-3,9.238468E-4,-2.5153312E-1,-2.4057667E-1,7.6119405E-1,-4.8921286E-4,7.4E1,3.396342E-1,-5.5173114E-3,-2.5740382E-1,-6.358403E-1,6.3E0,-2.2371565E-1,-1.8582414E0,2.3218746E1,-7.7545315E-5,-2.1286032E-1,1E0,-2.0892584E-1,-5.7407406E1,8.31095E-2,1.1E1,3E0,8.4E0,2E0,-2.471915E-1,-7.7588804E-4,1.17E1,-2.2818203E-1,-2.850782E-1,-1.1667508E-2,-2.2520135E-1,6.7075966E1,3.2759968E-3,-1.9135712E-2,1.26E1,-1.12328E-3,-1.0253875E0,2.44E1,1.0961539E2,-1.7274311E-1,-5.80786E1,-2.8892297E-1,6.570397E1,-2.919708E-3,1.3684686E6,5.6508012E-2,-1.1755666E-2,8.4683314E-2,-9.6716474E-5,7.273604E-2,7.137255E1,8.1666664E1,7.67331E-2,5.2118623E-5,-2.4261115E-1,6.4638786E-2,-1.9839689E-1,1E0,2E0,-2.1151619E-1,-1.8589082E-1,6.217121E-4,2.2968467E-4,1E0,-2.676756E-1,5.484551E-2,8.4683314E-2,-1.3954855E-2,4.3E0,1.7908451E-3,-1.22103386E-1,-2.2428031E-1,1.5402196E-3,-1.651413E-1,-1.8683296E-1,8.4683314E-2,-6.00458E-4,5.597077E-2,-1.1266724E1,1E0,1.2E1,5.458355E-2,-2.8958595E-1,1E0,3.6943963E-1,5.9379705E-5,-5.308289E-1,-1.096871E-3,-2.475818E-1,8.331444E-2,-4.63435E-5,-5.707571E-3,-1.5933716E-4,6.107737E-1,4.6E0,-1.9209348E-1,1.64E1,8.878892E-4,2.6378026E-2,1.13222264E-1,4.577551E0,1.1928647E-3,8.769383E-2,-2.8518805E-1,2.5928E-2,1.0624597E-1,1E0,-9.3125306E-2,-6.819518E-2,1.5106704E0,-2.8211242E-1,-5.410968E-4,-4.6805665E-3,9.8E0,-9.03085E-4,-2.3205464E-3,1.9162854E-3,1E0,-2.3818676E-1,1.6463992E-1,-2.4364471E-1,-1.8106206E-1,8.323265E-2,-3.309859E-1,4.942421E-5,-2.759703E-1,8.2E0,1.18723586E-1,-1.5199604E-2,1.36E1,5.866823E-4,-1.5339246E0,4.9E0,9.159664E-1,-2.4976097E-1,9.6027374E-2,6.0869564E1,1.21E1,1.03E1,-3.850636E-2,-1.880281E-1,8.3604455E-2,2.8E0,2.4190338E-3,2.03E1,-2.0305066E-1,-2.3524645E-1,-3.6206898E1,1.9728132E0,-1.1160478E-2,-1.9150227E-1,6.1139894E-1,5.8E0,-2.0758013E-1,-2.6426607E-1,2.537775E-3,2E0,-2.22457E-1,-2.0289313E-4,-4.279605E-1,1.89E1,1.41E1,-2.8670618E-1,1.13E1,-2.2690283E-1,1.21E1,6.0910615E-4,-1.7184058E-1,1E0,1.15E1,2.8247425E-2,-2.6631925E-1,-4.8167236E-5,-1.707624E-1,-1.9913332E-1,8.397468E-2,8.331444E-2,-2.658331E-1,2.8640706E-2,1.1652591E-1,-2.2716916E-1,8.331444E-2,-1.1092448E0,2.04E1,1.2362837E-1,2.7614465E-2,-1.7610012E-1,8.308543E-2,3.7068966E1,-2.2320548E-1,6.4E0,1.2747253E-1,1.23E1,-1.9920642E0,3.9513535E-3,1.35E1,8.6646277E-4,7.6E0,1.028496E-1,-2.1802397E-1,2.05E1,-1.5184207E1,1.16E1,-1.4542966E-1,-1.9977765E-1,9.6675195E-3,8.304813E-2,5.475437E-3,2.7606193E-2,8.3462514E-2,9.923933E-2,-2.0255898E-1,-2.1165645E-1,1.258598E-3,-4.5883466E-4,-2.0126413E-1,3.1243801E1,7E0,-2.755216E-1,8.397468E-2,-2.5373927E-1,3.5559142E-4,8.4683314E-2,-1.8065448E-1,8.397468E-2,3.0074751E-2,-1.3578351E-2,1.030853E-1,-8.199858E-4,-8.990319E-1,1.01497084E-4,9E0,1.0188977E-1,2.8964749E-2,-1.5781686E-2,6.3E0,-1.9838914E-1,8.331444E-2,8.245366E-3,1.0891711E-1,7.3030353E0,-2.1175878E-1,2.6071144E-3,6.611111E-1,1.9491413E-3,9.08113E-1,8.3604455E-2,-1.648101E-1,-5.6532424E-2,-2.9355282E-1,-1.5925847E-1,8.470059E-2,4.7762906E-3,1.1999766E-1,5.2273914E-5,-2.551428E-1,-2.1960056E-1,-2.2775838E0,5.9E0,-1.7596953E-1,-1.912228E-1,9.794694E-2,-2.0339997E-2,-1.7487241E-1,5.1506306E-4,-1.8790847E-1,9.1735536E-1,1.0830517E-1,1.02959394E-1,-1.0726375E-2,6.6E0,4.6884274E-1,-2.2910006E-1,7.4647886E-1,-2.6255196E-1,5.722461E-4,2.9632146E-2,1.2488782E-1,8.397468E-2,-2.3707484E-1,-1.6337492E-1,2E0,8.098052E-3,-1.5116344E-3,1.0280662E-1,-2.5852945E-1,9.3917607E-4,-1.7691733E-1,1.156768E-4,7.6340485E0,-1.8148266E-1,1.02739885E-1,5E0,-1.927342E-2,-1.8329974E-1,5.6342936E-1,-2.1293175E-3,3.4505506E-3,8.470059E-2,4.9262424E-3,-1.9513484E-2,-1.8067269E-1,1.0276934E-1,-1.7161457E-1,-9.155313E-2,1.1E1,-1.7055394E-2,5.750646E-5,7.879334E-5,-2.9880297E-4,-1.610903E-1,8.3665825E-2,-2.4958193E-1,1.0587595E-1,1.1140245E0,3.176996E-1,1.21E1,2.621232E-3,-6.2265273E-2,-3.6639118E-1,1.9890106E1,-1.5638076E-1,2.8072739E-2,2.7686703E-1,2.885864E-3,8.297543E1,2.7022174E-2,-2.994897E-1,-1.24793565E-2,9.996342E-2,4.256802E-3,-1.893722E-3,6.3748675E-4,1.1487198E-1,3.899318E1,1.7496331E-3,1.23E1,3.0509979E-2,-3.1894015E-3,1.22E1,9.606251E-2,-1.6965456E-1,-1.9518232E-2,1.76E1,1.11E1,-1.27448095E-2,-5.5173114E-3,-2.5680014E-1,1.2113167E-1,3.9708146E-4,-2.9164144E-1,-1.2172728E-2,1.0482222E-1,-1.8841724E-1,-2.1998239E-1,8.470059E-2,2E0,-1.700204E-1,1.02717735E-1,2.3281178E-1,4E0,-3.967979E-1,-9.603875E-1,3.502627E-4,2.8770084E-2,1.2965219E-1,3.3678918E0,-2.3015388E-3,2.8029397E-1,-2.1515302E-3,6.052914E-4,-2.0530638E-3,6.2952684E-3,3.3404943E-2,-1.4295554E0,4.203382E-3,-1.914522E-1,8.3235346E-2,4.9E0,5.4163372E1,8.3509654E-2,-2.171173E-1,-1.6584451E-1,1.35E1,1.2E1,-2.8939287E-3,2.6505431E-2,1.23840444E-1,-1.8697612E-1,1E0,1.1321547E-1,-1.8432729E-1,-5.2478135E-2,8.965517E-1,-2.7004427E-1,2.701373E-1,-1.653346E-1,1.0194834E-3,8.4683314E-2,-2.2878392E-1,-1.8928275E-1,8.373285E-2,-1.01203114E-1,-2.2384135E-1,2.3E0,-2.4606259E-1,-2.0141986E-1,3.7293553E-3,-1.1203854E-4,1.1210831E0,8.580787E-2,-2.060682E-1,2.6505291E-2,8.3366476E-2,5.228728E-2,1.2950316E-1,-5.34645E-5,2.6772156E-2,1.05617225E-1,-1.846419E-1,5.351314E-4,1.2680598E-1,8.397468E-2,5.533219E-3,3.1592726E-4,1.2550111E-1,1.2034297E-3,-5.904931E-4,8.329326E-2,2.5196424E-2,5.1290225E-2,1.2700914E-1,1E0,-8.192992E-5,7.7E0,5.879902E1,8.3382286E-2,-1.7669663E-1,-2.3015873E1,-2.1447678E-1,1.2308315E-1,7.3345075E-3,-2.0927913E-1,3.9608203E-4,-7.4058044E-1,1.2937143E-1,8.921404E-2,4.5384616E-1,1.2119967E-1,1.773408E-4,1E0,1.57E1,4.3930635E-1,-7.1961473E-4,-6.894938E-2,2.784585E-2,5.700483E-3,1.0237318E-1,1E0,-3.7899982E-2,8.3509654E-2,-1.8568613E-1,4.7732698E-5,-6.5280707E-4,-1.6853786E-1,4.7E0,3.1479843E-2,1.321007E-1,3.2E0,-1.5112867E-2,-1.6721171E-1,1.032232E-1,1.0293181E-1,2.9453943E-2,-5.404237E-4,1E0,1.31E1,2.9395914E-4,8.323265E-2,-1.7341441E-1,8.921404E-2,-1.6363409E-1,-1.6177015E-1,8.2E0,-2.3080213E-1,8.323265E-2,8.4683314E-2,-1.6420242E-1,1.2246443E-1,6.46541E1,1.3144246E0,-1.6447934E0,1.9070475E-3,1.6294164E-4,1.1579921E0,1.74E1,-1.8452938E-1,8.921404E-2,1.056776E-1,2.8353563E-2,1.5E0,1.3293919E-1,8.4683314E-2,-2.1143535E-1,1.1615876E-1,4.1923686E-3,4.2616663E-4,-1.2685831E-2,8.352846E-2,-2.1720408E-1,7.191061E-4,3.583286E-4,-1.8248783E-1,7.8451884E-4,-1.5385014E-2,1.08610034E-1,-4.9295863E-3,-2.0871243E-1,2E0,2.4365945E-2,-1.5710665E-1,8.337902E-2,-5.050505E0,4.748652E-3,8.351675E-2,2.6394045E-2,6.894351E-3,5.8E0,6.3305668E1,-2.55707E-1,2E0,4.0524313E-3,1.10161856E-1,5.0021904E-3,8.420101E-2,2.3832193E-2,1.01E1,1.290595E-1,6.3492066E-1,2.5716169E-2,-5.5463867E0,-1.0793128E1,2.8691491E-2,1.2667184E-1,-3.708382E-1,1.1690889E-3,1.222381E-4,-3.6190234E-2,-2.2963583E-1,1.0520951E-1,2.823756E-2,8.397468E-2,2.5657895E-1,-3.3649264E-4,4.436229E-2,-1.8338703E-1,2.14E1,1.2953398E-1,-1.9345723E-2,-1.8909948E-3,8.680443E-2,-2.3949054E-1,-1.6995806E-1,1.3330359E-2,8.331581E-2,7.443057E-4,6.279886E-2,2.18E1,1.1309385E-1,6.5021925E-3,7.904596E-3,8.470059E-2,1.0419442E-2,5.280464E-1,2E0,1.7129128E0,1.4E1,-7.0545804E-3,2.990163E-3,8.331581E-2,1.3099532E-1,5.1954586E-2,-4.0506915E-4,-3.4806822E-4,-1.6876368E-1,8.3366476E-2,8.3235346E-2,2.4365945E-2,8.4615386E-1,-2.6031258E0,3.3704627E-3,1.3675585E0,-2.0154706E-1,1.0459814E-1,2.4232762E-2,8.3604455E-2,2.3581663E1,1.2119813E-1,-2.0193838E-1,1.1098113E-1,1.69E1,5.09684E-5,8.3604455E-2,2.6267802E-2,1.7965807E-3,1.1056443E-4,8.3366476E-2,-1.7631806E-2,1.1719122E-1,-3.5273368E-4,-3.8884154E-1,1.2119961E-1,8.3604455E-2,-1.9377548E-1,1.0892653E-4,1.9588028E-1,5.2434083E-2,1.2874119E-1,8.3665825E-2,-1.7278807E-1,1.16874956E-1,2.5859376E-2],"split_indices":[15,6,15,10,10,10,9,10,49,54,22,3,48,0,9,9,0,0,0,8,12,46,18,0,10,2,0,10,11,15,17,40,0,12,0,47,28,3,26,0,8,2,0,16,8,0,11,9,19,1,4,10,1,12,0,12,0,12,19,46,0,0,0,6,0,12,12,21,4,0,17,0,37,23,0,0,5,0,38,0,0,0,0,3,9,17,0,5,0,0,0,8,0,10,28,1,0,0,45,46,9,21,18,0,0,6,18,18,17,50,0,1,4,0,0,7,0,0,0,0,0,42,17,17,7,0,8,19,50,13,8,14,26,0,7,0,17,0,17,5,0,3,0,8,3,5,10,2,0,0,0,12,49,47,0,0,0,3,0,47,17,0,12,7,17,0,0,3,0,0,9,20,0,15,22,50,49,0,3,0,1,5,0,27,1,0,0,4,0,0,0,0,0,0,0,0,0,7,3,0,0,0,0,12,0,49,48,49,7,0,47,4,3,0,0,47,10,47,21,0,19,0,0,0,0,0,0,0,13,15,0,11,49,0,0,0,9,0,0,0,0,0,0,19,21,5,49,0,0,0,3,0,0,52,0,46,0,0,48,9,22,0,0,17,17,0,0,0,0,5,0,0,10,3,22,0,0,19,0,13,0,0,0,0,0,49,16,0,0,0,5,0,0,0,0,0,26,0,13,0,0,9,0,15,10,0,0,47,0,0,7,8,5,0,0,19,0,0,0,7,2,0,15,13,15,0,0,0,0,22,17,1,19,22,16,11,0,0,48,19,11,0,22,0,0,0,6,0,0,11,4,49,0,4,49,0,0,0,47,47,0,18,0,0,5,0,0,0,0,0,0,34,0,0,22,54,10,7,18,0,0,10,8,22,8,13,6,0,19,10,9,0,0,3,11,0,0,0,47,3,6,0,0,0,32,0,0,16,0,0,22,0,5,0,0,0,0,17,21,3,0,0,19,6,10,0,0,0,0,0,0,6,0,0,0,4,0,0,0,14,0,9,18,0,0,0,0,34,15,3,11,0,0,12,0,0,0,0,14,21,0,0,0,0,15,20,2,0,8,22,0,0,0,20,0,0,0,5,6,0,3,0,0,3,0,0,0,0,0,6,32,3,5,0,0,0,0,0,3,0,0,0,0,0,11,46,7,0,13,7,50,0,0,0,0,3,0,0,0,0,0,5,0,0,0,18,15,0,19,0,0,8,17,33,0,0,0,12,0,0,0,0,3,11,0,25,18,0,0,0,0,3,0,0,0,10,10,0,0,7,9,15,0,0,0,0,0,0,6,17,0,3,0,0,8,0,0,0,18,0,0,46,3,0,0,0,0,0,17,23,7,3,19,0,0,0,0,4,6,0,0,0,0,0,7,9,21,0,0,0,0,11,0,0,0,47,4,0,0,18,5,0,0,0,4,7,10,0,0,4,7,0,0,0,0,0,0],"split_type":[0,0,0,0,0,0,0,0,0,0,0,0,0,0,0,0,0,0,0,0,0,0,0,0,0,0,0,0,0,0,0,0,0,0,0,0,0,0,0,0,0,0,0,0,0,0,0,0,0,0,0,0,0,0,0,0,0,0,0,0,0,0,0,0,0,0,0,0,0,0,0,0,0,0,0,0,0,0,0,0,0,0,0,0,0,0,0,0,0,0,0,0,0,0,0,0,0,0,0,0,0,0,0,0,0,0,0,0,0,0,0,0,0,0,0,0,0,0,0,0,0,0,0,0,0,0,0,0,0,0,0,0,0,0,0,0,0,0,0,0,0,0,0,0,0,0,0,0,0,0,0,0,0,0,0,0,0,0,0,0,0,0,0,0,0,0,0,0,0,0,0,0,0,0,0,0,0,0,0,0,0,0,0,0,0,0,0,0,0,0,0,0,0,0,0,0,0,0,0,0,0,0,0,0,0,0,0,0,0,0,0,0,0,0,0,0,0,0,0,0,0,0,0,0,0,0,0,0,0,0,0,0,0,0,0,0,0,0,0,0,0,0,0,0,0,0,0,0,0,0,0,0,0,0,0,0,0,0,0,0,0,0,0,0,0,0,0,0,0,0,0,0,0,0,0,0,0,0,0,0,0,0,0,0,0,0,0,0,0,0,0,0,0,0,0,0,0,0,0,0,0,0,0,0,0,0,0,0,0,0,0,0,0,0,0,0,0,0,0,0,0,0,0,0,0,0,0,0,0,0,0,0,0,0,0,0,0,0,0,0,0,0,0,0,0,0,0,0,0,0,0,0,0,0,0,0,0,0,0,0,0,0,0,0,0,0,0,0,0,0,0,0,0,0,0,0,0,0,0,0,0,0,0,0,0,0,0,0,0,0,0,0,0,0,0,0,0,0,0,0,0,0,0,0,0,0,0,0,0,0,0,0,0,0,0,0,0,0,0,0,0,0,0,0,0,0,0,0,0,0,0,0,0,0,0,0,0,0,0,0,0,0,0,0,0,0,0,0,0,0,0,0,0,0,0,0,0,0,0,0,0,0,0,0,0,0,0,0,0,0,0,0,0,0,0,0,0,0,0,0,0,0,0,0,0,0,0,0,0,0,0,0,0,0,0,0,0,0,0,0,0,0,0,0,0,0,0,0,0,0,0,0,0,0,0,0,0,0,0,0,0,0,0,0,0,0,0,0,0,0,0,0,0,0,0,0,0,0,0,0,0,0,0,0,0,0,0,0,0,0,0,0,0,0,0,0,0,0,0,0,0,0,0,0,0,0,0,0,0,0,0,0,0,0,0,0,0,0,0,0,0,0,0,0,0,0,0,0,0,0,0,0,0,0,0,0,0,0,0,0,0,0,0,0,0,0,0,0,0,0,0,0,0,0,0,0,0,0,0,0,0,0,0,0,0,0,0,0,0,0,0,0,0,0,0,0,0],"sum_hessian":[1.7521566E3,8.2366754E2,9.284891E2,2.745836E2,5.490839E2,3.902537E2,5.3823535E2,1.5156654E2,1.2301704E2,3.2623355E2,2.2285039E2,7.012317E1,3.2013052E2,1.4919547E0,5.367434E2,1.4670645E2,4.8600917E0,2.499384E0,1.20517654E2,3.8047974E1,2.8818558E2,3.283106E1,1.9001933E2,5.2745986E0,6.484857E1,3.1802295E2,2.1075976E0,8.9126724E1,4.4761667E2,1.4859816E1,1.3184663E2,1.1857317E2,1.9444828E0,3.4461525E1,3.5864465E0,2.4594759E2,4.223801E1,4.2822285E0,2.8548832E1,4.4175363E0,1.8560179E2,6.20011E1,2.8474684E0,2.3936174E1,2.9408676E2,1.8428125E0,8.7283905E1,8.524457E0,4.3909222E2,1.0601959E1,4.2578573E0,1.917255E1,1.1267409E2,1.1753482E2,1.0383546E0,3.5160613E0,3.0945465E1,2.9233437E1,2.1671414E2,4.0280453E1,1.9575558E0,2.5726817E0,1.7095466E0,2.6322344E1,2.2264886E0,1.572079E2,2.839389E1,5.111853E0,5.6889248E1,3.974913E0,1.9961262E1,1.7409918E0,2.9234576E2,8.588779E1,1.3961244E0,1.2571379E0,7.267319E0,2.2531726E0,4.3683905E2,8.684785E0,1.9171739E0,1.7095466E0,2.5483105E0,1.35744705E1,5.59808E0,1.0979592E2,2.8781633E0,1.16458954E2,1.0758665E0,1.8065146E0,1.7095466E0,2.7296444E1,1.9369936E0,7.691613E1,1.3979802E2,3.837118E1,1.9092729E0,1.5540828E1,1.0781516E1,1.4564937E2,1.1558528E1,1.7727526E1,1.0666365E1,3.4337826E0,1.6780704E0,1.5716995E1,4.1172253E1,1.3875514E1,6.085747E0,2.9056885E2,1.7769202E0,8.295602E1,2.9317648E0,2.0899856E0,5.177334E0,4.3457086E2,2.2681792E0,1.7758545E0,1.1798616E1,2.0808103E0,3.5172698E0,3.4615746E1,7.5180176E1,1.1123253E2,5.226421E0,2.1029678E1,6.266764E0,1.7559847E1,5.935628E1,8.3914024E1,5.5883995E1,3.1173424E1,7.197757E0,3.5170155E0,7.2645006E0,3.7144825E0,1.4193489E2,1.6761647E0,9.882363E0,5.4873075E0,1.2240219E1,3.6960843E0,6.97028E0,8.271938E0,7.445057E0,4.533243E0,3.6639008E1,1.0893022E1,2.9824924E0,4.1494937E0,1.9362532E0,1.8658815E1,2.7191003E2,8.029196E1,2.664059E0,1.2469597E0,1.6848052E0,4.3228818E2,2.282679E0,2.9095467E1,5.5202804E0,3.2941566E0,7.188602E1,8.391118E1,2.7321348E1,1.2287697E0,3.9976513E0,3.787393E0,2.4793713E0,1.0158155E1,7.4016914E0,5.6465443E1,2.8908408E0,1.2033847E1,7.188017E1,1.2092065E1,4.379193E1,2.7898554E1,3.2748702E0,3.364087E0,3.8336694E0,5.933843E0,1.3306571E0,5.5715065E1,8.6219826E1,2.1177058E0,7.7646575E0,4.150832E0,1.3364751E0,2.002733E0,1.6933513E0,1.6780704E0,6.5938683E0,2.1209552E0,5.3241014E0,2.855173E0,1.6780704E0,3.3223473E1,3.4155378E0,8.7856045E0,2.1074166E0,1.3097645E0,1.6727281E0,1.6028263E1,2.630554E0,2.2072876E2,5.1181274E1,7.753031E1,2.7616496E0,2.3060513E0,4.2998212E2,2.8143885E0,2.6281078E1,3.37462E0,2.1456602E0,8.843841E0,6.304218E1,7.732357E1,6.5876107E0,1.4599822E0,2.5861366E1,1.6718557E0,2.3257957E0,2.1058798E0,1.6815133E0,5.42167E0,1.9800216E0,2.4520812E0,5.401336E1,1.0042425E1,1.9914218E0,5.965783E0,6.591439E1,1.0398714E1,1.6933513E0,4.588455E0,3.9203476E1,1.7095466E0,1.5653237E0,1.6933513E0,2.1403182E0,2.5491621E0,3.3846812E0,4.623723E1,9.477838E0,4.719351E0,8.150047E1,2.027412E0,2.1234202E0,2.5195823E0,3.0703888E1,1.7374675E0,1.6780704E0,7.4327593E0,8.595503E0,2.1853941E2,2.1893442E0,2.2858782E0,4.8895397E1,4.650701E0,7.287961E1,1.6848052E0,1.0768443E0,1.5451266E1,4.1453085E2,1.1044499E0,1.7099386E0,2.3167193E0,2.3964357E1,4.0274563E0,4.8163843E0,2.6541202E0,6.0388058E1,4.4150753E0,7.290849E1,1.2304715E0,5.3571396E0,2.483365E1,1.0277158E0,5.2488842E1,1.524517E0,2.780438E0,7.2619867E0,3.3795772E0,2.5862062E0,1.243339E1,5.3481003E1,2.8320653E0,3.637141E1,6.1604853E0,4.0076744E1,2.133349E0,7.344488E0,1.6933513E0,3.0259993E0,1.0814153E0,8.041906E1,2.3687723E0,2.8335115E1,3.3726327E0,4.0601263E0,2.1752188E2,1.0175388E0,4.433217E1,4.5632277E0,1.281122E0,3.3695788E0,7.0408646E1,2.4709618E0,1.2711595E0,1.4180107E1,3.1963743E1,3.825671E2,1.7099386E0,2.3175178E0,5.8822758E1,1.5653018E0,3.3709285E0,1.0441469E0,6.294418E0,6.6614075E1,2.5014489E0,2.2332201E1,3.002431E1,2.2464535E1,1.0942122E0,1.6862258E0,5.362841E0,7.070548E0,4.8226E1,5.2550006E0,4.6198516E0,3.1751558E1,1.9005243E1,2.1071499E1,7.9301155E1,1.1179062E0,2.1142206E0,2.6220896E1,2.2406414E1,1.9511546E2,2.0968263E0,4.223534E1,2.5637765E0,1.9994512E0,2.3086693E0,6.8099976E1,2.2593057E0,1.1920801E1,2.9059721E1,2.904021E0,3.8040088E2,2.1662316E0,4.0979133E0,5.4724846E1,5.2406993E0,1.0537184E0,2.468417E0,6.414566E1,1.9767202E1,2.5649984E0,2.4025297E1,5.9990115E0,1.720118E1,5.2633543E0,4.5658634E1,2.5673687E0,3.457368E0,1.7976329E0,2.9099128E0,1.7099386E0,3.041162E1,1.339939E0,3.368691E0,1.5636553E1,1.6267237E1,4.804262E0,3.2037055E0,7.609745E1,2.125547E0,2.4095348E1,7.9630847E0,1.4443329E1,1.9141983E2,3.6956394E0,3.7707522E0,3.846459E1,2.3515482E0,6.574843E1,4.754528E0,2.4305195E1,1.2277935E0,1.6762276E0,4.0211387E0,3.7637976E2,1.6826075E0,2.4153056E0,1.0705128E0,5.365433E1,3.7512014E0,6.039446E1,2.092081E0,1.7675121E1,1.5304042E0,2.2494894E1,3.7199209E0,1.5434335E0,2.7428518E1,2.9831E0,7.700286E0,7.936267E0,1.0723478E0,1.5194889E1,1.7095466E0,3.0947156E0,1.5159299E0,1.6877755E0,2.5851078E1,5.024637E1,4.516649E0,3.446436E0,1.4505194E0,1.2992809E1,1.3437935E2,5.7040478E1,1.7347971E0,1.9608421E0,2.0914707E0,1.6792815E0,1.8765986E0,3.658799E1,6.3652473E1,2.0959582E0,3.4912863E0,1.2632414E0,5.682901E0,1.8622293E1,1.6933513E0,2.3277876E0,1.9674011E2,1.7963963E2,3.221526E0,5.0432804E1,1.6775773E0,2.0736241E0,1.8577578E0,5.85367E1,6.956861E0,1.5538033E1,2.268355E1,4.744968E0,1.679649E0,1.3034508E0,5.507014E0,2.429253E0,1.2844647E1,2.3502417E0,2.2043412E0,2.3646736E1,2.9550991E1,2.0695377E1,1.8077233E0,2.7089255E0,1.0102443E1,2.8903663E0,1.2987729E2,4.5020595E0,2.7898655E0,5.425061E1,6.1540928E1,2.1115425E0,2.3298054E0,3.3530955E0,1.9406943E2,2.6706839E0,1.6826075E0,1.5389185E0,4.7080452E1,3.3523517E0,1.3473682E0,5.609493E0,2.721324E0,1.2816709E1,2.0156368E1,2.5271816E0,1.3539082E0,3.3910599E0,3.3781962E0,2.1288173E0,3.8987713E0,1.9747965E1,2.4063395E1,5.487597E0,1.6761647E0,1.0327607E0,1.8077233E0,1.082643E0,1.0928602E0,1.2878444E2,2.8258946E0,1.6761647E0,1.7095466E0,1.0803189E0,4.1933067E1,1.2317546E1,1.1100046E1,5.0440884E1,2.278802E0,1.9179063E2,2.7940967E0,4.4286358E1,1.5446284E0,1.8077233E0,3.4904952E0,2.1189976E0,3.768865E0,1.6387505E1,1.7095466E0,2.1892247E0,1.7439945E1,2.3080213E0,2.150421E1,2.559184E0,3.6000867E0,1.8875102E0,2.907542E1,9.9709015E1,1.2751633E0,1.1042382E1,2.5261867E0,8.573859E0,3.7495615E0,4.6691322E1,1.8973083E2,2.0597923E0,1.1145234E0,1.6795732E0,4.197158E1,2.3147757E0,1.682772E0,2.086093E0,2.3423734E0,1.9161837E1,2.5227695E1,3.8477252E0,9.442351E1,5.285501E0,8.722189E0,2.3201933E0,1.6985472E0,2.0510144E0,3.8092055E0,4.288212E1,1.876519E2,2.0789366E0,1.3956467E1,2.8015114E1,2.1226714E0,1.7039165E1,2.1214598E1,4.0130973E0,9.1724365E1,2.6991467E0,1.8134801E0,3.4720206E0,2.1158543E0,1.6933513E0,3.9391716E0,1.8371272E2,1.2686346E1,1.2701212E0,4.0706663E0,2.3944448E1,2.468124E0,1.8746473E1,1.7566977E0,2.2563999E0,1.0521499E0,9.067222E1,1.6781026E0,2.2610688E0,1.797418E2,3.9709144E0,1.0341826E1,2.344519E0,2.3607278E0,1.7099386E0,2.4128628E0,1.633361E1,8.7935905E1,2.7363122E0,3.7360198E0,1.760058E2,2.2928116E0,1.6781026E0,1.4463566E1,1.8700452E0,8.30363E1,4.8996034E0,1.0570307E0,1.6792815E0,1.6762276E0,2.0597923E0,3.7424688E0,1.7226332E2,6.4853826E0,7.655092E1,1.4495543E0,3.450049E0,2.0576637E0,1.6848052E0,3.7734892E0,1.6848984E2,1.4475381E0,5.0378447E0,7.2379036E1,4.171878E0,1.6848052E0,2.088684E0,9.735562E0,6.264348E1,1.6792815E0,2.4925964E0,6.8361073E0,2.8994548E0,1.1617637E1,5.102584E1,1.6848052E0,1.2146497E0,2.7218776E0,8.89576E0,1.8789285E0,4.914691E1,1.6862258E0,1.0356518E0,6.813808E0,2.0819514E0],"tree_param":{"num_deleted":"0","num_feature":"55","num_nodes":"637","size_leaf_vector":"1"}},{"base_weights":[9.87448E-2,-6.028936E-1,6.92025E-1,8.6819455E-2,-9.3373054E-1,3.7094137E-1,1.0142701E0,-2.8541258E-1,5.4344046E-1,-1.3196164E0,-4.5430923E-1,8.0124533E-1,1.96428E-1,-1.6469026E-1,1.0254699E0,-7.960005E-1,4.5228507E-2,-2.0575707E-1,6.1754304E-1,-1.90827E0,-1.1190145E0,-2.3437862E-1,-3.8628358E-1,-5.760288E-1,8.384432E-1,-1.5377712E-1,4.749936E-1,3.919568E-1,1.044151E0,-1.5317318E0,-2.3173793E-1,-1.414512E0,1.800117E-1,-9.444452E-1,6.9566035E-1,-2.044226E0,9.7761996E-2,-2.2002404E0,-9.7218543E-1,2.281795E-1,-5.9828085E-1,-1.7167842E-1,7.95879E-2,2.6659685E-1,9.4055307E-1,3.119515E-1,-5.616533E-1,-1.8031994E-1,6.6120565E-1,-1.2211541E0,1.1810446E-1,8.832739E-1,1.102002E0,2.1218517E-1,-1.9268321E0,-2.0858116E-1,1.1277278E-1,-2.1650378E-1,8.16117E-2,-1.8953283E-1,2.8619918E-1,9.418632E-2,-2.0796418E-1,9.509829E-1,4.5986512E-1,-2.1223676E0,7.998567E-2,1.01747744E-1,-1.6153459E-1,8.077322E-2,-2.4309842E-1,-1.1964396E0,-6.7382045E-2,4.1279045E-1,-2.021439E-1,-9.3172777E-1,-9.309732E-2,-1.8707918E-1,5.5381644E-1,5.3683275E-1,1.0514737E0,-1.4885973E0,4.8777995E-1,-2.5328627E-1,-2.7621692E-1,-8.323215E-1,4.903926E-1,-1.950264E-1,7.058091E-1,8.06069E-2,-2.2844945E-1,9.2094606E-1,-5.490672E-1,1.4797753E-1,1.1141006E0,8.198903E-2,-2.7068484E-1,8.448707E-2,-2.2307544E0,3.5437617E-1,-1.8379375E-1,3.6589572E-1,-1.7505312E-1,1.084815E0,3.9635035E-1,-2.071272E-1,5.825886E-1,-2.1959574E0,-2.7270776E-1,-1.6513666E0,-7.291755E-1,-1.5819323E0,3.5012886E-1,-2.0106135E-1,5.7291305E-1,9.8468706E-2,-1.1661901E0,-1.2740645E0,2.7220076E-1,1.1481307E-1,6.654966E-2,8.01435E-1,-4.351831E-1,6.783896E-1,1.1883986E0,7.8935444E-2,-2.3592857E-1,5.5732244E-1,-1.5846689E-1,-2.3629509E-1,-9.310851E-2,8.4172346E-2,-2.398419E-1,8.386072E-1,-4.0414557E-1,7.342813E-1,-1.5986471E-1,9.5291865E-1,-3.9628336E-1,-1.8471073E-1,7.9643354E-2,-1.749752E-1,1.01055756E-1,-6.2614167E-3,1.1220493E0,-1.4135103E-1,7.96298E-2,-2.5609493E-1,5.5911113E-3,7.276757E-1,-6.3513905E-1,-1.6097435E-1,4.3115073E-1,1.1241465E0,2.015895E-2,7.5410104E-1,-1.5842889E-1,-3.256644E-1,6.783638E-1,-2.475477E-1,-1.4260395E0,7.9157166E-2,-1.4053786E-1,1.4891838E-1,-1.8141007E0,6.7120147E-1,-9.43663E-1,-2.1925919E-1,7.9234384E-2,6.2228805E-1,-1.8394475E-1,-1.1081685E0,7.487124E-1,-1.9493328E-1,6.097122E-1,-2.4445418E-1,-8.8172346E-1,-1.9489796E0,5.855317E-1,-1.8477708E-1,3.9010522E-1,7.713734E-1,-2.1326189E-1,-5.243193E-1,1.0380434E0,-2.114313E-1,7.8559086E-2,-8.373934E-1,9.606287E-1,2.4439115E-2,1.2161527E0,6.1921126E-1,-1.5531373E-1,-2.09687E-1,3.2534707E-2,-1.9342797E-1,6.6248393E-1,-2.2122312E-1,1.0875909E0,-1.9084114E-1,9.852079E-2,-6.671417E-1,7.731302E-1,-2.8961172E-2,9.79838E-1,7.886579E-2,-1.68868E-1,1.8537486E-3,1.1297616E0,9.890384E-1,-1.6122985E-1,-2.0864908E-1,8.397542E-2,9.2180675E-1,7.3687054E-2,1.9543268E-2,1.16790555E-1,-2.078914E-1,1.14984296E-1,7.823227E-2,-1.9841823E-1,4.2937142E-1,1.0590576E0,8.377803E-2,-1.6827466E0,9.320227E-2,-1.7285086E-1,3.5056272E-1,-1.9492385E0,1.0462822E0,-1.3689172E-1,-2.3107235E-1,-6.932679E-1,7.837568E-1,-1.5637688E-1,-2.0399943E-1,7.847162E-2,8.316358E-1,-1.4829442E-1,-2.1069229E-1,9.9712133E-1,-1.1500597E0,4.7371882E-1,7.905573E-2,-2.4099544E-1,9.468352E-2,9.8710125E-3,-1.0378466E0,5.5055374E-1,1.1239685E-1,-2.1388983E-2,7.901489E-2,-1.7730047E-1,5.0497367E-3,1.1766447E0,7.942972E-2,-1.9592433E-1,3.5595486E-1,1.1761234E0,4.7286674E-2,1.2304946E-1,-1.5260783E-1,6.827992E-1,2.4007033E-1,-1.0798243E0,-2.514311E-1,9.643035E-1,-1.4287588E-1,8.378943E-2,2.8365282E-2,1.2137621E-1,-1.7493975E-1,7.9314046E-2,8.070627E-1,-4.8588675E-1,-2.5596185E-2,1.0073725E0,1.1468083E0,7.522673E-1,1.8555558E-3,1.1224144E0,-1.5872842E-2,1.0197369E0,-9.549544E-1,4.9746162E-1,-1.6094208E-1,9.02793E-2,-1.8386011E-1,5.771422E-1,1.1248586E0,3.8574856E-2,-4.51897E-1,-2.3198517E-1,-9.317478E-3,8.162778E-2,-1.1540418E0,-2.3394074E0,3.391492E-2,1.1967774E-1,-4.741927E-2,-1.2622932E0,9.3531024E-1,-3.5450575E-1,-3.3204526E-1,9.8823506E-1,-1.7533909E-1,9.9099584E-2,1.2021623E-1,1.3990144E-2,-1.8110964E0,-3.2022086E-1,-6.5467554E-1,1.0412058E0,-1.988153E-1,8.16117E-2,6.4826214E-1,-1.6056094E-1,1.2304836E-1,4.7911722E-2,-4.2113686E-1,1.0054173E-1,1.23029605E-1,4.754607E-2,1.394174E-1,9.007191E-1,3.2934445E-1,-1.6530831E-1,1.0700671E-1,-2.365588E-1,8.581149E-2,-1.5681845E-1,1.1286123E-1,2.4176737E-2,8.382807E-1,-4.686866E-1,-1.6688631E-1,8.452691E-2,1.0277494E0,-4.177105E-3,1.1520922E0,2.458778E-2,1.0391357E0,-6.787179E-2,1.2284277E-1,2.623002E-2,1.101424E0,3.8336683E-3,-2.321945E-1,1.6187175E-1,6.162966E-1,-1.4211918E-1,-6.31079E-1,7.306064E-1,6.091029E-1,1.215569E-1,5.098065E-1,-1.7331968E-1,3.7140617E-1,-1.485168E0,-2.4986236E-1,-4.553344E-1,2.4253893E-1,-1.9149074E-1,-5.982031E-2,-2.080988E0,1.0526862E0,-7.2756633E-3,8.265828E-2,-1.5063278E-1,-1.9279544E-1,8.169916E-2,-6.234094E-3,1.0572057E0,3.6191514E-1,-2.542566E-1,-1.2059501E0,3.9541373E-1,-1.7043383E-1,8.311347E-2,1.22755125E-1,3.100887E-2,7.49498E-1,-1.5180871E-1,8.36364E-2,-1.685343E-1,5.57814E-1,-2.0945309E-1,1.0166403E0,-2.522135E-2,5.325334E-1,-5.1775235E-1,8.68687E-1,-1.4166133E-1,8.00294E-2,-1.6759203E-1,1.0486333E0,-1.4138621E-3,1.17015E0,8.35742E-1,1.1797842E-1,1.7996082E-2,9.870457E-2,-2.105482E-1,1.1969534E-1,4.969177E-3,1.082384E-1,-7.7735883E-1,-4.5988616E-1,7.459454E-1,-1.7999049E-1,7.855864E-2,8.8865197E-1,-4.922333E-1,8.008807E-2,2.4425639E-2,1.0775818E-2,8.257531E-2,-7.1167173E-3,8.2756825E-2,2.1622533E-1,-1.9554893E0,9.6322276E-2,-1.7569585E-1,-7.484697E-1,7.098313E-1,-1.9244814E-1,5.7432014E-1,-2.3828255E-1,5.1521033E-2,7.908046E-3,1.1569815E0,1.1152173E0,7.3995143E-3,9.1012436E-1,-1.6172962E-1,-2.2083385E-1,3.6297512E-1,-7.043255E-1,8.8278687E-1,-1.3676034E-1,8.377759E-1,8.546083E-1,-1.5790454E-1,-1.0847997E-2,1.0976604E0,8.085904E-2,-1.5774243E-1,1.0004597E0,1.7417526E-1,6.3469285E-1,-2.1464883E-1,9.147961E-1,-1.2994575E-2,8.521796E-1,1.1918203E0,7.7205807E-1,1.1826808E0,1.1511302E0,-2.1284012E-1,7.911686E-2,-1.8321012E-1,7.878639E-2,-1.6134092E-1,-2.379551E-2,8.46549E-1,1.0128872E0,-2.3287145E-2,-1.8088649E-1,8.2335435E-2,9.861282E-2,-1.3371354E-1,-2.3135133E-1,5.2894652E-2,7.158267E-1,-2.0361546E-1,1.0059365E0,-1.06256595E-2,-3.6000445E-1,9.64094E-1,1.2244133E-1,4.5337893E-2,2.4287233E-2,1.1718211E0,1.0862269E-1,2.7348727E-2,9.756088E-2,-1.994541E-1,-1.880494E-1,9.679568E-2,1.07873514E-1,5.051282E-3,9.4416434E-1,-2.2166908E-2,2.0262998E-5,9.990137E-1,3.2627308E-3,1.1665319E0,1.1887234E-1,-1.6278122E-2,-1.9094317E-1,4.8788083E-1,1.073245E-1,-9.478941E-3,-1.4954194E-2,9.3726915E-1,-2.0197676E-1,7.771305E-1,1.0044321E0,-9.153942E-2,2.0267632E-2,1.2211485E0,1.15594745E-1,-3.9145324E-1,1.1883245E0,5.9338826E-1,1.2055683E-1,4.6119407E-2,9.792319E-2,-2.2471528E-1,-1.4817457E-2,9.5990705E-1,1.148563E-1,2.9891044E-1,9.3269765E-2,2.784652E-2,2.6448911E-2,1.1200587E-1,-1.6519591E-1,8.973749E-2,-1.4837813E-1,8.152707E-2,1.1421781E-1,2.9489592E-2,4.636085E-1,1.244518E0,8.294651E-2,-1.356164E-1,1.0925258E0,2.5343034E-2,9.887468E-2,-1.6066167E-1,2.7562207E-2,1.1113852E-1,2.2486854E-2,1.2177081E0,-1.749544E-1,7.323421E-1,6.447711E-1,1.0261228E0,1.0029224E-1,1.8987905E-2,-1.9231298E-3,1.059471E0,-2.1481493E-1,6.682536E-1,2.2125823E-2,1.2518613E0,7.917067E-2,-1.6881649E-1,1.1913282E0,4.632455E-2,1.747329E-2,8.3147556E-2,3.6579024E-3,1.0855265E0,8.02889E-2,-1.633956E-2,1.3283276E-3,8.350893E-2,6.220723E-1,1.302598E-1,2.699622E-2,1.137056E0,-1.6048092E-1,9.1789305E-2,4.6997175E-2,1.2455461E-1,1.8528104E-1,9.6849614E-1,-1.6864726E-1,8.0252135E-1,3.2066393E-3,1.0502431E0,-6.0613113E-3,1.1224033E0,1.0254308E-1,-3.0094765E-3,1.2681483E-1,4.7024947E-2,1.194312E-1,4.7346305E-2,1.2116376E-1,4.250578E-1,2.730432E-2,7.9347126E-2,1.1875061E0,2.840206E-2,8.091572E-1,-1.5333824E-1,1.0068598E-2,1.12690486E-1,9.48074E-1,-1.6380943E-1,1.152739E0,7.344214E-1,1.1649116E0,2.2275424E-2,8.002611E-2,-1.2154094E-3,1.2366666E-1,4.3143198E-2,2.4415834E-2,1.017643E-1,-3.8376942E-3,1.0485426E0,2.6378043E-3,1.1911612E0,-8.451823E-2,1.0460047E0,2.373046E-2,1.2116915E0,1.2074365E-1,4.1646516E-1,1.2188716E0,2.004269E-2,7.684115E-1,-1.972965E-1,1.1917869E-1,-2.0225132E-3,1.2367798E0,4.7403138E-2,-3.8193277E-1,1.0027784E-1,2.4297178E-2,1.247115E0,9.831997E-2,2.1323046E-2,4.9515065E-2,1.263418E-1,7.8723915E-2,-1.6442326E-1,1.2619632E-1,4.8175927E-2],"categories":[],"categories_nodes":[],"categories_segments":[],"categories_sizes":[],"default_left":[0,0,0,0,0,0,0,0,0,0,0,0,0,0,0,0,0,0,0,1,0,0,0,0,0,0,0,0,0,0,0,1,0,0,0,0,0,0,0,0,0,0,0,0,0,0,0,0,0,0,0,0,0,0,0,0,1,0,0,0,0,0,0,0,0,0,0,0,0,0,0,0,0,0,0,0,0,0,0,0,0,0,0,0,0,0,0,0,0,0,0,0,0,0,0,0,0,0,1,0,0,0,0,0,0,0,0,0,0,0,0,0,0,0,0,0,0,0,0,0,0,0,0,0,0,0,0,0,0,0,0,0,0,0,1,0,0,0,0,0,0,0,0,0,0,0,0,0,0,0,0,0,0,0,0,0,0,0,0,0,0,0,0,0,0,0,0,0,0,1,0,1,0,0,0,0,1,0,0,0,0,0,0,0,0,0,0,0,0,0,0,0,0,0,0,0,0,0,0,0,0,0,0,0,0,0,0,0,0,0,0,0,0,0,0,0,0,0,0,0,0,0,0,0,0,0,0,0,0,0,0,0,1,0,0,0,0,0,0,0,0,0,0,0,0,0,0,0,1,0,0,0,0,0,0,0,0,0,0,0,0,0,0,1,0,0,0,0,0,0,0,0,0,0,0,0,0,1,0,0,0,0,1,0,0,0,0,0,0,0,0,0,0,0,0,0,1,0,0,0,0,0,0,1,0,0,0,0,0,0,0,0,0,0,0,0,0,0,0,0,0,0,0,0,0,1,0,0,0,0,0,0,0,0,0,0,0,1,0,1,0,0,0,0,0,0,0,0,0,0,0,1,1,0,0,1,0,0,0,0,0,0,0,1,0,0,0,0,0,0,0,0,0,0,0,0,0,0,0,0,0,0,0,0,0,1,0,0,0,0,0,0,0,0,0,0,0,0,0,0,0,0,0,0,0,0,0,0,0,0,0,0,0,0,0,0,0,0,0,0,0,0,0,0,0,0,0,0,0,0,0,0,0,0,0,0,0,1,0,0,1,0,0,0,0,0,0,0,0,0,0,0,0,0,0,0,0,0,0,0,0,0,0,0,0,0,0,0,0,0,0,0,0,0,0,0,0,0,0,0,0,0,0,0,0,0,0,0,0,0,0,0,0,0,0,0,0,0,0,0,0,0,0,0,0,0,0,0,0,0,0,0,0,0,0,0,0,0,0,0,0,0,0,0,0,0,0,0,0,0,0,0,0,0,0,0,0,0,0,0,0,0,0,0,0,0,0,0,0,0,0,0,0,0,0,0,0,0,0,1,0,0,0,0,0,0,0,0,0,0,0,0,0,0,0,0,0,0,0,0,0,0,0,0,0,0,0,0,0,0,0,0,0,0,0,1,0,0,0,0,0,0,0,0,0,0,0,0,0,0,0,0,0,0,0,0,0,0,0,0,0,0,0,0,0,0,0,0,0,0,0,0,0,0,0,0,0,0,0,0,0,0,0],"id":2,"left_children":[1,3,5,7,9,11,13,15,17,19,21,23,25,-1,27,29,31,-1,33,35,37,-1,39,41,43,45,47,49,51,53,55,57,59,61,63,65,67,69,71,73,75,-1,-1,77,79,81,83,85,87,89,-1,91,93,95,97,-1,99,-1,-1,-1,101,-1,-1,103,105,107,-1,-1,-1,-1,-1,109,111,113,-1,115,117,-1,119,121,123,125,127,-1,129,131,133,-1,135,-1,-1,137,139,141,143,-1,145,-1,147,149,-1,151,-1,153,155,-1,157,159,161,163,165,167,169,-1,171,173,175,177,179,-1,181,183,185,187,189,-1,-1,191,-1,-1,193,195,-1,197,199,201,-1,203,205,-1,-1,-1,-1,-1,207,-1,-1,-1,-1,209,211,-1,213,215,-1,217,-1,219,221,-1,223,-1,-1,225,227,229,231,-1,-1,233,-1,235,237,-1,239,-1,241,243,245,-1,247,249,-1,251,253,-1,-1,255,257,-1,259,261,-1,-1,263,-1,265,267,269,-1,-1,271,273,-1,275,-1,-1,-1,277,279,-1,-1,-1,281,283,-1,-1,285,-1,-1,-1,287,289,-1,291,-1,-1,293,295,297,-1,-1,299,301,-1,-1,-1,303,-1,305,307,309,311,-1,-1,-1,-1,313,315,-1,-1,-1,-1,-1,317,-1,-1,319,321,-1,-1,-1,323,325,327,329,331,-1,-1,-1,-1,-1,-1,333,335,-1,337,339,341,-1,343,-1,345,347,349,-1,-1,-1,351,353,-1,355,-1,-1,-1,357,359,-1,-1,361,363,365,367,369,371,-1,-1,-1,-1,373,375,377,379,-1,-1,381,-1,-1,-1,383,-1,-1,-1,385,387,389,-1,-1,-1,-1,-1,-1,-1,391,393,-1,-1,395,-1,397,-1,399,401,-1,-1,403,-1,-1,405,407,-1,409,411,413,-1,415,-1,417,419,-1,421,423,-1,425,427,429,-1,-1,-1,-1,-1,-1,431,433,-1,435,437,-1,-1,-1,-1,439,-1,-1,-1,441,-1,443,445,447,449,451,-1,-1,-1,453,-1,455,457,-1,-1,-1,-1,-1,-1,-1,459,461,463,-1,-1,465,467,-1,-1,-1,-1,-1,-1,469,471,-1,-1,473,475,-1,477,-1,-1,-1,479,481,-1,483,-1,-1,485,487,489,-1,491,493,-1,-1,495,-1,-1,497,499,501,-1,503,505,507,509,511,513,515,517,-1,-1,-1,-1,-1,519,521,-1,-1,-1,-1,-1,-1,-1,523,-1,525,527,529,531,-1,-1,-1,533,-1,-1,-1,535,-1,-1,-1,-1,537,539,-1,541,-1,543,-1,-1,-1,545,-1,-1,-1,547,-1,549,551,553,-1,555,-1,557,559,561,-1,-1,-1,-1,-1,563,-1,565,-1,-1,-1,-1,-1,-1,-1,-1,-1,-1,567,569,-1,-1,571,573,-1,-1,-1,-1,-1,575,-1,577,579,581,-1,-1,-1,583,-1,585,-1,587,-1,-1,589,-1,-1,-1,-1,591,-1,-1,-1,-1,593,-1,-1,595,-1,-1,-1,-1,597,599,-1,601,-1,603,-1,605,-1,-1,-1,-1,-1,-1,-1,607,-1,-1,609,-1,611,-1,-1,-1,613,-1,615,617,619,-1,-1,-1,-1,-1,-1,-1,-1,621,-1,623,625,627,-1,629,-1,631,633,-1,635,-1,-1,-1,637,-1,639,-1,-1,641,-1,-1,-1,-1,-1,-1,-1,-1],"loss_changes":[7.2783405E2,1.8289099E2,9.76402E1,4.44541E1,9.958389E1,3.559397E1,1.5763489E1,2.4386543E1,2.3896843E1,3.323181E1,3.0330715E1,7.504036E0,3.3246048E1,0E0,5.1632996E0,2.3202911E1,1.7665394E1,0E0,1.467799E1,2.0574707E1,3.3707886E1,0E0,3.0849258E1,7.9343805E0,7.5648346E0,2.893618E1,2.326025E1,2.0647692E1,3.277771E0,1.7257053E1,2.1501493E1,1.4478805E1,1.8591036E1,1.4586586E1,6.185795E0,1.7256836E1,1.0618224E1,2.0152084E1,4.0621155E1,2.6252037E1,2.9488335E1,0E0,0E0,1.43421955E1,4.5035706E0,2.3309109E1,4.4916603E1,1.9102398E1,1.8602737E1,1.3585066E1,0E0,7.29644E0,3.6663513E0,1.811635E0,1.8761795E1,0E0,1.4330926E1,0E0,0E0,0E0,1.3428389E1,0E0,0E0,3.4211273E0,1.9574005E1,8.713135E0,0E0,0E0,0E0,0E0,0E0,3.2954422E1,2.6417816E1,2.3422104E1,0E0,2.5633942E1,3.0941679E1,0E0,5.680267E0,7.1479306E0,3.6758804E0,1.4938587E1,1.0357787E1,0E0,2.7268503E1,3.1846983E1,7.098661E0,0E0,1.0762535E1,0E0,0E0,5.557724E0,8.198061E0,1.0460076E1,3.134552E0,0E0,5.723312E0,0E0,1.39830475E1,1.0311837E1,0E0,1.0574786E1,0E0,1.205349E0,9.457558E0,0E0,5.1944923E0,1.0598755E1,5.6444054E0,2.3892288E1,2.4981457E1,1.481509E1,2.0739435E1,0E0,1.6969494E1,2.2660263E1,2.916977E1,2.2389969E1,1.4465497E1,0E0,2.0221533E1,7.1727314E0,1.4584325E1,1.1878697E1,1.3495255E0,0E0,0E0,9.366081E0,0E0,0E0,1.6981E1,1.8644136E1,0E0,4.448395E0,1.5998674E1,8.412399E0,0E0,4.3101654E0,6.877073E0,0E0,0E0,0E0,0E0,0E0,2.7490234E0,0E0,0E0,0E0,0E0,1.3720472E1,1.8530018E1,0E0,1.3083019E1,1.3666649E0,0E0,4.257214E0,0E0,1.2816218E1,4.478676E0,0E0,1.2942787E1,0E0,0E0,1.2797037E1,2.2336838E1,1.0118225E1,2.260278E1,0E0,0E0,1.181284E1,0E0,1.1431784E1,1.049328E1,0E0,5.668453E0,0E0,2.674168E1,1.7884132E1,8.3477473E-1,0E0,1.2695428E1,3.6484704E0,0E0,7.7440276E0,2.4408016E0,0E0,0E0,9.9722E0,2.485588E0,0E0,6.6337585E-2,9.66708E0,0E0,0E0,1.5079922E1,0E0,3.637083E0,6.1394753E0,9.826069E-1,0E0,0E0,8.418795E0,6.441208E0,0E0,4.2748413E0,0E0,0E0,0E0,1.217041E0,2.367939E0,0E0,0E0,0E0,3.4967556E0,1.9857763E1,0E0,0E0,7.560171E0,0E0,0E0,0E0,1.2170196E1,4.4766617E-1,0E0,1.3189819E1,0E0,0E0,1.1500746E0,1.8964172E1,6.748152E-1,0E0,0E0,2.2428808E1,5.264759E0,0E0,0E0,0E0,9.236862E0,0E0,1.3479985E1,1.9128141E0,3.256098E1,8.757001E0,0E0,0E0,0E0,0E0,1.1650797E1,1.1200754E1,0E0,0E0,0E0,0E0,0E0,1.0322571E-2,0E0,0E0,4.1026683E0,2.2277832E-2,0E0,0E0,0E0,7.22764E0,9.826946E0,3.0937815E1,6.968248E0,8.5000324E-1,0E0,0E0,0E0,0E0,0E0,0E0,5.898987E0,8.245265E0,0E0,2.5160217E0,1.179718E0,4.0397263E0,0E0,1.155695E0,0E0,2.28516E0,2.0705387E1,8.205866E0,0E0,0E0,0E0,6.3723974E0,8.3221436E-2,0E0,1.0044796E1,0E0,0E0,0E0,1.3157654E1,1.26215515E1,0E0,0E0,1.6547188E1,3.1862755E1,3.0951977E0,6.8027477E0,1.3580742E1,3.2062607E0,0E0,0E0,0E0,0E0,5.4029846E1,1.8226236E1,8.955466E0,8.151274E-1,0E0,0E0,1.1411951E1,0E0,0E0,0E0,7.806233E0,0E0,0E0,0E0,1.8888294E1,4.763382E0,9.446921E0,0E0,0E0,0E0,0E0,0E0,0E0,0E0,1.0507782E1,7.38276E0,0E0,0E0,2.4848099E0,0E0,7.6589966E-1,0E0,1.3054733E0,1.3493256E1,0E0,0E0,2.6296043E0,0E0,0E0,7.9857583E0,4.664322E0,0E0,8.25189E0,5.994046E0,1.2886524E-1,0E0,5.4865015E-1,0E0,1.1190097E0,1.6991558E1,0E0,1.0549575E1,1.2847908E1,0E0,1.7885406E1,1.6352745E1,2.2354126E0,0E0,0E0,0E0,0E0,0E0,0E0,2.240368E0,1.1551983E1,0E0,2.087015E1,9.326845E0,0E0,0E0,0E0,0E0,9.635395E0,0E0,0E0,0E0,1.1977167E1,0E0,3.6972237E0,8.89456E0,7.114723E0,2.1662994E1,5.464691E0,0E0,0E0,0E0,2.1151733E0,0E0,5.1498413E-1,6.853627E0,0E0,0E0,0E0,0E0,0E0,0E0,0E0,9.179063E0,6.954363E0,2.9752216E0,0E0,0E0,3.8330517E0,8.303944E0,0E0,0E0,0E0,0E0,0E0,0E0,7.7582316E0,1.5741127E1,0E0,0E0,1.8444946E1,3.9759388E0,0E0,4.4840107E0,0E0,0E0,0E0,4.234295E-1,1.6107979E0,0E0,5.9030724E-1,0E0,0E0,2.2045808E0,1.2723927E1,1.8532E0,0E0,4.0671616E0,1.8952532E0,0E0,0E0,2.6543121E0,0E0,0E0,4.275873E0,1.7813063E1,2.374905E0,0E0,3.1892624E0,1.3702457E1,7.338089E0,1.5473175E0,5.6410704E0,2.116394E-1,2.6855469E-2,1.5452422E1,0E0,0E0,0E0,0E0,0E0,3.0336761E0,1.926281E0,0E0,0E0,0E0,0E0,0E0,0E0,0E0,2.1030283E-1,0E0,8.192959E-1,1.1026028E1,6.5878563E0,6.508455E-1,0E0,0E0,0E0,1.2654152E0,0E0,0E0,0E0,5.732723E0,0E0,0E0,0E0,0E0,5.340603E0,1.0952702E1,0E0,7.6192E-1,0E0,1.386219E0,0E0,0E0,0E0,1.3994767E1,0E0,0E0,0E0,2.586502E0,0E0,6.333053E-1,2.471714E0,1.3815021E1,0E0,1.5621338E0,0E0,6.904046E0,4.0618896E-2,3.1445563E-1,0E0,0E0,0E0,0E0,0E0,2.645752E0,0E0,1.3178442E0,0E0,0E0,0E0,0E0,0E0,0E0,0E0,0E0,0E0,0E0,8.1279683E-1,3.4148026E-1,0E0,0E0,9.3410873E-1,1.0928336E1,0E0,0E0,0E0,0E0,0E0,8.999634E-2,0E0,2.6187258E0,1.3051782E1,2.224205E0,0E0,0E0,0E0,2.979725E0,0E0,1.6641204E0,0E0,1.4057922E-1,0E0,0E0,1.34887695E-2,0E0,0E0,0E0,0E0,1.179596E0,0E0,0E0,0E0,0E0,6.052208E-2,0E0,0E0,1.0325851E0,0E0,0E0,0E0,0E0,9.569027E0,1.9337206E0,0E0,1.237775E1,0E0,2.128418E0,0E0,1.2381134E0,0E0,0E0,0E0,0E0,0E0,0E0,0E0,7.9751503E-1,0E0,0E0,5.7183075E-1,0E0,4.999056E-1,0E0,0E0,0E0,2.9530182E0,0E0,2.8954773E0,6.5376024E0,1.3248405E0,0E0,0E0,0E0,0E0,0E0,0E0,0E0,0E0,2.179594E0,0E0,1.5505676E0,1.4226333E1,2.881546E0,0E0,6.386566E-2,0E0,3.6091714E0,1.4445114E0,0E0,5.243869E-1,0E0,0E0,0E0,3.3325195E-2,0E0,6.669938E0,0E0,0E0,8.95462E-2,0E0,0E0,0E0,0E0,0E0,0E0,0E0,0E0],"parents":[2147483647,0,0,1,1,2,2,3,3,4,4,5,5,6,6,7,7,8,8,9,9,10,10,11,11,12,12,14,14,15,15,16,16,18,18,19,19,20,20,22,22,23,23,24,24,25,25,26,26,27,27,28,28,29,29,30,30,31,31,32,32,33,33,34,34,35,35,36,36,37,37,38,38,39,39,40,40,43,43,44,44,45,45,46,46,47,47,48,48,49,49,51,51,52,52,53,53,54,54,56,56,60,60,63,63,64,64,65,65,71,71,72,72,73,73,75,75,76,76,78,78,79,79,80,80,81,81,82,82,84,84,85,85,86,86,88,88,91,91,92,92,93,93,94,94,96,96,98,98,99,99,101,101,103,103,104,104,106,106,107,107,108,108,109,109,110,110,111,111,112,112,114,114,115,115,116,116,117,117,118,118,120,120,121,121,122,122,123,123,124,124,127,127,130,130,131,131,133,133,134,134,135,135,137,137,138,138,144,144,149,149,150,150,152,152,153,153,155,155,157,157,158,158,160,160,163,163,164,164,165,165,166,166,169,169,171,171,172,172,174,174,176,176,177,177,178,178,180,180,181,181,183,183,184,184,187,187,188,188,190,190,191,191,194,194,196,196,197,197,198,198,201,201,202,202,204,204,208,208,209,209,213,213,214,214,217,217,221,221,222,222,224,224,227,227,228,228,229,229,232,232,233,233,237,237,239,239,240,240,241,241,242,242,247,247,248,248,254,254,257,257,258,258,262,262,263,263,264,264,265,265,266,266,273,273,274,274,276,276,277,277,278,278,280,280,282,282,283,283,284,284,288,288,289,289,291,291,295,295,296,296,299,299,300,300,301,301,302,302,303,303,304,304,309,309,310,310,311,311,312,312,315,315,319,319,323,323,324,324,325,325,333,333,334,334,337,337,339,339,341,341,342,342,345,345,348,348,349,349,351,351,352,352,353,353,355,355,357,357,358,358,360,360,361,361,363,363,364,364,365,365,372,372,373,373,375,375,376,376,381,381,385,385,387,387,388,388,389,389,390,390,391,391,395,395,397,397,398,398,406,406,407,407,408,408,411,411,412,412,419,419,420,420,423,423,424,424,426,426,430,430,431,431,433,433,436,436,437,437,438,438,440,440,441,441,444,444,447,447,448,448,449,449,451,451,452,452,453,453,454,454,455,455,456,456,457,457,458,458,464,464,465,465,473,473,475,475,476,476,477,477,478,478,482,482,486,486,491,491,492,492,494,494,496,496,500,500,504,504,506,506,507,507,508,508,510,510,512,512,513,513,514,514,520,520,522,522,533,533,534,534,537,537,538,538,544,544,546,546,547,547,548,548,552,552,554,554,556,556,559,559,564,564,569,569,572,572,577,577,578,578,580,580,582,582,584,584,592,592,595,595,597,597,601,601,603,603,604,604,605,605,614,614,616,616,617,617,618,618,620,620,622,622,623,623,625,625,629,629,631,631,634,634],"right_children":[2,4,6,8,10,12,14,16,18,20,22,24,26,-1,28,30,32,-1,34,36,38,-1,40,42,44,46,48,50,52,54,56,58,60,62,64,66,68,70,72,74,76,-1,-1,78,80,82,84,86,88,90,-1,92,94,96,98,-1,100,-1,-1,-1,102,-1,-1,104,106,108,-1,-1,-1,-1,-1,110,112,114,-1,116,118,-1,120,122,124,126,128,-1,130,132,134,-1,136,-1,-1,138,140,142,144,-1,146,-1,148,150,-1,152,-1,154,156,-1,158,160,162,164,166,168,170,-1,172,174,176,178,180,-1,182,184,186,188,190,-1,-1,192,-1,-1,194,196,-1,198,200,202,-1,204,206,-1,-1,-1,-1,-1,208,-1,-1,-1,-1,210,212,-1,214,216,-1,218,-1,220,222,-1,224,-1,-1,226,228,230,232,-1,-1,234,-1,236,238,-1,240,-1,242,244,246,-1,248,250,-1,252,254,-1,-1,256,258,-1,260,262,-1,-1,264,-1,266,268,270,-1,-1,272,274,-1,276,-1,-1,-1,278,280,-1,-1,-1,282,284,-1,-1,286,-1,-1,-1,288,290,-1,292,-1,-1,294,296,298,-1,-1,300,302,-1,-1,-1,304,-1,306,308,310,312,-1,-1,-1,-1,314,316,-1,-1,-1,-1,-1,318,-1,-1,320,322,-1,-1,-1,324,326,328,330,332,-1,-1,-1,-1,-1,-1,334,336,-1,338,340,342,-1,344,-1,346,348,350,-1,-1,-1,352,354,-1,356,-1,-1,-1,358,360,-1,-1,362,364,366,368,370,372,-1,-1,-1,-1,374,376,378,380,-1,-1,382,-1,-1,-1,384,-1,-1,-1,386,388,390,-1,-1,-1,-1,-1,-1,-1,392,394,-1,-1,396,-1,398,-1,400,402,-1,-1,404,-1,-1,406,408,-1,410,412,414,-1,416,-1,418,420,-1,422,424,-1,426,428,430,-1,-1,-1,-1,-1,-1,432,434,-1,436,438,-1,-1,-1,-1,440,-1,-1,-1,442,-1,444,446,448,450,452,-1,-1,-1,454,-1,456,458,-1,-1,-1,-1,-1,-1,-1,460,462,464,-1,-1,466,468,-1,-1,-1,-1,-1,-1,470,472,-1,-1,474,476,-1,478,-1,-1,-1,480,482,-1,484,-1,-1,486,488,490,-1,492,494,-1,-1,496,-1,-1,498,500,502,-1,504,506,508,510,512,514,516,518,-1,-1,-1,-1,-1,520,522,-1,-1,-1,-1,-1,-1,-1,524,-1,526,528,530,532,-1,-1,-1,534,-1,-1,-1,536,-1,-1,-1,-1,538,540,-1,542,-1,544,-1,-1,-1,546,-1,-1,-1,548,-1,550,552,554,-1,556,-1,558,560,562,-1,-1,-1,-1,-1,564,-1,566,-1,-1,-1,-1,-1,-1,-1,-1,-1,-1,568,570,-1,-1,572,574,-1,-1,-1,-1,-1,576,-1,578,580,582,-1,-1,-1,584,-1,586,-1,588,-1,-1,590,-1,-1,-1,-1,592,-1,-1,-1,-1,594,-1,-1,596,-1,-1,-1,-1,598,600,-1,602,-1,604,-1,606,-1,-1,-1,-1,-1,-1,-1,608,-1,-1,610,-1,612,-1,-1,-1,614,-1,616,618,620,-1,-1,-1,-1,-1,-1,-1,-1,622,-1,624,626,628,-1,630,-1,632,634,-1,636,-1,-1,-1,638,-1,640,-1,-1,642,-1,-1,-1,-1,-1,-1,-1,-1],"split_conditions":[1.0079451E-4,-6.2436966E-4,4.8294332E-4,3.7771544E-1,-1.8582414E0,-9.2149974E-4,1.4394914E-3,-4.237824E0,1.88E1,-4.3919263E-4,2.0730495E1,6.8E0,6.004976E0,-1.6469026E-1,2.6058506E1,2.0667053E-4,8.726067E-4,-2.0575707E-1,4.9E0,1.93E1,3.9335582E-4,-2.3437862E-1,-7.2929114E-1,1.4204546E-3,8.668325E-1,-9.898619E-4,1.2730508E-3,1.0394892E-3,3.1067878E-3,-8.107979E-4,-2.1968788E-1,1.2196641E0,-3.2333717E-1,-2.1765275E0,-6.650293E-2,2.4111123E0,2.537775E-3,-2.6031258E0,3.502627E-4,6.570397E1,2.1821253E-3,-1.7167842E-1,7.95879E-2,2.9895967E1,-2.0089619E-1,1.48E1,-5.232603E-1,1.754386E1,-1.323986E0,1.8848737E-3,1.1810446E-1,5.060241E-1,-5.4720354E0,6.363636E-1,-6.8290794E-1,-2.0858116E-1,2.15E1,-2.1650378E-1,8.16117E-2,-1.8953283E-1,-4.7486988E-1,9.418632E-2,-2.0796418E-1,-7.1124196E-2,3.302157E-4,2E0,7.998567E-2,1.01747744E-1,-1.6153459E-1,8.077322E-2,-2.4309842E-1,6.0622547E1,2.259483E1,-2.9880297E-4,-2.021439E-1,4.3089705E-4,-3.037037E1,-1.8707918E-1,-2.602184E-3,-1.469656E-3,1.16604475E-4,5.2E0,1.3330359E-2,-2.5328627E-1,-7.2136195E-4,1.8203996E-4,6.0869564E1,-1.950264E-1,4.9765394E-3,8.06069E-2,-2.2844945E-1,2E0,9.36278E-4,6.3492066E-1,-1.753512E-2,8.198903E-2,-1.1092009E-3,8.448707E-2,8.595041E-1,-5.976722E-3,-1.8379375E-1,-1.5184207E1,-1.7505312E-1,8.6646277E-4,1E0,-2.071272E-1,-9.358629E-3,7.137255E1,7.711799E-4,2.5E0,7.879334E-5,2.0813099E-1,-6.878762E-3,-2.0106135E-1,5.446667E-4,-8.522968E-5,-1.474759E-3,8.670223E0,2E0,1.1481307E-1,-1.5388123E-3,-1.4764818E-3,1.57E1,1.9498308E-4,-1.323986E0,7.8935444E-2,-2.3592857E-1,1E0,-1.5846689E-1,-2.3629509E-1,-5.656109E-4,3.7383178E-4,-2.398419E-1,2.0026034E-4,3.9E0,6.7E0,-1.5986471E-1,6.9E0,1.9354838E-1,-1.8471073E-1,7.9643354E-2,-1.749752E-1,1.01055756E-1,-6.2614167E-3,4.4E0,-1.4135103E-1,7.96298E-2,-2.5609493E-1,5.5911113E-3,-6.915962E-1,-6.5728766E-4,-1.6097435E-1,-3.998263E-3,-1.7629775E-3,2.015895E-2,-3.6519198E-4,-1.5842889E-1,7.327248E-1,1.66E1,-2.475477E-1,7.4E1,7.9157166E-2,-1.4053786E-1,-5.229983E-1,-6.730107E-4,-5.7648835E0,1.6E1,-2.1925919E-1,7.9234384E-2,1.4E1,-1.8394475E-1,8.6440676E-1,4.476103E-3,-1.9493328E-1,-5.227118E-5,-2.4445418E-1,1.53E1,-1.5111828E-4,9.2105263E-1,-1.8477708E-1,-4.945134E-1,1.2E1,-2.1326189E-1,1.05E1,3.350846E1,-2.114313E-1,