{"learner":{"attributes":{"best_iteration":"30","best_score":"0.48744177835951286"},"feature_names":[],"feature_types":[],"gradient_booster":{"model":{"gbtree_model_param":{"num_parallel_tree":"1","num_trees":"41"},"iteration_indptr":[0,1,2,3,4,5,6,7,8,9,10,11,12,13,14,15,16,17,18,19,20,21,22,23,24,25,26,27,28,29,30,31,32,33,34,35,36,37,38,39,40,41],"tree_info":[0,0,0,0,0,0,0,0,0,0,0,0,0,0,0,0,0,0,0,0,0,0,0,0,0,0,0,0,0,0,0,0,0,0,0,0,0,0,0,0,0],"trees":[{"base_weights":[-1.4136515E-3,-4.2773375E-1,9.334727E-1,-5.516677E-1,1.0272069E0,7.188542E-3,1.2997262E0,-8.171649E-1,1.0503433E-2,-5.161244E-1,1.4512106E0,4.5085114E-1,-9.525257E-1,7.786958E-1,1.5572318E0,-9.4831103E-1,-1.16141796E-1,5.1768816E-1,-3.1921744E-1,5.1334506E-1,-1.1819514E0,7.021606E-1,1.5662599E0,1.0456725E-1,1.0911639E0,-1.0810001E0,1.0017058E0,8.666698E-2,9.660695E-1,-1.1052096E-1,1.5722969E0,-1.156109E0,-6.3252676E-1,-5.791724E-1,8.781387E-1,-3.652055E-1,6.667356E-1,-1.2000372E0,-2.5511507E-2,-1.2659703E-1,1.0426252E0,5.5974465E-2,-1.3601257E0,1.1208471E0,-1.2659703E-1,8.037768E-2,1.6330496E0,3.8749233E-1,-6.750427E-1,-1.19362794E-1,1.204074E0,-1.1762928E0,9.725156E-2,1.2519388E-1,2.8564617E-2,9.962042E-1,-4.7493368E-1,-1.3772665E-1,1.024121E0,-1.1701326E-2,1.583239E0,-1.357806E0,-9.129297E-1,-1.3276865E0,-2.4147953E-1,-9.189384E-1,-2.68045E-2,-5.496117E-1,1.2987357E0,-1.182865E0,2.8637764E-1,-9.9606454E-1,7.288342E-1,-1.2802709E0,5.3694304E-2,-4.678294E-1,4.152935E-1,1.525101E-1,-2.6923863E-2,-1.568763E0,5.5974465E-2,1.5821297E-1,2.8613353E-1,1.2519388E-1,-1.19362794E-1,1.6687891E0,6.4770095E-3,5.6284773E-1,-8.66577E-1,8.247183E-1,-9.8314947E-1,8.143606E-1,1.6706336E0,9.138859E-2,-1.3563993E0,1.3186232E0,-1.1052096E-1,-1.2520956E0,4.5245114E-1,1.1981556E0,4.1324085E-1,1.6361343E0,1.1753827E0,-8.850414E-1,-1.4681691E0,-6.8770784E-1,-1.3314229E0,2.569849E-1,-1.4770074E0,-7.8437036E-1,3.2858364E-2,-4.2043537E-1,-1.7413582E0,-1.3134238E0,3.1538627E-1,1.4320776E-1,-1.3343518E0,1.4252998E0,-1.1052096E-1,1.2519388E-1,-1.7683522E-1,-9.9606454E-1,9.6790224E-1,5.5974465E-2,-1.5212975E-1,1.0624816E0,4.4297096E-1,5.3694304E-2,-1.3673513E0,-1.1530315E-2,-8.1669736E-1,1.1337479E-1,8.4944654E-1,-1.8164065E-1,5.5974465E-2,-5.098191E-1,1.2519388E-1,1.6922375E0,2.8564617E-2,1.0215065E0,-1.11726165E-1,8.037768E-2,-1.5473032E-1,6.4770095E-3,1.2519388E-1,-1.7953095E-1,3.6884654E-2,9.667388E-1,-1.1052096E-1,5.3694304E-2,1.8136054E0,-1.4209902E-1,1.1751275E0,-1.5285946E0,8.739773E-2,6.4770095E-3,1.5096272E0,-1.7620365E-1,2.1305493E-1,-1.19362794E-1,8.6986065E-1,1.2693788E0,5.0273596E-4,7.270165E-1,-9.9606454E-1,-1.1701326E-2,1.6491657E0,1.3086368E0,-1.19362794E-1,-1.0420094E0,1.2024498E-1,-6.277636E-1,-1.5639726E0,-1.8164065E-1,-5.7411724E-1,5.3694304E-2,-1.4077014E0,-1.3262558E-1,8.4046E-1,-1.5631238E0,2.8613353E-1,-1.6926539E0,-4.0778556E-1,-6.8135166E-1,2.2822097E-1,1.961172E-1,-1.2451321E0,-1.8873791E-1,-1.1701326E-2,5.5974465E-2,-1.694669E-1,-1.4920412E-1,5.763055E-1,5.5974465E-2,-1.7051952E-1,1.5498198E0,-2.6923863E-2,5.5974465E-2,-1.5212975E-1,1.4593972E0,-3.9857316E-1,-6.913618E-1,1.1691327E0,5.567559E-1,-1.5212975E-1,5.0273596E-4,-1.5000782E0,-1.6434114E-1,2.4728197E-1,-9.4655013E-1,1.0017058E0,6.1569613E-1,-6.2196934E-1,9.8687345E-1,-1.2659703E-1,-1.19362794E-1,5.5974465E-2,1.7166471E0,2.8564617E-2,-1.19362794E-1,1.1728084E0,7.906569E-1,-6.803837E-1,-1.19362794E-1,1.2519388E-1,-1.4920412E-1,1.0293473E0,-3.7222706E-2,1.1427944E0,5.5974465E-2,1.8691081E-1,1.4320776E-1,2.8564617E-2,-1.6700007E0,2.1305493E-1,-1.3772665E-1,1.4320776E-1,2.8564617E-2,1.6636465E-1,1.2519388E-1,-1.1052096E-1,1.3888806E0,-3.9857316E-1,1.4519024E0,7.98138E-1,-1.2659703E-1,8.247183E-1,4.7042713E-2,1.2346667E0,-1.5212975E-1,5.5974465E-2,6.6750586E-1,1.6600959E0,1.4142503E0,-2.6923863E-2,-1.4380479E0,-3.5308188E-1,-1.4892097E0,2.3587929E-1,5.3694304E-2,-1.5977498E0,5.6826746E-1,-6.839504E-1,3.63907E-1,-1.4877754E0,1.5430938E-1,-3.7222706E-2,7.374448E-2,-1.6279507E0,1.2024498E-1,-1.19362794E-1,-1.870629E-1,5.5974465E-2,-1.1141409E0,2.0662543E-1,-1.0399474E0,1.1751275E0,7.661063E-1,-3.2563892E-1,9.3911815E-1,-7.97452E-1,4.004814E-1,-1.8236147E-1,7.857508E-1,-1.3262558E-1,5.2692956E-1,1.6729058E0,1.6727686E-1,2.8564617E-2,-1.1052096E-1,5.5974465E-2,-1.3262558E-1,5.5974465E-2,-1.4217797E-1,1.2614261E0,-3.7329498E-1,8.0939084E-1,8.247183E-1,-1.2659703E-1,-1.607182E0,2.1305493E-1,5.252559E-1,-1.1531134E0,-1.0487916E0,1.2519388E-1,2.8564617E-2,1.2519388E-1,7.583853E-1,-1.2659703E-1,-9.2387724E-1,1.2024498E-1,1.1382828E0,-1.2659703E-1,1.7500492E0,8.247183E-1,1.307835E0,2.8613353E-1,-3.9857316E-1,1.2628257E0,1.5435019E-1,-1.6833332E-1,6.4770095E-3,1.3490018E-1,-1.19362794E-1,9.725156E-2,1.3253455E0,-2.6923863E-2,-3.7222706E-2,-1.8330226E0,-1.1052096E-1,1.2519388E-1,2.8564617E-2,1.6183685E-1,-1.1052096E-1,5.5974465E-2,-2.6923863E-2,1.5192815E0,1.372004E-1,1.4049704E0,1.2519388E-1,6.4770095E-3,-1.5212975E-1,9.3542147E-1,1.4679693E0,-1.1701326E-2,1.2519388E-1,-1.1701326E-2,2.8564617E-2,1.6662452E0,-1.1701326E-2,1.5060256E0,-1.6300035E0,-1.4217797E-1,9.1096544E-1,-9.9652463E-1,-1.7799865E-1,5.5974465E-2,-6.9773185E-1,1.2976792E0,-1.6308712E0,8.037768E-2,-1.1052096E-1,8.9284396E-1,-8.374493E-1,1.5872818E-1,5.5974465E-2,6.4770095E-3,-1.6874179E0,-6.567978E-1,1.2519388E-1,-1.2659703E-1,-1.6925659E0,8.037768E-2,1.822283E-1,-1.4735087E0,5.0676554E-1,-1.4920412E-1,-1.2762657E0,1.2519388E-1,1.4320776E-1,2.8564617E-2,9.39409E-1,-9.4713193E-1,-1.7743264E-1,1.2857735E-2,-1.1052096E-1,1.2486862E0,4.004814E-1,-1.6578275E-1,-2.6923863E-2,9.725156E-2,1.10217E0,-8.332233E-1,-2.6923863E-2,1.2519388E-1,1.734147E0,2.8564617E-2,9.725156E-2,-1.2659703E-1,6.2635285E-1,1.4909381E0,-9.3018556E-1,8.765886E-1,-1.1701013E-1,9.903744E-1,1.2519388E-1,6.4770095E-3,-1.6682645E0,5.5974465E-2,-1.1052096E-1,1.2519388E-1,-5.86488E-1,9.038423E-1,5.5974465E-2,-1.61046E-1,4.216714E-1,-1.2424306E0,8.937442E-1,-1.19362794E-1,8.247183E-1,-1.299143E0,1.2562195E0,-1.1052096E-1,1.130391E0,1.8229758E0,6.4770095E-3,1.2519388E-1,1.3865482E0,6.4770095E-3,-1.1052096E-1,1.0017058E0,-1.1052096E-1,5.5974465E-2,1.4505659E-1,2.8564617E-2,-1.2659703E-1,7.0003045E-1,6.4770095E-3,1.4457613E0,9.725156E-2,-1.19362794E-1,-1.9267425E-1,-2.6923863E-2,7.843589E-1,1.6669397E0,6.88912E-1,-1.4588842E-1,6.4770095E-3,1.5805961E-1,-2.6923863E-2,1.4505659E-1,1.5993457E-1,2.8564617E-2,2.8564617E-2,1.6724602E0,1.5791667E0,6.4770095E-3,5.5974465E-2,-1.757659E0,1.2519388E-1,-1.3262558E-1,1.3490018E-1,-1.1701326E-2,7.374448E-2,-1.4510272E0,1.2519388E-1,-1.591513E-1,1.5430938E-1,2.8564617E-2,-1.4217797E-1,-1.6642827E0,-1.19362794E-1,1.2519388E-1,1.3448195E0,-3.9857316E-1,-9.270271E-1,7.474905E-1,-5.1466537E-1,9.537097E-1,-1.747864E0,5.5974465E-2,8.765886E-1,-1.4369704E0,6.4770095E-3,-1.7267139E0,-1.1052096E-1,9.725156E-2,1.4320776E-1,-1.3262558E-1,-1.8363675E-1,-1.4217797E-1,8.1281716E-1,-8.332233E-1,5.3694304E-2,-1.5349245E0,4.1412386E-1,1.2986801E0,-1.4920412E-1,5.5974465E-2,3.4888765E-1,-1.0992863E0,2.1305493E-1,1.5613204E0,1.2024498E-1,-1.1052096E-1,1.4721618E0,1.6517521E-1,-1.4209902E-1,5.5974465E-2,1.8618463E0,1.0293473E0,1.0555601E0,-7.663925E-1,1.5741426E0,-1.1701326E-2,-1.4369704E0,1.2519388E-1,6.4770095E-3,1.2024498E-1,-1.5473032E-1,9.1096544E-1,-4.1994967E-2,1.170186E0,-1.7307894E0,2.8564617E-2,1.4320776E-1,-1.6578275E-1,3.6884654E-2,1.3595908E0,-1.3262558E-1,1.5430938E-1,-1.477571E0,9.138859E-2,1.0686624E0,-2.3642357E-1,6.4770095E-3,1.2519388E-1,-1.7999308E-1,-4.502832E-1,8.037768E-2,1.3770034E0,1.5821297E-1,-2.6923863E-2,1.8382527E0,5.5974465E-2,6.4770095E-3,1.4762936E0,2.8564617E-2,1.2519388E-1,-3.9857316E-1,1.3490018E-1,6.4770095E-3,1.5925637E0,1.410611E0,-6.913618E-1,6.4770095E-3,1.7215762E0,-5.098191E-1,1.1370806E0,9.3542147E-1,1.6882439E0,1.628716E0,2.8564617E-2,-1.8968697E-1,2.8564617E-2,-1.7620365E-1,5.5974465E-2,9.725156E-2,-1.2659703E-1,-1.7416829E0,-9.6927017E-1,1.525101E-1,2.8564617E-2,5.5974465E-2,-1.1052096E-1,-6.731827E-1,-1.6183599E0,-1.1052096E-1,1.5430938E-1,7.474905E-1,-1.6434114E-1,-1.1052096E-1,1.4593972E-1,-1.0903692E0,-1.9356333E-1,-1.1701326E-2,1.4320776E-1,5.5974465E-2,-1.7553493E-1,-1.758639E0,-6.0652316E-1,7.374448E-2,-1.19362794E-1,1.0619029E0,-1.19362794E-1,5.5974465E-2,-1.4209902E-1,5.5974465E-2,-1.6926539E0,-4.779805E-1,1.1915345E0,1.5373787E0,3.2964608E-1,1.4645708E0,-9.727924E-2,-1.372547E0,5.5974465E-2,-1.1052096E-1,1.2519388E-1,2.8564617E-2,1.7461374E-1,1.7406853E-1,5.2692956E-1,1.2024498E-1,-7.663925E-1,1.9057105E-1,5.5974465E-2,1.3490018E-1,6.4770095E-3,-1.19362794E-1,1.4679693E0,-1.3772665E-1,5.5974465E-2,1.6577048E0,3.63907E-1,-1.740721E-1,6.4770095E-3,1.3490018E-1,-1.1701326E-2,8.765886E-1,-1.4209902E-1,1.2629892E0,8.037768E-2,-1.7903378E0,-6.0652316E-1,-6.4727616E-1,1.2024498E-1,-1.1701326E-2,1.5671046E0,-1.6394472E0,7.374448E-2,-8.332233E-1,1.2024498E-1,1.2259339E0,-3.9857316E-1,1.2519388E-1,-1.3772665E-1,6.6750586E-1,-1.5212975E-1,-1.1052096E-1,9.725156E-2,8.669498E-1,1.6367966E0,1.8541713E-1,5.5974465E-2,1.579565E0,6.4770095E-3,-1.1052096E-1,5.5974465E-2,1.7033689E-1,2.8564617E-2,2.8564617E-2,1.5821297E-1,-1.3262558E-1,5.5974465E-2,1.7757115E-1,5.3694304E-2,-1.19362794E-1,5.5974465E-2,1.525101E-1,-1.1701326E-2,1.525101E-1,-1.1052096E-1,1.6992422E0,8.765886E-1,2.8564617E-2,1.68304E0,-1.1701326E-2,-1.7621096E0,2.8613353E-1,-1.3714435E0,-2.5376335E-1,-1.2949458E0,-1.7497854E0,5.5974465E-2,1.4320776E-1,-2.6923863E-2,5.2692956E-1,-1.7799865E-1,-1.0506462E0,-1.8242099E0,-1.2659703E-1,5.5974465E-2,1.3805748E0,-5.098191E-1,-3.9857316E-1,-1.8610506E-1,-1.5705715E-1,4.216714E-1,1.6271716E-1,8.037768E-2,1.6066291E0,2.8564617E-2,8.765886E-1,-1.1052096E-1,1.6271716E-1,2.8564617E-2,-5.778652E-1,1.1458396E0,-1.7241423E-1,5.5974465E-2,1.2519388E-1,-2.6923863E-2,-1.3772665E-1,5.5974465E-2,3.63907E-1,1.7720452E-1,2.8564617E-2,1.7045648E-1,6.4770095E-3,5.5974465E-2,1.4320776E-1,-1.1701326E-2,1.3642701E0,-2.6923863E-2,1.2519388E-1,-1.19362794E-1,-1.9313161E-1,-1.121764E0,5.5974465E-2,-1.2659703E-1,7.374448E-2,-1.5212975E-1,6.4770095E-3,1.7592883E-1,-3.7222706E-2,-1.8164E0,5.5974465E-2,-1.4209902E-1,1.3933417E0,8.037768E-2,-1.1052096E-1,5.5974465E-2,1.2519388E-1,-1.1701326E-2,1.6727686E-1,9.138859E-2,2.8564617E-2,1.7231448E0,2.8564617E-2,1.6525553E0,1.7077559E0,8.247183E-1,6.4770095E-3,1.2024498E-1,1.734147E0,7.374448E-2,-1.8184333E0,-1.0730468E0,1.2024498E-1,-1.19362794E-1,-1.804337E-1,8.037768E-2,-6.280488E-1,1.130391E0,-1.4882549E0,2.1305493E-1,-1.8899296E-1,-2.6923863E-2,-2.6923863E-2,1.2519388E-1,7.374448E-2,-1.7051952E-1,-1.8647342E0,-6.913618E-1,1.6090405E0,-1.1701326E-2,-1.19362794E-1,5.5974465E-2,-1.1052096E-1,5.5974465E-2,1.1751275E0,-1.19362794E-1,-1.19362794E-1,1.2519388E-1,1.6857991E0,2.8564617E-2,1.2024498E-1,6.4770095E-3,9.5761366E-2,-1.354023E0,-1.1701326E-2,1.6183685E-1,6.4770095E-3,5.5974465E-2,8.037768E-2,1.492551E0,-1.694669E-1,8.037768E-2,1.2519388E-1,-1.2659703E-1,-6.913618E-1,-1.9170587E-1,-1.1701326E-2,1.5426097E0,9.725156E-2,-1.1052096E-1,8.765886E-1,-1.3262558E-1,7.374448E-2,1.8136054E0,1.7361443E-1,2.8564617E-2,1.7165071E0,8.247183E-1,6.4770095E-3,1.2519388E-1,7.374448E-2,1.7947264E-1,-6.0652316E-1,-1.841038E0,-1.4770986E0,3.63907E-1,1.2519388E-1,-1.19362794E-1,1.0184685E0,-8.9380103E-1,1.4593972E0,-1.1701326E-2,5.5974465E-2,-1.610169E0,5.5974465E-2,-1.1701326E-2,-1.2675852E0,-1.9551015E-1,5.5974465E-2,-1.3262558E-1,2.8564617E-2,1.7406853E-1,2.8564617E-2,1.4320776E-1,1.7654012E-1,7.374448E-2,-1.3262558E-1,5.892896E-1,5.5974465E-2,-1.7149954E-1,-1.19362794E-1,1.2519388E-1,6.4770095E-3,1.567026E0,-1.1052096E-1,9.725156E-2,5.5974465E-2,-1.3262558E-1,6.295216E-1,1.802352E0,1.4320776E-1,-1.1701326E-2,1.8691081E-1,5.5974465E-2,2.8564617E-2,1.7235126E0,6.4770095E-3,1.2519388E-1,5.5974465E-2,-1.2659703E-1,-1.3769099E0,-1.9369397E0,-1.7743264E-1,5.5974465E-2,6.4770095E-3,5.5974465E-2,6.4770095E-3,1.4320776E-1,-4.9281406E-1,-1.7620365E-1,1.6727686E-1,2.8564617E-2,-1.7442323E0,5.5974465E-2,7.374448E-2,-1.785356E-1,-5.098191E-1,1.157804E0,6.4770095E-3,1.6499549E0,-1.19362794E-1,1.5430938E-1,1.8603738E-1,5.5974465E-2,7.374448E-2,1.7295846E-1,-1.5926526E0,8.037768E-2,-1.9687328E-1,-1.0406086E0,-1.0730468E0,3.790708E-1,-1.8911578E-1,2.8564617E-2,-1.19362794E-1,5.5974465E-2,6.4770095E-3,1.5430938E-1,2.8564617E-2,1.707554E0,-1.8818644E-1,8.037768E-2,-1.19362794E-1,1.2519388E-1,5.5974465E-2,-1.5473032E-1,1.822283E-1,-1.7553493E-1,-1.19362794E-1,8.4046E-1,2.8564617E-2,1.7712341E-1,-1.19362794E-1,1.2519388E-1,-1.19362794E-1,1.0017058E0,1.3888806E0,-1.1052096E-1,2.8564617E-2,1.2519388E-1,2.8564617E-2,1.6183685E-1],"categories":[],"categories_nodes":[],"categories_segments":[],"categories_sizes":[],"default_left":[0,0,0,0,0,0,0,0,0,0,0,0,0,0,0,0,0,0,0,0,0,0,0,0,0,0,0,0,0,0,0,0,0,0,0,0,0,1,0,0,0,0,0,0,0,0,0,1,0,0,0,0,0,0,0,0,0,0,0,0,0,0,0,0,0,0,0,0,0,0,0,0,0,0,0,0,0,0,0,0,0,0,0,0,0,0,0,0,0,0,0,1,0,0,0,0,0,1,0,0,0,0,0,0,0,0,0,0,1,0,0,0,0,0,0,0,0,1,0,0,0,0,0,0,0,0,0,0,0,0,1,0,0,0,0,0,0,0,0,0,0,0,0,0,0,0,0,0,0,0,0,0,0,1,0,0,0,0,0,0,0,0,0,0,0,0,0,0,0,0,0,0,0,0,0,0,0,0,0,0,0,1,0,1,0,0,0,0,0,0,0,0,0,0,0,0,0,0,0,0,0,0,0,0,0,0,0,0,0,0,0,0,0,1,0,0,0,1,0,0,0,0,0,0,0,0,0,0,0,0,0,0,0,0,0,0,0,0,0,0,0,0,0,0,0,0,0,0,0,0,0,0,0,0,0,1,0,0,0,0,0,0,0,0,1,0,0,0,0,0,0,0,0,0,0,0,0,1,1,0,0,0,0,0,0,1,0,0,0,0,0,0,0,0,0,0,0,0,0,0,0,0,0,0,0,0,0,1,0,0,0,1,0,0,0,1,0,0,0,0,0,0,0,0,0,0,0,0,0,0,0,0,0,0,0,0,0,0,0,0,0,0,0,0,0,0,0,0,0,0,1,0,0,0,0,0,0,0,0,0,0,0,0,0,0,0,0,0,0,0,0,0,0,0,0,0,0,0,0,0,0,0,0,0,0,0,0,0,0,0,0,0,0,0,0,0,0,0,0,0,0,0,0,0,0,0,0,1,0,0,0,0,0,0,0,0,0,0,0,0,0,0,0,0,0,0,0,0,0,0,0,0,0,0,0,0,0,0,0,0,0,0,0,0,0,0,0,0,0,0,0,0,0,0,0,0,0,0,0,0,0,0,0,0,0,0,0,0,0,0,1,0,0,0,0,0,0,0,0,0,0,0,0,0,0,0,0,0,0,0,0,1,0,0,0,0,0,0,0,0,0,1,0,0,0,1,0,0,0,0,0,0,0,1,0,0,0,0,0,0,0,0,0,0,0,0,0,0,0,0,0,1,0,0,0,0,0,0,0,0,0,0,0,0,0,0,0,0,0,0,0,0,0,0,0,0,0,0,0,0,0,0,0,0,0,0,0,0,0,0,0,0,0,0,0,0,1,0,0,0,0,0,0,0,0,0,0,0,0,0,0,0,0,1,0,0,0,0,0,0,0,0,0,0,0,1,0,0,0,0,0,0,0,0,0,0,0,0,0,0,0,0,0,0,0,0,0,0,0,0,0,0,0,0,0,0,0,0,0,0,0,0,0,1,0,0,0,0,0,0,0,0,0,0,0,0,0,0,0,0,0,0,0,0,0,0,0,0,0,0,0,0,0,1,0,0,1,0,1,0,0,0,1,0,0,0,0,0,0,0,1,0,0,0,0,0,0,0,0,0,0,0,0,0,0,0,0,0,0,0,0,0,0,0,0,0,0,0,0,0,0,0,0,0,0,0,0,0,0,0,0,0,0,0,0,0,0,0,0,0,0,0,0,0,0,0,0,0,0,0,0,1,0,0,0,0,0,0,0,0,0,0,0,0,0,0,0,0,0,0,0,0,0,0,0,0,0,0,0,0,0,0,0,0,0,0,0,0,0,0,0,0,0,0,0,0,0,0,0,0,0,0,0,0,0,0,0,0,0,0,0,0,0,0,0,0,0,0,0,0,0,0,0,0,0,0,0,0,0,0,1,0,0,0,0,0,0,0,0,0,0,0,0,0,0,0,0,0,0,0,0,0,0,0,0,0,0,0,0,0,0,0,0,0,0,0,0,0,1,0,0,0,0,0,0,0,0,0,0,1,0,0,0,0,0,0,0,0,0,0,0,0,0,0,0,0,0,0,0,0,0,0,0,0,0,0,0,0,0,0,0,0,0,0,0,0,0,0,0,0,0,0,0,0,0,0,0,0,0],"id":0,"left_children":[1,3,5,7,9,11,13,15,17,19,21,23,25,27,29,31,33,35,37,39,41,43,45,47,49,51,53,55,57,-1,59,61,63,65,67,69,71,73,75,-1,77,-1,79,81,-1,83,85,87,89,-1,91,93,-1,-1,-1,95,97,-1,99,-1,101,103,105,107,109,111,113,115,117,119,121,123,125,127,-1,129,131,-1,-1,133,-1,-1,135,-1,-1,137,-1,139,141,143,145,147,149,151,153,155,-1,157,159,161,163,165,167,169,171,173,175,177,179,181,183,185,187,189,191,-1,193,195,-1,-1,-1,197,199,-1,-1,201,203,-1,205,207,209,211,213,-1,-1,215,-1,217,-1,219,221,223,-1,-1,-1,-1,225,227,-1,-1,229,-1,231,233,235,-1,237,-1,239,-1,241,243,245,247,249,-1,251,253,-1,255,-1,257,259,-1,261,-1,263,-1,265,267,269,271,273,275,277,279,281,-1,-1,-1,-1,-1,283,-1,-1,285,-1,-1,-1,287,289,291,293,295,-1,297,299,-1,301,303,305,307,309,311,-1,-1,-1,313,-1,-1,315,317,319,-1,-1,-1,321,323,325,-1,-1,-1,-1,327,329,-1,-1,-1,-1,-1,-1,331,333,335,337,-1,339,341,343,-1,-1,345,347,349,-1,351,353,355,357,-1,359,361,363,365,367,-1,369,-1,371,-1,-1,-1,-1,373,375,377,379,381,383,385,387,389,-1,391,-1,393,395,-1,-1,-1,-1,-1,-1,397,399,401,403,405,-1,407,409,411,413,415,-1,-1,-1,417,-1,419,-1,421,-1,423,425,427,429,431,433,435,-1,-1,-1,-1,-1,437,-1,439,441,-1,-1,-1,-1,-1,-1,-1,443,445,447,-1,-1,-1,449,451,-1,-1,-1,-1,453,-1,455,457,459,461,463,-1,-1,465,467,469,471,-1,473,475,477,-1,-1,479,481,-1,-1,483,485,487,489,491,-1,493,-1,-1,-1,495,497,-1,499,-1,501,503,-1,-1,-1,505,507,-1,-1,509,-1,-1,-1,511,513,515,517,519,521,-1,-1,523,-1,-1,-1,525,527,-1,-1,529,531,533,-1,535,537,539,-1,541,543,-1,-1,545,-1,-1,547,-1,-1,-1,-1,-1,549,-1,551,-1,-1,-1,-1,553,555,557,-1,-1,-1,-1,-1,-1,-1,-1,559,561,-1,-1,563,-1,-1,-1,-1,-1,565,-1,-1,-1,-1,567,569,-1,-1,571,573,575,577,579,581,583,-1,585,587,-1,589,-1,-1,-1,-1,-1,591,593,595,-1,597,599,601,-1,-1,603,605,607,609,-1,-1,611,613,-1,-1,615,617,619,621,623,-1,625,-1,-1,-1,-1,627,629,631,633,-1,-1,-1,635,637,-1,-1,639,641,643,645,-1,-1,-1,647,649,651,-1,-1,653,-1,-1,655,-1,-1,657,-1,-1,659,661,663,-1,665,667,669,671,673,675,-1,-1,-1,-1,-1,-1,-1,677,679,-1,-1,-1,-1,681,683,-1,-1,685,-1,-1,-1,687,-1,-1,-1,-1,-1,689,691,-1,-1,693,-1,-1,-1,-1,695,697,699,701,703,705,707,709,-1,-1,-1,-1,-1,-1,711,-1,713,-1,-1,-1,-1,-1,715,-1,-1,717,719,-1,-1,-1,-1,721,-1,723,725,727,729,731,-1,-1,733,735,-1,737,-1,739,741,-1,-1,743,-1,-1,-1,745,747,-1,-1,749,-1,-1,-1,-1,-1,-1,-1,-1,-1,-1,-1,-1,-1,-1,-1,-1,-1,751,753,-1,755,-1,757,759,761,763,765,767,-1,-1,-1,769,-1,771,773,-1,-1,775,777,779,-1,-1,781,-1,783,785,-1,787,-1,-1,-1,789,791,-1,-1,-1,-1,-1,-1,793,-1,-1,-1,-1,-1,-1,-1,795,-1,-1,-1,-1,797,-1,-1,-1,-1,-1,-1,799,801,-1,-1,803,805,-1,-1,-1,-1,-1,807,-1,809,-1,811,813,815,-1,-1,817,-1,819,821,-1,-1,-1,823,825,827,829,831,-1,-1,-1,-1,-1,-1,833,835,837,-1,-1,-1,-1,-1,839,-1,-1,-1,841,-1,-1,-1,843,845,-1,-1,-1,-1,847,849,-1,851,-1,-1,853,-1,-1,855,-1,-1,857,-1,-1,859,-1,-1,861,863,-1,-1,-1,-1,865,867,869,871,-1,-1,873,875,877,-1,-1,879,-1,-1,881,-1,-1,-1,-1,-1,-1,-1,-1,-1,-1,883,-1,-1,-1,-1,-1,885,-1,-1,-1,-1,887,889,-1,-1,-1,-1,-1,891,-1,-1,-1,-1,893,895,-1,-1,-1,-1,-1,-1,897,-1,-1,-1,899,-1,-1,-1,901,903,-1,905,-1,-1,-1,-1,-1,-1,907,909,-1,911,913,915,-1,-1,-1,-1,-1,-1,-1,917,-1,919,-1,-1,-1,-1,921,-1,-1,923,-1,-1,-1,-1,-1,925,927,-1,-1,-1,-1,-1],"loss_changes":[7.8677734E2,2.450373E2,2.0973743E2,1.8657935E2,7.061827E1,7.545141E1,5.823236E1,7.794861E1,6.738539E1,1.6885712E1,6.141098E0,2.675327E1,1.5148582E1,1.9177917E1,1.359082E1,4.619336E1,6.2635433E1,2.1133297E1,6.3149097E1,1.07607975E1,5.330742E0,1.2131065E1,7.0164185E0,1.7851635E1,1.2381554E1,1.1524761E1,3.5462117E-1,1.7201263E1,1.7298866E1,0E0,5.624634E0,1.9855652E1,7.743031E1,1.7367737E1,2.6700035E1,1.2898532E1,1.4786667E1,9.195389E0,3.6102966E1,0E0,5.6480846E0,0E0,6.345564E0,3.8788748E0,0E0,7.6884036E0,3.7522278E0,1.3494937E1,1.079162E1,0E0,6.0804634E0,1.1802086E1,0E0,0E0,0E0,1.0146523E1,1.5647339E1,0E0,1.1682831E1,0E0,4.3860474E0,1.0859833E1,1.7750793E1,2.4692047E1,2.747009E1,2.2779495E1,1.6406572E1,1.8316895E1,1.1835907E1,1.7395546E1,1.3134443E1,5.202827E0,1.2104523E1,1.0014915E1,0E0,1.4699158E1,1.2064203E1,0E0,0E0,7.644968E0,0E0,0E0,4.6548114E0,0E0,0E0,1.6992493E0,0E0,1.635714E1,5.055566E0,1.2905939E0,1.5288227E1,8.1614E0,1.8909874E0,1.3634425E1,1.1283676E1,2.6742592E0,0E0,9.079367E0,8.097949E0,7.5589294E0,1.26302185E1,6.048828E0,1.3281319E1,1.6530113E1,1.4108032E1,1.5729717E1,1.0478752E1,1.0075116E1,1.4727005E1,2.04818E1,1.7369518E1,1.9069733E1,4.837059E0,6.536563E0,1.4771469E1,0E0,6.626318E0,7.2694473E0,0E0,0E0,0E0,5.202827E0,7.029024E0,0E0,0E0,1.2054329E1,1.710088E1,0E0,1.02127075E1,1.7743406E1,1.3308945E1,2.102142E1,1.2267151E1,0E0,0E0,3.2827468E0,0E0,1.7747955E0,0E0,1.1906681E1,1.1903847E1,7.6884036E0,0E0,0E0,0E0,0E0,1.5381768E1,4.107746E0,0E0,0E0,1.6777039E-2,0E0,6.879587E-1,1.0237503E1,1.32475E1,0E0,1.4099007E0,0E0,6.7246847E0,0E0,6.330379E0,6.035919E0,7.2809052E0,7.7429724E0,5.202827E0,0E0,1.6224365E0,6.317337E0,0E0,1.1469673E1,0E0,1.5862874E1,1.2749176E1,0E0,1.5485634E1,0E0,9.879074E0,0E0,4.8058295E0,1.4596497E1,8.519845E0,8.1924095E0,1.9791872E1,1.902974E1,2.9332424E1,1.7026274E1,1.5937456E1,0E0,0E0,0E0,0E0,0E0,1.1601604E1,0E0,0E0,2.9458542E0,0E0,0E0,0E0,1.3441229E0,2.8702216E0,3.9791486E0,7.0836334E0,1.6625761E1,0E0,7.2809052E0,9.750244E0,0E0,1.4735913E1,1.2411076E1,3.5462117E-1,1.0008072E1,1.387551E1,1.3771507E1,0E0,0E0,0E0,4.8272705E-1,0E0,0E0,3.1994667E0,5.570895E0,1.2084902E1,0E0,0E0,0E0,1.8011103E0,6.2984414E0,5.4089527E0,0E0,0E0,0E0,0E0,9.839996E0,6.7246847E0,0E0,0E0,0E0,0E0,0E0,0E0,1.1706829E0,2.8702216E0,7.259735E0,1.0064535E1,0E0,1.2905939E0,1.6330769E1,4.239685E0,0E0,0E0,2.1982307E0,1.6456909E0,4.890953E0,0E0,6.621109E0,1.5018907E1,7.2966347E0,1.2082143E1,0E0,9.3116455E0,7.015826E0,1.4390152E1,1.775662E-1,9.372055E0,0E0,8.554603E0,0E0,9.81369E0,0E0,0E0,0E0,0E0,1.0109827E1,1.3476225E1,1.4027529E1,6.879587E-1,1.5682814E1,2.3952492E1,9.65447E0,1.0944625E1,2.1677315E0,0E0,1.3468734E1,0E0,3.0644178E0,1.7708206E0,0E0,0E0,0E0,0E0,0E0,0E0,7.056027E0,6.84935E0,1.1621253E1,9.328728E0,1.2905939E0,0E0,7.3366165E0,6.7246847E0,1.3566835E1,5.856141E0,1.4112682E1,0E0,0E0,0E0,9.508469E0,0E0,1.44901085E1,0E0,1.0490032E1,0E0,7.1499634E-1,1.2905939E0,2.4174232E0,6.309019E0,2.8702216E0,8.147745E-1,7.570777E0,0E0,0E0,0E0,0E0,0E0,2.5664616E0,0E0,6.2984414E0,4.438408E0,0E0,0E0,0E0,0E0,0E0,0E0,0E0,4.877823E0,1.2760452E1,3.0103607E0,0E0,0E0,0E0,5.0137095E0,1.26338E0,0E0,0E0,0E0,0E0,1.6647339E0,0E0,3.2419128E0,7.664505E0,9.336172E0,3.0283928E0,1.0507225E1,0E0,0E0,1.3580345E1,9.562559E-1,7.822113E0,7.6884036E0,0E0,6.2851977E0,1.3953072E1,1.003294E1,0E0,0E0,7.8105316E0,1.7857939E1,0E0,0E0,5.1840057E0,5.464225E0,1.2221503E1,7.7820587E0,9.678834E0,0E0,1.0813648E1,0E0,0E0,0E0,8.095875E0,5.0022054E0,0E0,1.5537196E1,0E0,3.4958782E0,7.3362174E0,0E0,0E0,0E0,7.0109253E0,4.5410466E0,0E0,0E0,3.6501312E-1,0E0,0E0,0E0,1.0313362E1,5.3349304E0,1.4212041E1,1.3241472E0,1.5928446E1,8.601902E0,0E0,0E0,6.2727814E0,0E0,0E0,0E0,2.070145E1,9.234791E0,0E0,0E0,1.4395279E1,1.344062E1,6.2720566E0,0E0,1.2905939E0,6.511648E0,4.597248E0,0E0,6.179454E0,9.1552734E-5,0E0,0E0,2.7571945E0,0E0,0E0,3.5462117E-1,0E0,0E0,0E0,0E0,0E0,5.439172E0,0E0,3.1303558E0,0E0,0E0,0E0,0E0,1.15336485E1,3.9654083E0,6.2742352E0,0E0,0E0,0E0,0E0,0E0,0E0,0E0,0E0,1.3099976E0,1.4671173E0,0E0,0E0,7.0342255E0,0E0,0E0,0E0,0E0,0E0,7.1303825E0,0E0,0E0,0E0,0E0,7.056027E0,6.8312683E0,0E0,0E0,1.0012197E0,2.8702216E0,1.4502487E1,9.88603E0,1.5901987E1,1.0488688E1,3.9664612E0,0E0,3.0927591E0,7.069336E0,0E0,1.8997498E0,0E0,0E0,0E0,0E0,0E0,5.1808276E0,1.0450671E1,4.5410466E0,0E0,7.1916695E0,1.4474459E1,5.6689415E0,0E0,0E0,1.6021246E1,5.142973E0,6.7246847E0,1.6053829E0,0E0,0E0,2.8582153E0,7.7337375E0,0E0,0E0,8.841705E-2,1.8011103E0,1.3416297E1,4.274535E0,3.1055908E0,0E0,4.480316E0,0E0,0E0,0E0,0E0,3.0283928E0,1.1125813E1,3.870552E0,1.9919739E0,0E0,0E0,0E0,8.054718E0,4.894392E0,0E0,0E0,1.4161552E1,8.501018E0,6.6149864E0,1.0044206E1,0E0,0E0,0E0,1.026337E1,5.464225E0,2.5561218E0,0E0,0E0,2.5497437E-2,0E0,0E0,3.1737862E0,0E0,0E0,2.8702216E0,0E0,0E0,1.5950737E0,1.1591835E0,3.9791486E0,0E0,1.9323425E0,3.2827468E0,4.083438E0,1.0650059E1,6.7004395E-1,1.6222992E0,0E0,0E0,0E0,0E0,0E0,0E0,0E0,4.4813232E0,9.543301E0,0E0,0E0,0E0,0E0,1.7064896E1,7.60614E0,0E0,0E0,4.2485E0,0E0,0E0,0E0,1.5687605E1,0E0,0E0,0E0,0E0,0E0,1.8029633E0,3.6503348E0,0E0,0E0,9.155691E0,0E0,0E0,0E0,0E0,3.1425362E0,1.0540674E1,5.1937456E0,1.3743668E0,6.1090226E0,1.293953E0,1.4835674E1,6.790657E0,0E0,0E0,0E0,0E0,0E0,0E0,3.0644178E0,0E0,4.274535E0,0E0,0E0,0E0,0E0,0E0,3.0731277E0,0E0,0E0,1.7006607E0,1.775662E-1,0E0,0E0,0E0,0E0,3.0927591E0,0E0,5.9732285E0,7.6884036E0,1.9004669E0,3.6503348E0,8.867452E0,0E0,0E0,3.7981606E0,9.564659E0,0E0,4.5410466E0,0E0,4.5336266E0,2.8702216E0,0E0,0E0,2.1982307E0,0E0,0E0,0E0,7.5027094E0,1.695282E0,0E0,0E0,1.5017738E0,0E0,0E0,0E0,0E0,0E0,0E0,0E0,0E0,0E0,0E0,0E0,0E0,0E0,0E0,0E0,0E0,0E0,3.6071777E-1,1.3241472E0,0E0,5.0094604E-2,0E0,3.4597168E0,8.519845E0,8.880724E0,2.1989025E1,8.078323E0,4.071373E0,0E0,0E0,0E0,3.0644178E0,0E0,1.1966312E1,2.0149536E0,0E0,0E0,5.080858E0,3.2827468E0,2.8702216E0,0E0,0E0,9.069942E0,0E0,7.6884036E0,1.5917435E0,0E0,1.3241472E0,0E0,0E0,0E0,9.422903E0,4.3365717E0,0E0,0E0,0E0,0E0,0E0,0E0,1.775662E-1,0E0,0E0,0E0,0E0,0E0,0E0,0E0,5.487873E0,0E0,0E0,0E0,0E0,6.954299E0,0E0,0E0,0E0,0E0,0E0,0E0,8.554603E0,2.1369781E0,0E0,0E0,4.9316864E0,5.464225E0,0E0,0E0,0E0,0E0,0E0,9.28826E0,0E0,2.16259E-1,0E0,1.7406273E0,3.9569092E-1,1.2905939E0,0E0,0E0,2.070694E-1,0E0,2.3747253E0,8.07066E0,0E0,0E0,0E0,7.6884036E0,1.5338641E1,3.9053478E0,6.824787E0,5.1177E-1,0E0,0E0,0E0,0E0,0E0,0E0,1.2396698E0,3.9791486E0,1.676094E0,0E0,0E0,0E0,0E0,0E0,6.879587E-1,0E0,0E0,0E0,9.46579E-2,0E0,0E0,0E0,8.115229E0,6.7108727E0,0E0,0E0,0E0,0E0,7.6884036E0,3.1841354E0,0E0,5.464225E0,0E0,0E0,3.9791486E0,0E0,0E0,3.4307327E0,0E0,0E0,3.0927591E0,0E0,0E0,1.6777039E-2,0E0,0E0,1.8248291E0,1.2905939E0,0E0,0E0,0E0,0E0,3.6503348E0,2.8800354E0,7.2438335E0,1.775662E-1,0E0,0E0,1.8992128E0,9.201637E0,1.3441229E0,0E0,0E0,7.565151E0,0E0,0E0,1.3670219E1,0E0,0E0,0E0,0E0,0E0,0E0,0E0,0E0,0E0,0E0,5.8701973E0,0E0,0E0,0E0,0E0,0E0,3.5463562E0,0E0,0E0,0E0,0E0,1.1502008E1,4.6157837E-4,0E0,0E0,0E0,0E0,0E0,1.0070801E-1,0E0,0E0,0E0,0E0,7.9249E0,8.244324E-1,0E0,0E0,0E0,0E0,0E0,0E0,1.1118822E1,0E0,0E0,0E0,6.974571E0,0E0,0E0,0E0,3.2827468E0,2.3741622E0,0E0,1.6928635E0,0E0,0E0,0E0,0E0,0E0,0E0,1.0626549E1,7.6884036E0,0E0,5.3867035E0,1.1432375E1,7.678788E0,0E0,0E0,0E0,0E0,0E0,0E0,0E0,1.8867035E0,0E0,7.6884036E0,0E0,0E0,0E0,0E0,7.3684907E0,0E0,0E0,9.751049E0,0E0,0E0,0E0,0E0,0E0,3.5462117E-1,1.1706829E0,0E0,0E0,0E0,0E0,0E0],"parents":[2147483647,0,0,1,1,2,2,3,3,4,4,5,5,6,6,7,7,8,8,9,9,10,10,11,11,12,12,13,13,14,14,15,15,16,16,17,17,18,18,19,19,20,20,21,21,22,22,23,23,24,24,25,25,26,26,27,27,28,28,30,30,31,31,32,32,33,33,34,34,35,35,36,36,37,37,38,38,40,40,42,42,43,43,45,45,46,46,47,47,48,48,50,50,51,51,55,55,56,56,58,58,60,60,61,61,62,62,63,63,64,64,65,65,66,66,67,67,68,68,69,69,70,70,71,71,72,72,73,73,75,75,76,76,79,79,82,82,85,85,87,87,88,88,89,89,90,90,91,91,92,92,93,93,94,94,95,95,97,97,98,98,99,99,100,100,101,101,102,102,103,103,104,104,105,105,106,106,107,107,108,108,109,109,110,110,111,111,112,112,113,113,114,114,116,116,117,117,121,121,122,122,125,125,126,126,128,128,129,129,130,130,131,131,132,132,135,135,137,137,139,139,140,140,141,141,146,146,147,147,150,150,152,152,153,153,154,154,156,156,158,158,160,160,161,161,162,162,163,163,164,164,166,166,167,167,169,169,171,171,172,172,174,174,176,176,178,178,179,179,180,180,181,181,182,182,183,183,184,184,185,185,186,186,192,192,195,195,199,199,200,200,201,201,202,202,203,203,205,205,206,206,208,208,209,209,210,210,211,211,212,212,213,213,217,217,220,220,221,221,222,222,226,226,227,227,228,228,233,233,234,234,241,241,242,242,243,243,244,244,246,246,247,247,248,248,251,251,252,252,253,253,255,255,256,256,257,257,258,258,260,260,261,261,262,262,263,263,264,264,266,266,268,268,273,273,274,274,275,275,276,276,277,277,278,278,279,279,280,280,281,281,283,283,285,285,286,286,293,293,294,294,295,295,296,296,297,297,299,299,300,300,301,301,302,302,303,303,307,307,309,309,311,311,313,313,314,314,315,315,316,316,317,317,318,318,319,319,325,325,327,327,328,328,336,336,337,337,338,338,342,342,343,343,348,348,350,350,351,351,352,352,353,353,354,354,357,357,358,358,359,359,360,360,362,362,363,363,364,364,367,367,368,368,371,371,372,372,373,373,374,374,375,375,377,377,381,381,382,382,384,384,386,386,387,387,391,391,392,392,395,395,399,399,400,400,401,401,402,402,403,403,404,404,407,407,411,411,412,412,415,415,416,416,417,417,419,419,420,420,421,421,423,423,424,424,427,427,430,430,436,436,438,438,443,443,444,444,445,445,454,454,455,455,458,458,464,464,469,469,470,470,473,473,474,474,475,475,476,476,477,477,478,478,479,479,481,481,482,482,484,484,490,490,491,491,492,492,494,494,495,495,496,496,499,499,500,500,501,501,502,502,505,505,506,506,509,509,510,510,511,511,512,512,513,513,515,515,520,520,521,521,522,522,523,523,527,527,528,528,531,531,532,532,533,533,534,534,538,538,539,539,540,540,543,543,546,546,549,549,552,552,553,553,554,554,556,556,557,557,558,558,559,559,560,560,561,561,569,569,570,570,575,575,576,576,579,579,583,583,589,589,590,590,593,593,598,598,599,599,600,600,601,601,602,602,603,603,604,604,605,605,612,612,614,614,620,620,623,623,624,624,629,629,631,631,632,632,633,633,634,634,635,635,638,638,639,639,641,641,643,643,644,644,647,647,651,651,652,652,655,655,673,673,674,674,676,676,678,678,679,679,680,680,681,681,682,682,683,683,687,687,689,689,690,690,693,693,694,694,695,695,698,698,700,700,701,701,703,703,707,707,708,708,715,715,723,723,728,728,735,735,736,736,739,739,740,740,746,746,748,748,750,750,751,751,752,752,755,755,757,757,758,758,762,762,763,763,764,764,765,765,766,766,773,773,774,774,775,775,781,781,785,785,789,789,790,790,795,795,796,796,798,798,801,801,804,804,807,807,810,810,813,813,814,814,819,819,820,820,821,821,822,822,825,825,826,826,827,827,830,830,833,833,844,844,850,850,855,855,856,856,862,862,867,867,868,868,875,875,879,879,883,883,884,884,886,886,893,893,894,894,896,896,897,897,898,898,906,906,908,908,913,913,916,916,922,922,923,923],"right_children":[2,4,6,8,10,12,14,16,18,20,22,24,26,28,30,32,34,36,38,40,42,44,46,48,50,52,54,56,58,-1,60,62,64,66,68,70,72,74,76,-1,78,-1,80,82,-1,84,86,88,90,-1,92,94,-1,-1,-1,96,98,-1,100,-1,102,104,106,108,110,112,114,116,118,120,122,124,126,128,-1,130,132,-1,-1,134,-1,-1,136,-1,-1,138,-1,140,142,144,146,148,150,152,154,156,-1,158,160,162,164,166,168,170,172,174,176,178,180,182,184,186,188,190,192,-1,194,196,-1,-1,-1,198,200,-1,-1,202,204,-1,206,208,210,212,214,-1,-1,216,-1,218,-1,220,222,224,-1,-1,-1,-1,226,228,-1,-1,230,-1,232,234,236,-1,238,-1,240,-1,242,244,246,248,250,-1,252,254,-1,256,-1,258,260,-1,262,-1,264,-1,266,268,270,272,274,276,278,280,282,-1,-1,-1,-1,-1,284,-1,-1,286,-1,-1,-1,288,290,292,294,296,-1,298,300,-1,302,304,306,308,310,312,-1,-1,-1,314,-1,-1,316,318,320,-1,-1,-1,322,324,326,-1,-1,-1,-1,328,330,-1,-1,-1,-1,-1,-1,332,334,336,338,-1,340,342,344,-1,-1,346,348,350,-1,352,354,356,358,-1,360,362,364,366,368,-1,370,-1,372,-1,-1,-1,-1,374,376,378,380,382,384,386,388,390,-1,392,-1,394,396,-1,-1,-1,-1,-1,-1,398,400,402,404,406,-1,408,410,412,414,416,-1,-1,-1,418,-1,420,-1,422,-1,424,426,428,430,432,434,436,-1,-1,-1,-1,-1,438,-1,440,442,-1,-1,-1,-1,-1,-1,-1,444,446,448,-1,-1,-1,450,452,-1,-1,-1,-1,454,-1,456,458,460,462,464,-1,-1,466,468,470,472,-1,474,476,478,-1,-1,480,482,-1,-1,484,486,488,490,492,-1,494,-1,-1,-1,496,498,-1,500,-1,502,504,-1,-1,-1,506,508,-1,-1,510,-1,-1,-1,512,514,516,518,520,522,-1,-1,524,-1,-1,-1,526,528,-1,-1,530,532,534,-1,536,538,540,-1,542,544,-1,-1,546,-1,-1,548,-1,-1,-1,-1,-1,550,-1,552,-1,-1,-1,-1,554,556,558,-1,-1,-1,-1,-1,-1,-1,-1,560,562,-1,-1,564,-1,-1,-1,-1,-1,566,-1,-1,-1,-1,568,570,-1,-1,572,574,576,578,580,582,584,-1,586,588,-1,590,-1,-1,-1,-1,-1,592,594,596,-1,598,600,602,-1,-1,604,606,608,610,-1,-1,612,614,-1,-1,616,618,620,622,624,-1,626,-1,-1,-1,-1,628,630,632,634,-1,-1,-1,636,638,-1,-1,640,642,644,646,-1,-1,-1,648,650,652,-1,-1,654,-1,-1,656,-1,-1,658,-1,-1,660,662,664,-1,666,668,670,672,674,676,-1,-1,-1,-1,-1,-1,-1,678,680,-1,-1,-1,-1,682,684,-1,-1,686,-1,-1,-1,688,-1,-1,-1,-1,-1,690,692,-1,-1,694,-1,-1,-1,-1,696,698,700,702,704,706,708,710,-1,-1,-1,-1,-1,-1,712,-1,714,-1,-1,-1,-1,-1,716,-1,-1,718,720,-1,-1,-1,-1,722,-1,724,726,728,730,732,-1,-1,734,736,-1,738,-1,740,742,-1,-1,744,-1,-1,-1,746,748,-1,-1,750,-1,-1,-1,-1,-1,-1,-1,-1,-1,-1,-1,-1,-1,-1,-1,-1,-1,752,754,-1,756,-1,758,760,762,764,766,768,-1,-1,-1,770,-1,772,774,-1,-1,776,778,780,-1,-1,782,-1,784,786,-1,788,-1,-1,-1,790,792,-1,-1,-1,-1,-1,-1,794,-1,-1,-1,-1,-1,-1,-1,796,-1,-1,-1,-1,798,-1,-1,-1,-1,-1,-1,800,802,-1,-1,804,806,-1,-1,-1,-1,-1,808,-1,810,-1,812,814,816,-1,-1,818,-1,820,822,-1,-1,-1,824,826,828,830,832,-1,-1,-1,-1,-1,-1,834,836,838,-1,-1,-1,-1,-1,840,-1,-1,-1,842,-1,-1,-1,844,846,-1,-1,-1,-1,848,850,-1,852,-1,-1,854,-1,-1,856,-1,-1,858,-1,-1,860,-1,-1,862,864,-1,-1,-1,-1,866,868,870,872,-1,-1,874,876,878,-1,-1,880,-1,-1,882,-1,-1,-1,-1,-1,-1,-1,-1,-1,-1,884,-1,-1,-1,-1,-1,886,-1,-1,-1,-1,888,890,-1,-1,-1,-1,-1,892,-1,-1,-1,-1,894,896,-1,-1,-1,-1,-1,-1,898,-1,-1,-1,900,-1,-1,-1,902,904,-1,906,-1,-1,-1,-1,-1,-1,908,910,-1,912,914,916,-1,-1,-1,-1,-1,-1,-1,918,-1,920,-1,-1,-1,-1,922,-1,-1,924,-1,-1,-1,-1,-1,926,928,-1,-1,-1,-1,-1],"split_conditions":[2.7134037E-4,5.117416E-4,2.310869E1,-9.39283E-5,3.1679904E-4,-3.4160784E-4,4.96564E-4,1.82E1,-5.1049347E-4,-3.6572511E-3,2.3926811E0,1.2551936E-4,1.6111735E0,5.6E0,1.3345556E-3,7.6121956E-5,1.6246128E-3,1.3980444E-3,-8.707957E-4,1.8412761E-3,9.951734E-4,5.898158E-1,9.4E0,1E0,1.2445551E-3,3E0,4.864865E-1,-9.3750745E-2,-4.9357522E-1,-1.1052096E-1,-1.8901099E-2,7.1E0,-5.7487785E-5,-2.384385E-4,4.9838025E-5,2.1041855E-3,-5.2226234E1,8.75E-1,1.101914E-3,-1.2659703E-1,-1.6161488E0,5.5974465E-2,1.8491434E-4,-1.7044941E-3,-1.2659703E-1,-1.7329375E0,1.1429404E0,5.5229204E-4,3.115799E-4,-1.19362794E-1,6.3039083E-4,1.6000084E-4,9.725156E-2,1.2519388E-1,2.8564617E-2,4.4E0,1.2977031E-4,-1.3772665E-1,-4.6615218E-4,-1.1701326E-2,-5.2231445E-4,1.7891999E-1,1E0,-7.371704E-4,5.1E0,1E0,2.200955E-1,-1.0564166E-2,3.7744034E1,-4.0601283E-1,1.2272339E0,4.4E-1,1.02481246E-1,9.703444E-2,5.3694304E-2,-1.6932098E-4,1E0,1.525101E-1,-2.6923863E-2,5.1031485E-3,5.5974465E-2,1.5821297E-1,5.5786677E-2,1.2519388E-1,-1.19362794E-1,1.6363637E2,6.4770095E-3,1.639575E-3,-9.995003E-4,7.7E0,9.5763355E-1,8.6E0,4.2E0,3.9594426E0,1.2135401E0,3.851655E0,-1.1052096E-1,4.9E0,3.3E0,2E0,6.1598858E1,1.5651206E-3,5.391879E-1,1E0,-7.7011275E-1,-5.479204E-1,1.452514E-1,-8.651554E-1,9.5E0,-1.7533606E-4,1.2721877E-3,-4.7818292E-4,2E0,-6.6666664E1,-2.7870739E-2,1.4320776E-1,5.8339906E-1,4.8178797E0,-1.1052096E-1,1.2519388E-1,-1.7683522E-1,4.7E0,6.355964E-2,5.5974465E-2,-1.5212975E-1,-4.0490896E-1,8.3854164E1,5.3694304E-2,6.7E0,-4.876126E-1,3.2543163E0,3.9924374E1,9.802631E1,-1.8164065E-1,5.5974465E-2,1.6E1,1.2519388E-1,3.242953E-2,2.8564617E-2,7.6E0,2.1E0,-1.4772727E-3,-1.5473032E-1,6.4770095E-3,1.2519388E-1,-1.7953095E-1,1.8987873E-8,8.148148E-1,-1.1052096E-1,5.3694304E-2,4.945055E-1,-1.4209902E-1,9.5763355E-1,7.0520234E-1,-5.3390282E-5,6.4770095E-3,4.784689E-5,-1.7620365E-1,4.7539467E1,-1.19362794E-1,3.596968E-4,1.8779472E1,-3.4711752E-3,-2.3430322E-1,7.347442E1,-1.1701326E-2,2.4962599E1,9.148449E-1,-1.19362794E-1,-8.369909E-4,1.2024498E-1,-2.0042902E-3,-1.2037473E-3,-1.8164065E-1,1.41E1,5.3694304E-2,1.01E1,-1.3262558E-1,-3.066356E-5,-7.9591835E1,-8.9046615E-4,8.6538464E-1,8.428541E-5,2.1215098E0,3.3869147E-3,-3.9027922E-3,1.98E1,-1.8873791E-1,-1.1701326E-2,5.5974465E-2,-1.694669E-1,-1.4920412E-1,2.3630095E0,5.5974465E-2,-1.7051952E-1,1.8378256E1,-2.6923863E-2,5.5974465E-2,-1.5212975E-1,1.681404E-4,4.3708415E-4,1.4E1,-4.0255065E-4,-2.3636364E1,-1.5212975E-1,-4.6930014E-4,1.5734598E2,-1.6434114E-1,7.7014394E-2,5.344828E2,4.784689E-5,2.2888626E-1,1.120298E0,1.738003E0,-1.2659703E-1,-1.19362794E-1,5.5974465E-2,2E0,2.8564617E-2,-1.19362794E-1,1.7054264E-1,1E0,2.5877237E-4,-1.19362794E-1,1.2519388E-1,-1.4920412E-1,1.639575E-3,1.2068966E1,-9.39283E-5,5.5974465E-2,1.8691081E-1,1.4320776E-1,2.8564617E-2,-1.4675148E1,-5.5819146E-5,-1.3772665E-1,1.4320776E-1,2.8564617E-2,1.6636465E-1,1.2519388E-1,-1.1052096E-1,9.0134546E-2,4.3708415E-4,-4.131233E0,1E0,-1.2659703E-1,5.3851123E0,1.09E1,2.1336651E-3,-1.5212975E-1,5.5974465E-2,-2.7162558E-3,-1.5154477E-3,4.1E0,-2.6923863E-2,5.6E0,-5.6532345E0,3.318048E-3,6.7739206E-4,5.3694304E-2,3.968704E-4,3.1290742E-4,1.56E1,7.6E0,8.9E0,1.5430938E-1,3E0,7.374448E-2,-5.964818E-4,1.2024498E-1,-1.19362794E-1,-1.870629E-1,5.5974465E-2,-3.081118E-1,3.304129E-4,1E0,-4.534657E-3,6.5E0,5.1337338E-5,-3.5085008E-1,-1.8901099E-2,5.4534916E-3,-1.8236147E-1,-1.5706336E-3,-1.3262558E-1,2.3268112E-3,2.1026538E-1,1.6727686E-1,2.8564617E-2,-1.1052096E-1,5.5974465E-2,-1.3262558E-1,5.5974465E-2,1.8699454E-3,-9.206796E-1,-6.3217786E-4,-1.964702E-4,5.2238414E-5,-1.2659703E-1,1.6083252E1,4.7E0,-2.9588718E-4,2.7396914E-4,-6.3587788E1,1.2519388E-1,2.8564617E-2,1.2519388E-1,2.34E1,-1.2659703E-1,6.992305E-1,1.2024498E-1,2.79E1,-1.2659703E-1,-1.1201997E-3,6.5239137E-3,1.09E1,-5.243726E-3,-5.663797E-5,2.04E1,1.29E1,-1.6833332E-1,6.4770095E-3,1.3490018E-1,-1.19362794E-1,9.725156E-2,-4.0293453E1,-2.6923863E-2,1.6212338E-1,1E0,-1.1052096E-1,1.2519388E-1,2.8564617E-2,1.6183685E-1,-1.1052096E-1,5.5974465E-2,-2.6923863E-2,-2.608089E-1,-2.8029212E-1,4.2821968E-4,1.2519388E-1,6.4770095E-3,-1.5212975E-1,-1.5143867E-4,-1.6747613E-4,-1.1701326E-2,1.2519388E-1,-1.1701326E-2,2.8564617E-2,-6.869267E0,-1.1701326E-2,7.8688526E-1,-9.603875E-1,5.9E0,4.7032263E-5,-2.1021652E-4,-1.7799865E-1,5.5974465E-2,1.6E0,9.312977E-1,-1.0027739E0,6.150693E1,-1.1052096E-1,-1.6252235E-4,2E0,6.2354637E1,5.5974465E-2,6.4770095E-3,1.4774323E0,1.03E1,1.2519388E-1,-1.2659703E-1,-2.7147832E0,3.1290742E-4,3.457454E1,1.1468187E-3,1.7054264E-1,-1.4920412E-1,4.0942737E-1,1.2519388E-1,1.4320776E-1,2.8564617E-2,1E0,1.7566974E-3,-1.7743264E-1,1.2717019E-3,-1.1052096E-1,3E0,-5.2325886E-5,-1.6578275E-1,-2.6923863E-2,9.725156E-2,5.9820134E-3,2.42E1,-2.6923863E-2,1.2519388E-1,-2.980991E-4,2.8564617E-2,9.725156E-2,-1.2659703E-1,-7.371704E-4,-5.0815876E-4,1.8997361E-3,-2.8074868E-3,7.833213E-4,5.896416E1,1.2519388E-1,6.4770095E-3,4E0,5.5974465E-2,-1.1052096E-1,1.2519388E-1,5.1666665E-1,8.837769E-2,5.5974465E-2,-1.61046E-1,-6.509434E1,-3.7809226E-4,5.204303E-4,-1.19362794E-1,1.29E1,1E0,4.2857143E-1,-1.1052096E-1,-1.3999708E-3,1.9697838E-3,6.4770095E-3,1.2519388E-1,5.8760686E-4,6.4770095E-3,-1.1052096E-1,6.5E0,-1.1052096E-1,5.5974465E-2,1.4505659E-1,2.8564617E-2,-1.2659703E-1,1E0,6.4770095E-3,-5.663797E-5,9.725156E-2,-1.19362794E-1,-1.9267425E-1,-2.6923863E-2,-3.2829954E-3,2.6668262E1,3.3922393E0,-1.4588842E-1,6.4770095E-3,1.5805961E-1,-2.6923863E-2,1.4505659E-1,1.5993457E-1,2.8564617E-2,2.8564617E-2,1.8219142E-3,1.0144472E0,6.4770095E-3,5.5974465E-2,1E0,1.2519388E-1,-1.3262558E-1,1.3490018E-1,-1.1701326E-2,7.374448E-2,2.0957598E-3,1.2519388E-1,-1.591513E-1,1.5430938E-1,2.8564617E-2,-1.0878663E1,3.5391483E-1,-1.19362794E-1,1.2519388E-1,-4.534657E-3,8.1395346E-1,1.2E1,1E0,-1.0193869E-4,-6.768272E-3,-5.5172417E-4,5.5974465E-2,-7.0556316E0,-1.4556785E0,6.4770095E-3,1E0,-1.1052096E-1,9.725156E-2,1.4320776E-1,-1.3262558E-1,-1.8363675E-1,-2.7438423E-1,1.75E1,3.8826814E-1,5.3694304E-2,-9.6225407E-4,-1.548332E-1,2.384326E0,-1.4920412E-1,5.5974465E-2,-6.5065495E-4,1E0,2E0,-2.1649485E1,1.2024498E-1,-1.1052096E-1,2.07E1,-7.6725325E-3,-1.4209902E-1,5.5974465E-2,1.2068966E1,-1.1111111E-1,1.4434241E0,-5.544774E-4,1.6787418E0,-1.1701326E-2,-2.5757576E1,1.2519388E-1,6.4770095E-3,1.2024498E-1,-1.5473032E-1,2.01E1,-1.444295E-4,2.18E1,2.1756673E0,2.8564617E-2,1.4320776E-1,-1.6578275E-1,4.931696E-5,-1.0705673E0,-1.3262558E-1,1.5430938E-1,4E0,1E0,1.9595736E-4,6.896552E-1,6.4770095E-3,1.2519388E-1,-1.7999308E-1,1.6562324E-5,-9.82986E-4,-4.051447E-1,1.5821297E-1,-2.6923863E-2,3E0,5.5974465E-2,6.4770095E-3,-4.5312973E-4,2.8564617E-2,1.2519388E-1,1.79E1,1.3490018E-1,6.4770095E-3,2.01E1,5.4827568E-5,9.951734E-4,6.4770095E-3,1.6246128E-3,2.7363523E-4,4.502042E-4,2.480528E-4,2E0,1.36E1,2.8564617E-2,-1.8968697E-1,2.8564617E-2,-1.7620365E-1,5.5974465E-2,9.725156E-2,-1.2659703E-1,-7.12774E-4,3.2E0,1.525101E-1,2.8564617E-2,5.5974465E-2,-1.1052096E-1,-3.0505657E-1,8.6538464E-1,-1.1052096E-1,1.5430938E-1,1.73E1,-1.6434114E-1,-1.1052096E-1,1.4593972E-1,-3.2293987E-1,-1.9356333E-1,-1.1701326E-2,1.4320776E-1,5.5974465E-2,-1.7553493E-1,7E0,6.2E0,7.374448E-2,-1.19362794E-1,1.0236151E-1,-1.19362794E-1,5.5974465E-2,-1.4209902E-1,5.5974465E-2,6.9E0,-2.7751568E-4,2.904587E-3,2.937893E-4,1.04819E-4,5.760645E-4,-2.6487303E0,2E0,5.5974465E-2,-1.1052096E-1,1.2519388E-1,2.8564617E-2,1.7461374E-1,1.7406853E-1,-1.5894742E-3,1.2024498E-1,7.894737E0,1.9057105E-1,5.5974465E-2,1.3490018E-1,6.4770095E-3,-1.19362794E-1,2.0571192E-1,-1.3772665E-1,5.5974465E-2,3.1060606E-1,3.52E1,-1.740721E-1,6.4770095E-3,1.3490018E-1,-1.1701326E-2,1E0,-1.4209902E-1,8.565676E1,9.194686E-1,4E0,1.5E1,-4.526316E-1,1.2024498E-1,-1.1701326E-2,-4.0678037E-4,-4.804872E-1,7.374448E-2,6.041667E-1,1.2024498E-1,1.38E1,1.7310023E-4,1.2519388E-1,-1.3772665E-1,6.70569E0,-1.5212975E-1,-1.1052096E-1,9.725156E-2,3.18E1,1.19E1,1.8541713E-1,5.5974465E-2,5.1E0,6.4770095E-3,-1.1052096E-1,5.5974465E-2,1.7033689E-1,2.8564617E-2,2.8564617E-2,1.5821297E-1,-1.3262558E-1,5.5974465E-2,1.7757115E-1,5.3694304E-2,-1.19362794E-1,5.5974465E-2,1.525101E-1,-1.1701326E-2,1.525101E-1,-1.1052096E-1,4.6E1,1.9988725E-3,2.8564617E-2,1.5155125E0,-1.1701326E-2,3E0,-1.08137334E-4,4.3549266E-4,-3.777179E-1,9.5E0,1.53E1,5.5974465E-2,1.4320776E-1,-2.6923863E-2,9.437711E-4,-1.7799865E-1,-5.8938545E-4,1.2E1,-1.2659703E-1,5.5974465E-2,2E0,4.7E0,6.8E0,-1.8610506E-1,-1.5705715E-1,2.0705248E-1,1.6271716E-1,1E0,1.1429404E0,2.8564617E-2,5.0854353E-5,-1.1052096E-1,1.6271716E-1,2.8564617E-2,-6.0149617E-3,-3.45382E-3,-1.7241423E-1,5.5974465E-2,1.2519388E-1,-2.6923863E-2,-1.3772665E-1,5.5974465E-2,2.24E1,1.7720452E-1,2.8564617E-2,1.7045648E-1,6.4770095E-3,5.5974465E-2,1.4320776E-1,-1.1701326E-2,1.08E1,-2.6923863E-2,1.2519388E-1,-1.19362794E-1,-1.9313161E-1,1.7310023E-4,5.5974465E-2,-1.2659703E-1,7.374448E-2,-1.5212975E-1,6.4770095E-3,1.7592883E-1,-3.7801825E-4,3.4591812E-4,5.5974465E-2,-1.4209902E-1,7.5E-1,-1.3967955E0,-1.1052096E-1,5.5974465E-2,1.2519388E-1,-1.1701326E-2,1.6727686E-1,9.066185E0,2.8564617E-2,-3.4820964E-4,2.8564617E-2,4E0,2.5660917E-3,6.47E1,6.4770095E-3,1.2024498E-1,-3.611004E-1,7.374448E-2,-1.8283709E0,1E0,1.2024498E-1,-1.19362794E-1,-1.804337E-1,-2.917323E-4,1.5841103E-1,-2.0221424E-4,1.6800763E-7,1.01E1,-1.8899296E-1,-2.6923863E-2,-2.6923863E-2,1.2519388E-1,7.374448E-2,-1.7051952E-1,-1.5766239E-3,1.22E1,-4.6217796E-1,-1.1701326E-2,-1.19362794E-1,5.5974465E-2,-1.1052096E-1,5.5974465E-2,-5.3630807E-5,-1.19362794E-1,-1.19362794E-1,1.2519388E-1,1.25E1,2.8564617E-2,1.2024498E-1,6.4770095E-3,-5.0778496E-1,-5.5334218E-5,-1.1701326E-2,1.6183685E-1,6.4770095E-3,5.5974465E-2,4E0,4.3272728E-1,-1.694669E-1,2.5221953E-4,1.2519388E-1,-1.2659703E-1,4.8962007E-5,-1.9170587E-1,-1.1701326E-2,1.7262964E0,9.725156E-2,-1.1052096E-1,4.2725913E-4,-1.3262558E-1,7.374448E-2,8.3854164E1,1.7361443E-1,2.8564617E-2,-4.3673813E-1,4.7517732E-1,6.4770095E-3,1.2519388E-1,7.374448E-2,1.7947264E-1,4.690507E-4,-3.5267857E-1,5.179726E-1,3.8E0,1.2519388E-1,-1.19362794E-1,1.01E1,-1.3320951E-1,3.7748058E-4,-1.1701326E-2,5.5974465E-2,4.8178797E0,5.5974465E-2,-1.1701326E-2,1.7887205E-3,-1.9551015E-1,5.5974465E-2,-1.3262558E-1,2.8564617E-2,1.7406853E-1,2.8564617E-2,1.4320776E-1,1.7654012E-1,7.374448E-2,-1.3262558E-1,1E0,5.5974465E-2,-1.7149954E-1,-1.19362794E-1,1.2519388E-1,6.4770095E-3,5.574713E-1,-1.1052096E-1,9.725156E-2,5.5974465E-2,-1.3262558E-1,2.1109741E-2,-5.5035773E-5,1.4320776E-1,-1.1701326E-2,1.8691081E-1,5.5974465E-2,2.8564617E-2,4E0,6.4770095E-3,1.2519388E-1,5.5974465E-2,-1.2659703E-1,1.4934792E-1,8.518519E-1,-1.7743264E-1,5.5974465E-2,6.4770095E-3,5.5974465E-2,6.4770095E-3,1.4320776E-1,1E0,-1.7620365E-1,1.6727686E-1,2.8564617E-2,6.8E-1,5.5974465E-2,7.374448E-2,-1.785356E-1,3.4325503E-4,2.2119257E-4,6.4770095E-3,9.6E0,-1.19362794E-1,1.5430938E-1,1.8603738E-1,5.5974465E-2,7.374448E-2,1.7295846E-1,4.7725104E-4,-4.7761193E-1,-1.9687328E-1,8.565737E-1,-8.926358E-4,-1.1064583E1,-1.8911578E-1,2.8564617E-2,-1.19362794E-1,5.5974465E-2,6.4770095E-3,1.5430938E-1,2.8564617E-2,-3.782514E-3,-1.8818644E-1,1E0,-1.19362794E-1,1.2519388E-1,5.5974465E-2,-1.5473032E-1,9.753212E-4,-1.7553493E-1,-1.19362794E-1,6.625064E1,2.8564617E-2,1.7712341E-1,-1.19362794E-1,1.2519388E-1,-1.19362794E-1,9.9E0,8.4E0,-1.1052096E-1,2.8564617E-2,1.2519388E-1,2.8564617E-2,1.6183685E-1],"split_indices":[15,6,11,10,17,8,15,3,6,10,12,17,24,3,9,17,4,9,18,11,4,12,49,27,4,25,0,22,17,0,19,3,4,15,17,19,12,0,9,0,23,0,15,8,0,23,24,5,15,0,17,16,0,0,0,3,13,0,6,0,6,22,25,6,3,32,22,16,14,17,46,0,7,46,0,13,42,0,0,21,0,0,12,0,0,14,0,16,6,3,9,54,3,22,9,10,0,50,3,34,11,9,16,41,23,16,48,7,2,6,11,6,32,12,19,0,52,52,0,0,0,3,17,0,0,22,12,0,49,16,46,11,12,0,0,3,0,21,0,49,53,6,0,0,0,0,46,0,0,0,0,0,9,0,8,0,5,0,11,0,15,12,8,16,11,0,11,22,0,8,0,10,4,0,1,0,49,0,13,12,15,0,9,52,20,8,3,0,0,0,0,0,7,0,0,13,0,0,0,15,4,3,15,12,0,8,12,0,16,12,5,7,22,46,0,0,0,53,0,0,19,25,7,0,0,0,16,12,10,0,0,0,0,12,6,0,0,0,0,0,0,7,4,10,25,0,10,3,9,0,0,6,4,3,0,2,10,11,20,0,6,5,3,3,47,0,20,0,8,0,0,0,0,19,16,43,10,2,5,16,19,9,0,8,0,4,19,0,0,0,0,0,0,9,21,6,15,4,0,10,3,6,9,12,0,0,0,49,0,46,0,49,0,15,11,2,21,6,3,3,0,0,0,0,0,14,0,18,43,0,0,0,0,0,0,0,17,21,4,0,0,0,6,6,0,0,0,0,10,0,0,7,2,4,4,0,0,3,0,9,13,0,6,30,11,0,0,18,3,0,0,7,5,13,11,19,0,52,0,0,0,36,7,0,19,0,20,4,0,0,0,23,3,0,0,15,0,0,0,6,8,4,8,5,11,0,0,51,0,0,0,48,22,0,0,12,8,16,0,3,28,0,0,15,17,0,0,4,0,0,3,0,0,0,0,0,34,0,6,0,0,0,0,8,11,10,0,0,0,0,0,0,0,0,9,23,0,0,29,0,0,0,0,0,9,0,0,0,0,12,52,0,0,10,0,3,27,9,19,4,0,10,7,0,22,0,0,0,0,0,9,49,0,0,8,18,22,0,0,14,41,54,12,0,0,47,8,0,0,12,19,10,6,46,0,12,0,0,0,0,3,13,3,7,0,0,0,4,21,0,0,51,25,15,0,0,0,0,15,8,16,0,0,36,0,0,8,0,0,3,0,0,3,5,4,0,4,5,15,5,26,47,0,0,0,0,0,0,0,13,54,0,0,0,0,21,0,0,0,54,0,0,0,16,0,0,0,0,0,47,3,0,0,52,0,0,0,0,54,8,19,6,15,5,10,54,0,0,0,0,0,0,6,0,12,0,0,0,0,0,22,0,0,0,3,0,0,0,0,26,0,11,46,20,3,16,0,0,13,17,0,0,0,47,4,0,0,10,0,0,0,47,47,0,0,3,0,0,0,0,0,0,0,0,0,0,0,0,0,0,0,0,0,47,4,0,46,0,51,8,7,21,54,3,0,0,0,5,0,14,1,0,0,20,3,3,0,0,24,0,28,24,0,6,0,0,0,19,19,0,0,0,0,0,0,3,0,0,0,0,0,0,0,47,0,0,0,0,4,0,0,0,0,0,0,4,9,0,0,0,7,0,0,0,0,0,10,0,4,0,20,52,3,0,0,17,0,21,42,0,0,0,8,22,6,52,3,0,0,0,0,0,0,4,1,18,0,0,0,0,0,6,0,0,0,3,0,0,0,7,4,0,0,0,0,20,0,0,5,0,0,5,0,0,10,0,0,19,0,0,12,0,0,17,0,0,0,0,0,9,18,19,3,0,0,3,17,4,0,0,52,0,0,5,0,0,0,0,0,0,0,0,0,0,32,0,0,0,0,0,48,0,0,0,0,18,6,0,0,0,0,0,2,0,0,0,0,23,0,0,0,0,0,0,0,28,0,0,0,48,0,0,0,5,13,0,1,0,0,0,0,0,0,7,18,0,0,4,10,0,0,0,0,0,0,0,8,0,27,0,0,0,0,14,0,0,11,0,0,0,0,0,3,3,0,0,0,0,0],"split_type":[0,0,0,0,0,0,0,0,0,0,0,0,0,0,0,0,0,0,0,0,0,0,0,0,0,0,0,0,0,0,0,0,0,0,0,0,0,0,0,0,0,0,0,0,0,0,0,0,0,0,0,0,0,0,0,0,0,0,0,0,0,0,0,0,0,0,0,0,0,0,0,0,0,0,0,0,0,0,0,0,0,0,0,0,0,0,0,0,0,0,0,0,0,0,0,0,0,0,0,0,0,0,0,0,0,0,0,0,0,0,0,0,0,0,0,0,0,0,0,0,0,0,0,0,0,0,0,0,0,0,0,0,0,0,0,0,0,0,0,0,0,0,0,0,0,0,0,0,0,0,0,0,0,0,0,0,0,0,0,0,0,0,0,0,0,0,0,0,0,0,0,0,0,0,0,0,0,0,0,0,0,0,0,0,0,0,0,0,0,0,0,0,0,0,0,0,0,0,0,0,0,0,0,0,0,0,0,0,0,0,0,0,0,0,0,0,0,0,0,0,0,0,0,0,0,0,0,0,0,0,0,0,0,0,0,0,0,0,0,0,0,0,0,0,0,0,0,0,0,0,0,0,0,0,0,0,0,0,0,0,0,0,0,0,0,0,0,0,0,0,0,0,0,0,0,0,0,0,0,0,0,0,0,0,0,0,0,0,0,0,0,0,0,0,0,0,0,0,0,0,0,0,0,0,0,0,0,0,0,0,0,0,0,0,0,0,0,0,0,0,0,0,0,0,0,0,0,0,0,0,0,0,0,0,0,0,0,0,0,0,0,0,0,0,0,0,0,0,0,0,0,0,0,0,0,0,0,0,0,0,0,0,0,0,0,0,0,0,0,0,0,0,0,0,0,0,0,0,0,0,0,0,0,0,0,0,0,0,0,0,0,0,0,0,0,0,0,0,0,0,0,0,0,0,0,0,0,0,0,0,0,0,0,0,0,0,0,0,0,0,0,0,0,0,0,0,0,0,0,0,0,0,0,0,0,0,0,0,0,0,0,0,0,0,0,0,0,0,0,0,0,0,0,0,0,0,0,0,0,0,0,0,0,0,0,0,0,0,0,0,0,0,0,0,0,0,0,0,0,0,0,0,0,0,0,0,0,0,0,0,0,0,0,0,0,0,0,0,0,0,0,0,0,0,0,0,0,0,0,0,0,0,0,0,0,0,0,0,0,0,0,0,0,0,0,0,0,0,0,0,0,0,0,0,0,0,0,0,0,0,0,0,0,0,0,0,0,0,0,0,0,0,0,0,0,0,0,0,0,0,0,0,0,0,0,0,0,0,0,0,0,0,0,0,0,0,0,0,0,0,0,0,0,0,0,0,0,0,0,0,0,0,0,0,0,0,0,0,0,0,0,0,0,0,0,0,0,0,0,0,0,0,0,0,0,0,0,0,0,0,0,0,0,0,0,0,0,0,0,0,0,0,0,0,0,0,0,0,0,0,0,0,0,0,0,0,0,0,0,0,0,0,0,0,0,0,0,0,0,0,0,0,0,0,0,0,0,0,0,0,0,0,0,0,0,0,0,0,0,0,0,0,0,0,0,0,0,0,0,0,0,0,0,0,0,0,0,0,0,0,0,0,0,0,0,0,0,0,0,0,0,0,0,0,0,0,0,0,0,0,0,0,0,0,0,0,0,0,0,0,0,0,0,0,0,0,0,0,0,0,0,0,0,0,0,0,0,0,0,0,0,0,0,0,0,0,0,0,0,0,0,0,0,0,0,0,0,0,0,0,0,0,0,0,0,0,0,0,0,0,0,0,0,0,0,0,0,0,0,0,0,0,0,0,0,0,0,0,0,0,0,0,0,0,0,0,0,0,0,0,0,0,0,0,0,0,0,0,0,0,0,0,0,0,0,0,0,0,0,0,0,0,0,0,0,0,0,0,0,0,0,0,0,0,0,0,0,0,0,0,0,0,0,0,0,0,0,0,0,0,0,0,0,0,0,0,0,0,0,0,0,0,0,0,0,0,0,0,0,0,0,0,0,0,0,0,0,0,0,0,0,0,0,0,0,0,0,0,0,0,0,0,0,0,0,0,0,0,0,0,0,0,0,0,0,0,0,0,0,0,0,0,0,0,0,0,0,0,0],"sum_hessian":[1.9720438E3,1.3547865E3,6.1725745E2,1.2490145E3,1.0577199E2,1.75195E2,4.420624E2,8.480509E2,4.009636E2,2.2749353E1,8.302264E1,1.2017158E2,5.5023434E1,1.475458E2,2.945166E2,7.141047E2,1.3394618E2,1.5774551E2,2.4321808E2,9.024743E0,1.3724609E1,1.1999659E1,7.102298E1,7.874776E1,4.142382E1,5.204852E1,2.9749153E0,3.1749096E1,1.1579671E2,1.2499645E0,2.9326666E2,4.290878E2,2.850169E2,9.167239E1,4.2273796E1,2.2574358E1,1.3517116E2,6.004829E1,1.8316978E2,1.7499503E0,7.2747927E0,1.0749694E0,1.264964E1,1.0249708E1,1.7499503E0,3.1499104E0,6.787307E1,5.8148346E1,2.0599415E1,1.4999573E0,3.9923862E1,5.0148575E1,1.8999459E0,1.649953E0,1.3249623E0,1.1824663E1,1.9924433E1,2.249936E0,1.1354677E2,1.8249481E0,2.914417E2,2.320434E2,1.9704439E2,1.0174711E2,1.8326979E2,5.6348396E1,3.5323994E1,9.549728E0,3.2724068E1,9.649726E0,1.2924632E1,4.324877E0,1.3084628E2,5.764836E1,2.3999317E0,9.13974E1,9.1772385E1,5.199852E0,2.074941E0,1.1574671E1,1.0749694E0,6.0248284E0,4.2248797E0,1.649953E0,1.4999573E0,6.629811E1,1.5749552E0,5.1498535E1,6.649811E0,3.224908E0,1.7374506E1,2.3249338E1,1.6674524E1,6.299821E0,4.384875E1,1.0574698E1,1.2499645E0,1.0649697E1,9.274736E0,8.7622505E1,2.5924263E1,2.5531773E2,3.612397E1,4.5623703E1,1.864197E2,1.298213E2,6.722309E1,8.699753E0,9.3047356E1,6.0898266E1,1.2237152E2,3.6023975E1,2.0324423E1,6.8248057E0,2.849919E1,2.4749296E0,7.0747986E0,3.1474104E1,1.2499645E0,1.649953E0,7.9997725E0,4.324877E0,8.599755E0,1.0749694E0,3.2499075E0,5.9123318E1,7.172296E1,2.3999317E0,5.524843E1,4.004886E1,5.1348537E1,5.487344E1,3.689895E1,1.04997015E1,1.0749694E0,2.5749269E0,1.649953E0,6.497315E1,1.3249623E0,3.0349136E1,2.1149399E1,3.1499104E0,3.4999006E0,1.5749552E0,1.649953E0,9.249737E0,8.124769E0,2.1999374E1,1.2499645E0,2.3999317E0,1.4274593E1,2.499929E0,3.7998917E0,3.9123886E1,4.7248654E0,1.5749552E0,8.999743E0,7.7497797E0,2.8999174E0,1.4999573E0,7.774779E0,8.2647644E1,4.9748583E0,2.1599384E1,4.324877E0,1.8249481E0,2.5349278E2,3.4624016E1,1.4999573E0,4.289878E1,2.7249224E0,1.9849436E1,1.6657027E2,1.04997015E1,1.193216E2,2.3999317E0,6.482316E1,1.9999431E0,6.699809E0,8.882247E1,4.2248797E0,1.6824522E1,4.4073746E1,2.5749268E1,9.662225E1,2.10494E1,1.4974574E1,1.8499474E1,1.8249481E0,1.0749694E0,5.7498364E0,2.9999146E0,2.5499273E1,1.0749694E0,5.9998293E0,2.9399162E1,2.074941E0,1.0749694E0,3.2499075E0,6.2748213E0,2.3249338E0,3.0749125E0,5.6048405E1,6.847305E1,3.2499075E0,4.9748583E0,5.027357E1,4.749865E0,3.5298996E1,4.8373623E1,2.9749153E0,3.269907E1,2.217437E1,3.5149E1,1.7499503E0,1.4999573E0,1.0749694E0,6.3648186E1,1.3249623E0,1.4999573E0,2.8849178E1,8.024772E0,1.3124626E1,1.4999573E0,1.649953E0,2.9999146E0,5.124854E0,3.3999033E0,1.859947E1,1.0749694E0,1.3199624E1,2.4749296E0,1.3249623E0,3.622397E1,2.8999174E0,2.249936E0,2.4749296E0,1.3249623E0,7.6747813E0,1.649953E0,1.2499645E0,5.449845E0,2.3249338E0,5.8073345E1,2.45743E1,1.7499503E0,3.224908E0,9.699724E0,1.1899661E1,3.2499075E0,1.0749694E0,3.4749012E0,2.5001788E2,3.2549072E1,2.074941E0,2.6549246E1,1.6349535E1,9.574728E0,1.0274708E1,2.3999317E0,1.6417033E2,1.0099712E1,1.0922189E2,2.6499245E0,6.2173233E1,3.299906E0,3.3999033E0,2.1499388E0,8.667254E1,2.7249224E0,1.4999573E0,1.5749552E1,1.0749694E0,2.0124428E1,2.3949318E1,2.1949375E1,3.7998917E0,4.882361E1,4.779864E1,1.20746565E1,8.974745E0,3.974887E0,1.0999687E1,2.349933E1,1.9999431E0,3.724894E0,2.5674269E1,4.949859E0,1.3249623E0,1.2499645E0,1.0749694E0,1.9999431E0,1.0749694E0,3.6498961E0,5.239851E1,1.4524587E1,5.3948463E1,3.224908E0,1.7499503E0,4.7373653E1,2.8999174E0,2.9974148E1,5.3248487E0,4.672367E1,1.649953E0,1.3249623E0,1.649953E0,3.094912E1,1.7499503E0,1.9449448E1,2.7249224E0,3.3399048E1,1.7499503E0,6.042328E1,3.224908E0,2.4624298E1,4.2248797E0,2.3249338E0,5.6998377E0,7.624783E0,5.4998436E0,1.5749552E0,3.5498989E0,1.4999573E0,1.8999459E0,1.652453E1,2.074941E0,3.3999033E0,3.2824066E1,1.2499645E0,1.649953E0,1.3249623E0,4.1248827E0,1.2499645E0,1.0749694E0,2.074941E0,5.5998405E1,1.2349648E1,1.2224652E1,1.649953E0,1.5749552E0,3.2499075E0,6.449816E0,1.0074713E1,1.8249481E0,1.649953E0,1.8249481E0,1.3249623E0,2.4869292E2,1.8249481E0,3.0724125E1,2.289935E1,3.6498961E0,5.374847E0,1.0974688E1,8.499759E0,1.0749694E0,5.6498394E0,4.6248684E0,1.6102042E2,3.1499104E0,1.2499645E0,8.849748E0,9.239737E1,1.6824522E1,1.0749694E0,1.5749552E0,4.92986E1,1.2874634E1,1.649953E0,1.7499503E0,8.352263E1,3.1499104E0,4.4748726E0,1.5649555E1,2.0949404E1,2.9999146E0,2.0299423E1,1.649953E0,2.4749296E0,1.3249623E0,4.4748726E1,4.074884E0,8.249765E0,3.9548874E1,1.2499645E0,1.0824692E1,3.974887E0,4.999858E0,2.074941E0,1.8999459E0,1.9924433E1,3.5748982E0,2.074941E0,1.649953E0,2.4349306E1,1.3249623E0,1.8999459E0,1.7499503E0,1.4899576E1,3.749893E1,1.02247095E1,4.2998776E0,8.874747E0,4.5073715E1,1.649953E0,1.5749552E0,4.6298683E1,1.0749694E0,1.2499645E0,1.649953E0,7.474787E0,2.249936E1,1.0749694E0,4.2498794E0,5.299849E0,4.142382E1,2.9449162E1,1.4999573E0,3.224908E0,1.6224539E1,3.2149086E1,1.2499645E0,8.09977E0,5.232351E1,1.5749552E0,1.649953E0,2.3049343E1,1.5749552E0,1.2499645E0,2.9749153E0,1.2499645E0,1.0749694E0,4.3748755E0,1.3249623E0,1.7499503E0,5.8748326E0,1.5749552E0,1.4949574E1,1.8999459E0,1.4999573E0,3.0749126E1,2.074941E0,1.0424704E1,4.5573704E1,9.599727E0,2.7499218E0,1.5749552E0,1.0649696E1,2.074941E0,4.3748755E0,8.749751E0,1.3249623E0,1.3249623E0,2.4736795E2,2.914917E1,1.5749552E0,1.0749694E0,2.1824379E1,1.649953E0,1.9999431E0,3.5498989E0,1.8249481E0,2.1499388E0,8.824749E0,1.649953E0,3.9998863E0,3.299906E0,1.3249623E0,3.6498961E0,1.5737053E2,1.4999573E0,1.649953E0,6.524814E0,2.3249338E0,8.78475E1,4.5498705E0,9.299735E0,7.524786E0,4.822363E1,1.0749694E0,4.2998776E0,8.574757E0,1.5749552E0,8.194767E1,1.2499645E0,1.8999459E0,2.4749296E0,1.9999431E0,1.1999659E1,3.6498961E0,1.7374506E1,3.5748982E0,2.3999317E0,1.789949E1,1.9049458E1,2.5699268E1,2.9999146E0,1.0749694E0,3.089912E1,8.649754E0,2.8999174E0,7.924774E0,2.7249224E0,1.2499645E0,1.3874605E1,6.049828E0,2.499929E0,1.0749694E0,1.9224453E1,5.124854E0,1.1574671E1,3.3249054E0,3.5673985E1,1.8249481E0,8.574757E0,1.649953E0,1.5749552E0,2.7249224E0,3.4999006E0,5.374847E0,6.7998066E0,3.827391E1,4.497372E1,1.3249623E0,2.4749296E0,4.999858E0,8.124769E0,1.4374591E1,1.9999431E0,3.299906E0,3.5124E1,6.299821E0,2.5549273E1,3.899889E0,1.5749552E0,1.649953E0,9.49973E0,6.7248087E0,3.1499104E0,2.8999174E1,6.0248284E0,2.074941E0,5.124854E1,1.0749694E0,1.5749552E0,2.1474388E1,1.3249623E0,1.649953E0,2.3249338E0,3.5498989E0,1.5749552E0,1.33746195E1,7.3497906E0,3.0749125E0,1.5749552E0,4.399875E1,2.5749269E0,7.0248E0,6.449816E0,2.4091814E2,2.7824207E1,1.3249623E0,2.0499416E1,1.3249623E0,7.7497797E0,1.0749694E0,1.8999459E0,1.7499503E0,1.4024602E2,1.7124514E1,5.199852E0,1.3249623E0,1.0749694E0,1.2499645E0,6.569813E1,2.214937E1,1.2499645E0,3.299906E0,4.5498705E0,4.749865E0,1.2499645E0,6.2748213E0,1.2224652E1,3.5998978E1,1.8249481E0,2.4749296E0,1.0749694E0,7.499787E0,7.912275E1,2.8249197E0,2.1499388E0,1.4999573E0,1.5874548E1,1.4999573E0,1.0749694E0,2.499929E0,1.0749694E0,1.6824522E1,9.049743E0,9.999715E0,2.0149426E1,5.549842E0,8.1747675E0,2.2724354E1,7.5747848E0,1.0749694E0,1.2499645E0,1.649953E0,1.3249623E0,6.599812E0,1.0149711E1,3.724894E0,2.7249224E0,3.3249054E0,1.8149483E1,1.0749694E0,3.5498989E0,1.5749552E0,1.4999573E0,1.0074713E1,2.249936E0,1.0749694E0,3.302406E1,2.6499245E0,6.999801E0,1.5749552E0,3.5498989E0,1.8249481E0,4.2998776E0,2.499929E0,3.5124E1,3.1499104E0,4.21488E1,2.8249197E0,5.3998466E0,2.7249224E0,1.8249481E0,1.2549643E1,3.2974064E1,2.1499388E0,3.5748982E0,2.7249224E0,2.3224339E1,2.3249338E0,1.649953E0,2.249936E0,3.4749012E0,3.2499075E0,1.2499645E0,1.8999459E0,1.124968E1,1.7749495E1,5.0173573E1,1.0749694E0,1.9899433E1,1.5749552E0,1.2499645E0,1.0749694E0,1.2049657E1,1.3249623E0,1.3249623E0,6.0248284E0,1.9999431E0,1.0749694E0,4.1598816E1,2.3999317E0,1.4999573E0,1.0749694E0,5.199852E0,1.8249481E0,5.199852E0,1.2499645E0,2.3661826E2,4.2998776E0,1.3249623E0,2.6499245E1,1.8249481E0,1.3842107E2,4.2248797E0,1.2899633E1,4.007386E1,2.5624271E1,2.10744E1,1.0749694E0,2.4749296E0,2.074941E0,3.724894E0,8.499759E0,8.149768E0,7.0972984E1,1.7499503E0,1.0749694E0,1.3299622E1,2.5749269E0,2.3249338E0,1.4499588E1,3.7498934E0,5.299849E0,6.849805E0,3.1499104E0,1.8824465E1,1.3249623E0,4.2998776E0,1.2499645E0,6.849805E0,1.3249623E0,1.6774523E1,5.9498305E0,6.499815E0,1.0749694E0,1.649953E0,2.074941E0,2.249936E0,1.0749694E0,2.6499245E0,7.4247885E0,1.3249623E0,3.1699097E1,1.5749552E0,1.0749694E0,2.4749296E0,1.8249481E0,3.304906E1,2.074941E0,1.649953E0,1.4999573E0,3.3249054E1,8.899747E0,1.0749694E0,1.7499503E0,2.1499388E0,3.2499075E0,1.5749552E0,1.0974688E1,3.3999033E0,2.957416E1,1.0749694E0,2.499929E0,2.0074429E1,3.1499104E0,1.2499645E0,1.0749694E0,1.649953E0,1.8249481E0,4.949859E0,6.299821E0,1.3249623E0,1.6424532E1,1.3249623E0,1.857447E1,2.3339336E2,3.224908E0,1.5749552E0,2.7249224E0,2.4349306E1,2.1499388E0,1.264464E2,1.1974659E1,2.7249224E0,1.4999573E0,9.7497225E0,3.1499104E0,3.197409E1,8.09977E0,2.2724354E1,2.8999174E0,1.899946E1,2.074941E0,2.074941E0,1.649953E0,2.1499388E0,5.9998293E0,6.789807E1,3.0749125E0,1.1474673E1,1.8249481E0,1.4999573E0,1.0749694E0,1.2499645E0,1.0749694E0,3.7998917E0,1.4999573E0,1.4999573E0,1.649953E0,1.7499502E1,1.3249623E0,2.7249224E0,1.5749552E0,9.449731E0,7.324792E0,1.8249481E0,4.1248827E0,1.5749552E0,1.0749694E0,3.1499104E0,2.9899149E1,5.7498364E0,3.1499104E0,1.649953E0,1.7499503E0,3.0749125E0,2.6499247E1,1.8249481E0,1.8249481E1,1.8999459E0,1.2499645E0,4.2998776E0,1.9999431E0,2.1499388E0,1.4274593E1,1.7249508E1,1.3249623E0,2.3016844E2,3.224908E0,1.5749552E0,1.649953E0,2.1499388E0,2.2199368E1,2.8249197E0,1.2362148E2,9.324735E0,2.6499245E0,1.649953E0,1.4999573E0,4.049885E0,2.7924206E1,6.2748213E0,1.8249481E0,1.0749694E0,2.1649384E1,1.0749694E0,1.8249481E0,1.089969E1,5.699838E1,1.0749694E0,1.9999431E0,1.3249623E0,1.0149711E1,1.3249623E0,2.4749296E0,1.5349563E1,2.1499388E0,1.9999431E0,7.449788E0,1.0749694E0,6.249822E0,1.4999573E0,1.649953E0,1.5749552E0,2.8324194E1,1.2499645E0,1.8999459E0,1.0749694E0,1.9999431E0,4.7998633E0,1.3449617E1,2.4749296E0,1.8249481E0,1.3199624E1,1.0749694E0,1.3249623E0,2.2884349E2,1.5749552E0,1.649953E0,1.0749694E0,1.7499503E0,2.3799324E1,9.982216E1,8.249765E0,1.0749694E0,1.5749552E0,1.0749694E0,1.5749552E0,2.4749296E0,2.0174425E1,7.7497797E0,4.949859E0,1.3249623E0,2.0574415E1,1.0749694E0,2.1499388E0,8.749751E0,2.5749269E0,4.8748612E0,1.5749552E0,2.6749239E1,1.4999573E0,3.299906E0,1.2374647E1,1.0749694E0,2.1499388E0,2.2669354E2,2.0649412E1,3.1499104E0,9.524729E1,4.57487E0,1.1974659E1,8.199766E0,1.9249453E1,1.3249623E0,1.4999573E0,1.0749694E0,1.5749552E0,3.299906E0,1.3249623E0,2.5424276E1,1.7499502E1,3.1499104E0,1.4999573E0,1.649953E0,1.0749694E0,3.4999006E0,4.4748726E0,7.499787E0,1.4999573E0,6.699809E0,1.3249623E0,2.4099314E1,1.4999573E0,1.649953E0,1.4999573E0,2.9749153E0,5.449845E0,1.2499645E0,1.3249623E0,1.649953E0,1.3249623E0,4.1248827E0],"tree_param":{"num_deleted":"0","num_feature":"55","num_nodes":"929","size_leaf_vector":"1"}},{"base_weights":[-1.4515169E-2,-4.0908715E-1,8.480361E-1,-5.2203244E-1,9.7594E-1,-7.162088E-2,1.2084113E0,-7.147068E-1,1.0465434E-1,-2.2355485E-1,1.3297114E0,-4.5527315E-1,8.598647E-1,3.82553E-1,1.333196E0,-9.4186825E-1,-4.2983833E-1,5.5533E-1,-1.7292158E-1,-1.1541132E0,5.941052E-1,1.3884386E0,-4.257068E-1,-6.2971485E-1,4.4111916E-1,-1.2106353E-1,9.575114E-1,6.677071E-1,-6.089828E-1,-6.0290784E-1,1.3503482E0,-1.1327255E0,-5.771809E-1,-7.587277E-1,-8.460527E-2,-1.4676978E-1,6.384715E-1,6.75034E-1,-3.944442E-1,-1.6565602E-1,9.253223E-2,-1.2565711E-1,1.0243999E0,-1.2805362E-2,1.4270518E0,-1.0914868E-1,5.032241E-2,-7.2405535E-1,1.0775406E0,-4.9376902E-1,9.451727E-1,-1.16166495E-1,1.0478967E0,7.8457093E-1,-1.2997864E-1,-1.2818419E0,4.0307766E-1,6.3274585E-2,-1.2563153E-1,1.4163665E0,9.0085304E-1,-6.219231E-1,-1.2202623E0,5.686283E-2,-1.0932193E0,-2.634316E-1,-1.11576E0,-5.1651466E-1,3.541215E-1,-5.1619355E-2,8.319222E-1,-1.2275461E-1,9.88412E-1,-7.4785346E-1,4.6508717E-3,-4.0101025E-1,1.428956E0,1.4645528E0,2.9259345E-1,-9.3564665E-1,7.916326E-2,2.2287851E-2,1.2769322E-1,1.12758994E-1,-1.5511325E-1,-4.7403666E-1,1.3092906E0,-1.045689E-1,1.1260738E0,1.0633626E0,-1.8891236E-2,5.1374312E-2,-1.6084859E-1,-1.1405468E-1,1.1232935E0,6.112557E-1,1.441228E0,1.1128854E0,-4.485062E-1,7.390019E-1,-9.404404E-1,-5.40625E-1,-1.2997156E0,-2.6032943E-1,6.6584027E-1,-1.6337639E0,-4.5932147E-1,-1.6575402E-1,-1.0789434E-1,-1.1885517E0,6.838704E-1,-1.1915014E0,-1.4412248E-2,-3.369384E-1,6.4935017E-1,-5.3175133E-1,9.719069E-1,1.1271745E0,5.488479E-1,6.3079435E-1,-1.4679733E-1,1.1547074E0,-1.14069834E-1,1.1254218E0,-8.6011374E-1,-1.1779829E0,2.5024548E-1,-1.07306994E-1,5.226281E-2,5.393636E-3,1.7059119E-1,1.4962115E0,2.5958784E-3,5.1266372E-2,1.1169127E-4,-1.3114215E0,-3.294553E-1,-7.7667075E-1,7.7223194E-1,-1.1204286E-1,5.328421E-2,4.8710558E-1,1.6477607E-1,5.9667665E-1,1.4464823E0,1.1895088E0,-4.296832E-1,-8.282398E-1,9.6080536E-1,1.4037319E-1,2.2105495E-2,-1.3386638E-1,1.1541557E0,1.2205402E0,1.5291817E0,1.351192E0,4.7296238E-1,1.1565039E-1,-1.073758E0,-4.5132676E-1,1.177219E0,-1.2409908E0,1.2324519E-1,-1.3253762E0,1.4713733E-1,1.298928E-1,-1.3210238E0,2.0931177E-2,-1.3997874E0,-1.4274429E-1,1.0088915E0,-1.6868536E0,5.214117E-2,-1.5816893E-1,-2.4731305E-1,6.444795E-1,-3.2681713E-1,-1.2936286E0,-8.627372E-2,-1.2087343E-2,1.1098119E-1,-1.5697634E0,-5.055083E-1,7.109604E-1,-3.590919E-1,-1.3937172E0,1.6229384E-1,1.111733E0,2.6834622E-1,-1.5841185E-1,8.163685E-2,-1.09504096E-1,1.4968662E-1,1.2329923E0,-4.3203032E-1,-9.822199E-1,7.345503E-1,-5.5956554E-1,1.3601032E-1,1.5160185E0,5.973688E-1,1.3632677E-1,2.8360322E-2,-2.0603944E-1,-1.1417586E0,5.6148093E-2,-1.3985873E0,5.3112966E-1,-9.137133E-1,8.548867E-1,1.5836154E0,-1.8320476E-1,-1.5067295E0,-5.665422E-1,1.109816E0,-1.6104107E-1,7.867102E-1,1.073324E0,-1.0755461E-1,-2.8532749E-2,1.1984303E-1,9.730151E-1,-4.902633E-1,-1.5771663E-2,1.5622131E0,1.2939782E-1,1.3632944E0,-1.1045082E-1,5.1090892E-2,8.8359475E-2,-1.58047E-1,-9.4577896E-5,1.2933385E-1,-1.0137283E-3,1.3818814E0,-1.11697175E-1,1.2630388E0,6.9254264E-3,1.5391629E0,1.4423378E0,-1.0429992E-2,-1.4439397E-1,1.085702E0,5.7907026E-2,-1.5456966E-1,-1.1136975E-1,5.6195345E-2,1.5505011E-1,-5.898689E-3,-1.4792413E0,7.8046125E-1,7.5129664E-1,-1.3400844E-1,8.36962E-2,-1.6948694E-1,-9.239447E-1,1.045601E0,-1.3490931E0,4.0229157E-1,2.8109732E-1,-1.0151769E0,5.548172E-2,-1.6665067E-1,1.3003875E0,-7.186332E-1,-3.6321884E-1,-1.7399318E0,-8.023027E-1,1.1409908E-1,1.0608919E0,-8.329446E-1,1.9328703E-1,-7.706557E-1,5.1646456E-2,-1.3570648E0,-9.871481E-1,6.892366E-1,-1.6707633E0,5.247904E-2,5.707684E-1,-9.87299E-1,1.3313992E-2,1.4188694E0,9.126734E-1,-6.122708E-1,-1.6896679E-1,5.9388954E-2,-4.196175E-1,1.0261023E0,1.2845354E0,-1.2440363E-1,-1.2003292E0,5.7792795E-1,-1.3200234E-1,5.398767E-1,1.45057E0,5.469568E-1,-1.1049441E-1,5.077241E-2,-1.5091863E-1,5.6988973E-2,-1.0549801E-1,8.173932E-1,-1.18128315E-1,5.33023E-2,3.189094E-2,1.6075388E0,-1.2173434E-1,1.0303198E0,3.885849E-1,-1.5867282E-1,-1.4528329E0,-3.4945327E-1,-1.661252E-1,5.320501E-2,-1.2712777E-1,6.482583E-1,-1.3616704E0,9.1548234E-2,-1.1428515E-1,1.2416031E0,1.6856936E0,9.246505E-1,1.09166935E-1,-1.0022262E0,-1.4176539E-1,-1.6356931E0,4.462212E-1,-9.94477E-1,1.3483766E-1,2.7450291E-2,1.191568E-1,6.325376E-3,1.3985068E0,-2.449242E-2,1.248831E0,-1.1076033E-1,-1.4535704E-1,1.1506163E-1,1.6226779E0,2.2996014E-2,-1.2306054E-1,1.1004404E-1,-1.1072045E-2,1.4770182E0,6.2463183E-2,1.5495567E-1,-3.119255E-2,1.3015101E0,1.5517663E0,5.742384E-1,1.5228528E0,-1.9350507E-3,1.5277834E-1,1.4006221E0,3.2627277E-2,-1.5721173E0,6.5644095E-3,1.1778785E-1,-1.0923102E-1,1.3469809E0,-1.0929432E-1,1.1597035E-1,-1.5380917E-1,3.7743628E-1,1.497568E0,-3.715127E-1,-1.3676536E0,2.1111119E-1,-1.09863855E-1,1.3633552E-1,5.026289E-1,-1.4486368E-1,-1.5993983E-1,4.82067E-2,-2.9223142E-2,1.4794977E0,5.094604E-2,-1.281475E-1,-1.05575256E-1,5.617813E-2,-1.7987749E-1,-7.4585193E-1,-1.2554032E0,8.1686467E-1,8.0367863E-1,-3.7431723E-1,-1.0304812E-1,1.3156691E0,-1.3583283E-1,5.1788986E-2,7.053343E-1,-3.5436898E-1,8.879837E-2,-8.8980365E-1,-1.1887723E-1,8.4718186E-1,-1.4005172E0,-3.286459E-2,5.609588E-2,-1.4579688E-1,1.3979578E-1,-1.1114097E-1,-8.901088E-3,-1.7798476E-1,1.3557269E-1,-1.0904964E-1,4.9277478E-1,-1.6740069E-1,6.2364364E-1,-1.3638479E-1,6.254108E-3,1.6649273E-1,-3.6200172E-1,1.5609185E-1,-1.1785225E0,1.4976808E-1,-1.5463342E-1,4.1302E-1,-3.3494166E-1,1.5227662E-1,1.4199187E0,-1.0775315E-1,5.267492E-2,-1.5678392E-1,-7.7483326E-1,9.0737194E-1,9.7799295E-1,-1.1281206E-1,-1.949122E-2,1.57033E0,-1.1428942E-1,9.4128764E-1,-8.020883E-2,9.553925E-1,4.836524E-2,1.6638944E0,1.3098776E0,-1.608171E-2,-1.5123293E-1,1.0824589E0,3.6405358E-1,-1.6064314E0,-1.0586374E0,7.862804E-1,1.2823709E0,2.7835345E-1,5.3437453E-2,-1.6562006E-1,1.6017777E-1,-1.6458498E-2,2.1150006E-2,1.7202906E-1,-1.093828E-1,1.3203347E0,5.2422166E-2,-1.4845319E-1,-1.2545577E-1,1.1708112E-1,-1.7112175E0,2.4400156E-2,-1.0369145E-1,8.212121E-1,-1.5320678E0,3.3223101E-1,1.5540622E-1,2.7058413E-2,1.4784256E0,-1.385244E-2,1.6881889E-1,2.4600737E-2,5.3638273E-1,1.6180217E0,6.360218E-1,1.3896401E0,1.5614252E0,4.747044E-2,-1.869977E-2,1.1684507E-1,1.6067578E0,4.3121697E-3,1.1491694E-1,-1.08672656E-1,2.3126258E-2,1.5948163E-1,5.1472086E-2,-1.6696671E0,1.5710722E-1,2.6941894E-2,7.2990814E-3,5.7234764E-2,1.6602008E-1,3.7655316E-2,5.3404827E-2,-1.041941E-1,1.8873206E-1,-1.3862758E0,1.2025478E-1,-1.0531892E-1,-1.2132402E-1,6.481482E-1,6.7559504E-3,1.595643E0,5.617813E-2,-1.3100514E-1,2.0166075E-1,-1.6771498E-1,9.110045E-3,1.21211044E-1,-5.554318E-1,1.3290416E0,-7.8541803E-1,1.1908256E-1,1.6037736E0,-2.5958732E-2,-1.12924956E-1,9.6478677E-1,-1.3030481E0,8.0641717E-1,-5.498802E-1,-1.678221E-1,7.235399E-3,1.2798761E-1,-1.4266591E0,5.526781E-2,8.972931E-2,-1.1011143E-1,-2.496784E-2,1.1659407E-1,1.0497597E0,-1.01663485E-1,5.3594023E-2,-1.0297903E-1,6.686398E-2,-1.4278063E0,-1.4579384E-1,7.47914E-1,-3.7771314E-1,1.258428E-1,-1.013142E-1,5.595023E-2,2.428756E-1,1.5381095E0,5.6389082E-2,-1.5287153E-1,1.0364152E0,-1.0618402E-1,-1.1410042E-2,1.3040494E0,2.0886017E-2,1.6331409E0,2.2589609E-1,1.4871202E-1,7.9494077E-1,-1.2853692E-1,1.5373863E0,7.319956E-1,4.8885204E-2,1.7296624E-1,1.461473E-1,2.8979955E-2,-2.6803939E-2,1.3592004E0,5.7940938E-2,4.8705298E-3,-1.6914109E0,2.7314901E-2,-1.9609379E-2,-1.578751E-1,1.3912724E-1,-1.0139054E-1,-2.5186187E-2,1.5216178E0,5.9176826E-1,-1.0545623E0,-1.2653318E-3,1.5985624E-1,-1.7939666E-1,-2.3930607E-2,1.2783368E0,-2.8060809E-2,-1.7378329E-1,5.1659435E-2,9.937145E-1,-1.13444686E-1,1.6059323E-1,2.7546883E-2,1.2570262E-1,-2.595823E-2,2.590402E-2,1.6962053E0,-1.2927529E-1,1.0615321E0,1.4252201E0,2.3972623E-1,1.0603114E0,1.5857811E0,1.667738E0,2.338926E-2,-1.7673557E-1,-5.828316E-1,-1.07150674E-1,1.1846181E-1,-1.4136947E0,-2.1673273E-1,9.146032E-1,-3.438383E-1,2.63343E-2,1.6827275E0,-1.0083312E-1,1.1511972E-1,-1.1680751E-1,5.236868E-2,1.4904022E-1,2.6768288E-2,-1.335011E0,4.9245566E-1,1.7328678E-1,6.79427E-2,-2.1772873E-1,1.4001659E0,-1.6059159E-1,2.6622081E-2,-4.6982843E-1,1.5370218E-1,-1.1434568E0,-5.770528E-2,-1.0163604E0,-1.6275963E0,-1.0208989E-2,1.4587551E-1,-2.0017804E-1,-1.7392455E-1,-6.0090256E-1,1.2038863E0,1.1511115E-1,-1.3580006E-1,5.9246104E-2,-9.964324E-3,7.264081E-1,1.6176549E0,1.1770215E0,-1.0541059E-1,1.52002E-1,2.6428161E-2,2.602551E-2,1.6981224E0,1.0948129E-1,-1.1558075E-1,1.2127369E-1,5.372304E-3,1.6258869E-1,4.6985112E-2,-1.0781316E-1,8.6248523E-1,1.5683562E-1,6.074718E-3,-1.7843781E-1,8.265406E-3,-1.1558839E-1,1.1634102E-1,2.3755353E-2,1.6336744E0,7.765883E-1,-1.18041016E-1,-1.4968161E-1,5.187903E-2,1.528043E-1,2.6399264E-2,1.407037E-1,4.8880153E-3,1.7794949E-1,6.949742E-2,1.3272687E0,-1.7716624E-2,1.5909761E-3,1.4537541E0,4.719187E-2,-4.0968023E-3,1.4272456E0,-4.5263836E-1,6.224076E-2,1.592859E0,4.939113E-2,1.6985631E0,5.226281E-2,-1.2044815E-1,-1.4248279E0,5.8112293E-2,-1.3284574E-1,7.013339E-1,-5.8257586E-1,1.1462668E0,7.957393E-1,-1.4000623E-1,5.1509697E-2,1.7283065E0,-1.6249283E-1,2.6760269E-2,-2.5698245E-2,1.1741286E-1,-1.24304354E-1,9.153229E-2,1.614434E-1,6.282754E-3,-1.10641755E-1,5.236868E-2,5.2722674E-2,-1.3695459E0,-4.999127E-1,8.321075E-1,-1.1491859E0,7.3603444E-2,9.7958855E-3,-1.6709968E0,-1.2834074E-1,1.2002068E-1,5.1242378E-2,-1.2211777E-1,-9.968823E-3,1.5194981E-1,1.1632388E-1,-6.823474E-4,1.7513901E-1,8.231099E-1,6.1506107E-2,1.3271953E0,1.7334468E0,4.873351E-2,1.1700672E0,2.3609297E-1,1.6931391E0,5.006603E-2,-1.03188716E-1,9.2683053E-1,2.1636432E-2,1.4869191E-1,1.9853173E-2,1.4730414E0,1.6814154E-1,-4.0968023E-3,5.087003E-2,-1.1372631E-1,7.5681806E-1,1.6025317E0,5.0346274E-2,1.7313603E0,-1.4516499E0,-3.746146E-1,1.291697E-1,-1.0199937E-2,6.581912E-2,-1.246115E-1,-5.191563E-2,1.3639224E0,1.2181493E-1,4.9677E-3,5.3335853E-2,1.7781007E-1,2.407879E-2,-1.6341937E-1,4.1454682E-1,-1.5038049E-1,1.353375E-1,-1.0717853E-2,-3.8030624E-1,-1.4943918E0,-1.8106729E-1,-1.0148945E0,1.3662063E-1,-1.3796779E-2,-1.1270952E-1,1.15932465E-1,5.2578454E-3,1.4183803E0,5.0890047E-2,1.7701499E-1,1.3179146E0,-3.6905394E-3,1.192164E0,-1.4252771E-1,5.0375003E-2,1.7642425E-1,1.2243751E0,-2.0882074E-2,1.5902722E0,1.0237137E0,1.1986138E-1,7.598505E-4,1.6097425E0,6.379984E-2,1.766607E-1,5.0866295E-2,-1.7583141E0,-1.3268862E0,-1.3661872E-1,4.9237522E-1,6.7599036E-2,-1.0492142E-1,1.643488E0,6.319202E-1,9.834951E-1,-1.0497496E-1,3.6508414E-1,-1.4805424E-1,-1.6237166E0,5.9444558E-2,-1.6288774E-1,5.2360665E-2,1.5342781E-2,1.5109246E0,2.1656842E-3,1.4669064E0,3.7911863E-3,1.5384892E-1,-4.9810514E-2,1.553469E0,-1.3652788E-1,1.4298777E-1,2.2948597E-2,1.6178082E0,9.695901E-2,1.3118132E0,1.6196026E0,7.744336E-1,-4.9706617E-1,-1.8016274E-1,-8.0034286E-2,-1.3932747E0,1.3252081E-1,-1.01482E-1,1.7658743E-1,6.964794E-2,-1.1251583E-1,1.3310282E-1,5.571637E-3,1.3854402E-1,-1.1076766E-1,8.841005E-1,-2.5064114E-2,-1.7541395E-1,1.0052267E0,-1.23232104E-1,1.5891144E-1,2.4036614E-2,2.6149435E-2,1.5762128E0,-1.189984E-1,1.1523445E-1,1.6711476E0,2.7716672E-2,4.807851E-2,1.658901E0,-1.1726288E-1,7.5077087E-1,1.4860463E0,-4.289523E-3,1.6235051E0,4.719187E-2,2.2835943E-3,1.2122005E-1,-1.154045E-1,5.3460862E-2,8.5636437E-1,-9.594505E-1,-1.6623925E0,-1.208927E0,1.2789796E-1,-6.6252137E-3,1.264128E-1,2.7511084E-2,1.699898E-1,3.1912684E-2,1.7367832E-1,5.1826354E-2,1.6887287E0,2.6427424E-2,4.399483E-3,1.1533117E-1,2.178133E-2,1.6169423E-1,6.950273E-2,1.6303043E0,-8.861524E-3,1.3750775E-1,5.1055845E-2,-1.4245276E-1,2.3049546E-2,-1.7059017E0,-1.2544897E0,3.5874587E-1,1.7199117E0,2.6750555E-2,6.972494E-2,1.6372056E0,-1.7515926E0,5.0157714E-3,-1.2802017E0,5.6085706E-2,5.3693343E-2,7.5251753E-3,1.7369169E0,4.719187E-2,1.641142E-1,4.889491E-2,-7.815153E-2,-1.7977689E-1,-9.433424E-2,-1.489049E-1,4.719187E-2,1.754655E-1],"categories":[],"categories_nodes":[],"categories_segments":[],"categories_sizes":[],"default_left":[0,0,0,0,0,0,0,0,0,0,1,0,0,0,0,0,0,0,0,0,0,0,0,1,0,0,0,1,0,0,0,0,0,0,0,0,0,0,0,0,0,0,0,0,1,0,0,0,0,0,0,0,0,0,0,0,0,0,0,0,0,0,0,0,0,0,0,0,0,0,0,0,0,0,0,0,0,0,0,0,0,0,0,0,0,0,0,0,0,0,0,0,0,0,0,0,0,0,0,0,0,0,0,0,0,1,0,0,0,0,0,0,0,0,0,0,0,0,0,1,0,0,0,0,0,0,0,0,0,0,0,0,0,0,0,0,0,0,0,0,0,0,0,0,0,0,0,0,0,0,0,0,0,0,0,1,0,0,0,0,0,0,0,0,0,0,0,0,0,0,0,0,0,0,0,0,0,0,0,0,0,0,0,0,0,1,0,0,0,0,0,0,0,0,0,0,0,0,0,0,0,0,0,0,0,0,1,0,0,0,1,0,0,0,0,0,0,0,0,0,0,0,0,0,0,0,0,0,0,0,0,0,0,0,0,0,0,0,0,1,0,0,0,0,0,0,0,0,0,0,1,0,0,0,0,0,0,0,0,0,0,0,0,0,0,0,0,1,0,0,0,0,0,0,0,0,0,0,0,0,0,0,0,0,0,0,0,0,0,0,0,0,0,0,0,0,0,0,0,0,0,0,0,0,0,0,0,0,0,0,0,0,0,0,0,0,0,0,0,0,0,0,0,0,0,0,0,0,0,0,0,0,0,0,0,0,0,0,0,0,0,0,0,0,0,0,0,0,0,1,0,0,0,0,0,0,0,0,0,0,0,0,0,0,0,0,0,0,0,0,0,0,0,0,0,0,0,0,0,0,0,0,0,0,0,0,0,0,0,0,0,0,0,0,0,0,0,0,0,0,0,0,0,0,0,0,0,0,0,0,0,0,0,0,0,0,0,0,1,0,0,0,0,0,0,0,1,0,0,0,0,0,0,0,0,0,0,0,0,0,0,0,0,0,0,0,0,0,0,0,0,0,0,0,0,0,0,0,0,0,0,0,0,0,1,0,0,0,0,0,0,0,0,0,1,0,0,0,0,0,0,0,0,0,0,0,1,0,0,0,0,0,0,0,0,0,1,0,0,0,1,0,0,0,0,0,0,0,0,0,0,0,0,0,0,0,0,0,0,0,0,0,0,0,0,0,0,0,0,0,0,0,0,0,0,0,0,0,0,0,0,0,0,0,0,0,0,0,1,0,0,0,0,0,0,0,0,0,0,0,0,0,0,0,0,0,0,0,0,0,0,0,0,0,0,0,0,0,0,0,0,0,0,0,0,0,0,0,0,0,1,0,0,0,0,0,0,0,0,0,0,0,0,1,0,0,0,0,0,0,0,0,0,0,0,1,0,0,0,0,0,0,0,0,0,0,0,0,0,0,0,0,0,0,0,0,0,0,0,0,0,0,0,0,0,0,1,0,0,0,0,0,0,0,0,0,0,0,0,0,0,0,0,0,0,0,0,0,0,0,0,0,0,0,0,0,0,0,0,0,0,0,0,0,0,0,0,0,0,0,0,0,0,0,0,0,0,0,0,0,0,0,0,0,0,0,0,0,0,0,0,0,0,0,0,0,0,0,0,0,0,0,0,0,0,0,0,0,0,0,0,0,0,0,0,0,0,0,0,0,0,0,0,0,1,0,0,0,0,0,0,0,0,0,0,0,0,0,0,0,0,0,0,0,0,0,0,0,0,0,0,0,0,0,0,0,0,0,0,0,0,0,0,0,1,0,0,0,0,1,0,0,0,0,0,0,0,0,0,0,0,0,0,0,0,0,0,0,0,0,0,0,0,0,0,0,1,0,0,0,0,0,0,0,0,1,0,0,0,0,0,0,0,0,0,0,0,0,0,0,0,0,0,0,0,0,0,0,0,0,0,0,0,0,0,0,0,0,0,0,0,0,0,0,0,0,0,0,0,0,0,0,0,0,0,0,0,0,0,0,0,0,0,0,0,0,0,0,0,1,0,1,0,0,0,0,0,0,0,0,0,0,0,0,0,0,0,0,0,0,0],"id":1,"left_children":[1,3,5,7,9,11,13,15,17,19,21,23,25,27,29,31,33,35,37,39,41,43,45,47,49,-1,51,53,55,57,59,61,63,65,67,-1,69,71,73,-1,-1,-1,75,-1,77,-1,-1,79,81,83,85,-1,87,89,-1,91,93,-1,-1,95,97,99,101,103,105,107,109,111,113,115,117,119,121,123,125,127,129,131,133,135,137,-1,-1,-1,-1,139,141,-1,143,145,147,-1,-1,-1,149,151,153,155,157,159,161,163,165,167,169,171,173,-1,175,177,179,181,183,185,187,189,191,193,195,197,-1,199,-1,201,203,205,207,-1,-1,-1,-1,209,-1,-1,-1,211,213,215,217,-1,-1,219,-1,221,223,225,227,229,231,-1,-1,-1,233,235,237,239,241,-1,243,245,247,249,251,253,255,-1,257,259,261,-1,263,265,-1,-1,267,269,271,273,275,-1,-1,277,279,281,283,285,287,289,291,-1,293,-1,-1,295,297,299,301,303,-1,305,307,-1,-1,309,311,-1,313,315,317,319,321,323,325,327,329,-1,331,333,-1,-1,-1,335,337,-1,339,341,343,-1,-1,-1,-1,-1,-1,-1,345,-1,347,-1,349,351,-1,-1,353,-1,-1,-1,-1,-1,-1,355,357,359,-1,361,-1,363,365,367,369,371,373,-1,-1,375,377,379,381,383,385,387,389,391,393,395,397,399,401,403,-1,405,407,409,411,413,415,-1,-1,417,419,421,-1,423,425,-1,427,429,431,-1,-1,-1,-1,-1,433,-1,-1,-1,435,-1,437,439,-1,441,443,-1,-1,-1,445,447,-1,-1,449,451,453,-1,455,457,459,461,463,-1,-1,-1,-1,465,-1,467,-1,-1,-1,469,-1,-1,-1,-1,471,-1,-1,-1,473,475,477,479,-1,481,483,-1,485,-1,-1,-1,487,-1,-1,-1,489,491,493,495,497,-1,-1,499,-1,-1,-1,-1,501,-1,-1,-1,-1,-1,503,505,507,509,511,-1,513,-1,-1,515,517,-1,519,-1,521,523,525,-1,-1,-1,-1,-1,-1,-1,-1,527,-1,529,-1,-1,-1,531,-1,533,535,-1,537,539,-1,541,-1,-1,-1,543,545,547,-1,-1,549,-1,551,553,555,-1,557,559,-1,-1,561,563,565,567,569,571,573,-1,-1,-1,-1,-1,-1,-1,575,-1,-1,-1,-1,577,-1,-1,579,581,583,-1,-1,585,-1,-1,-1,587,589,591,593,595,-1,-1,-1,597,-1,-1,-1,-1,-1,-1,599,-1,-1,-1,-1,-1,-1,-1,-1,601,603,-1,-1,-1,605,-1,607,-1,-1,609,-1,-1,-1,611,613,615,-1,617,-1,-1,619,621,623,625,-1,-1,-1,627,-1,-1,-1,-1,-1,629,-1,-1,-1,-1,631,-1,633,635,-1,-1,-1,637,639,-1,-1,641,-1,-1,643,-1,645,647,-1,649,-1,651,653,-1,-1,-1,-1,-1,655,-1,-1,657,-1,659,-1,-1,-1,-1,661,663,665,-1,-1,-1,-1,667,-1,-1,-1,669,-1,-1,-1,-1,-1,-1,671,-1,673,675,677,679,681,683,-1,-1,685,-1,-1,687,689,691,693,-1,695,-1,-1,-1,-1,-1,-1,697,699,-1,-1,701,703,-1,-1,705,-1,707,709,711,713,-1,-1,715,-1,717,719,-1,-1,-1,-1,721,723,725,-1,-1,-1,-1,727,-1,-1,-1,-1,-1,-1,-1,729,-1,-1,-1,-1,-1,-1,-1,731,733,-1,-1,-1,-1,-1,-1,-1,-1,-1,735,-1,-1,737,-1,-1,739,741,-1,743,-1,745,-1,-1,747,-1,-1,749,751,753,755,-1,-1,757,-1,-1,-1,-1,-1,-1,-1,-1,-1,-1,-1,759,761,763,765,-1,-1,767,-1,-1,-1,-1,-1,-1,-1,-1,-1,769,771,773,775,-1,777,779,781,-1,-1,783,-1,-1,-1,785,-1,-1,-1,-1,787,789,-1,791,793,795,-1,-1,-1,-1,797,799,-1,-1,-1,-1,-1,-1,801,-1,-1,-1,803,805,-1,807,-1,-1,-1,-1,-1,809,-1,-1,811,-1,813,-1,-1,-1,815,817,819,821,-1,-1,823,-1,-1,-1,825,827,-1,829,-1,-1,831,833,835,-1,837,-1,839,-1,-1,841,-1,843,-1,845,-1,-1,847,849,-1,-1,-1,851,853,855,857,859,861,-1,863,865,-1,-1,-1,-1,-1,-1,-1,-1,-1,867,-1,-1,869,-1,-1,-1,-1,871,-1,-1,873,-1,-1,875,-1,877,879,-1,881,-1,-1,-1,-1,-1,883,885,887,889,-1,-1,-1,-1,-1,-1,-1,-1,891,-1,-1,-1,-1,-1,-1,893,-1,-1,-1,-1,-1,895,897,899,901,-1,-1,903,905,-1,907,-1,-1,-1,909,-1,-1,-1,-1,-1,-1,-1,-1,-1],"loss_changes":[6.6691364E2,2.108311E2,2.0392749E2,1.5025537E2,4.3462433E1,6.261002E1,4.5034668E1,6.116272E1,3.679274E1,1.8965134E1,8.704025E0,1.9662336E1,1.1497646E1,1.7205368E1,1.3550659E1,3.6130493E1,4.8071053E1,1.9783237E1,3.450956E1,1.3627691E1,1.1996317E1,4.655548E0,2.598179E0,1.7560535E1,1.0260195E1,0E0,1.0677753E1,1.1739204E1,9.909606E0,4.0723143E0,1.0014587E1,1.4707001E1,6.0134384E1,3.8076416E1,3.95883E1,0E0,1.45037E1,9.653864E0,2.0478865E1,0E0,0E0,0E0,7.1826534E0,0E0,2.7439423E0,0E0,0E0,1.6955128E1,7.1359444E-1,1.5355812E1,7.775584E0,0E0,9.016731E0,1.001722E1,0E0,5.826008E0,8.250732E0,0E0,0E0,5.7244873E0,1.5225708E1,2.351426E1,1.518631E1,1.626985E1,3.394928E1,1.9813578E1,1.7289917E1,3.563584E1,2.1387257E1,1.2634665E1,6.457344E0,1.272817E1,1.1048855E1,1.7160267E1,2.0385754E1,2.6184402E0,3.391405E0,3.2373352E0,2.3264658E-1,1.7494034E1,1.3430855E1,0E0,0E0,0E0,0E0,2.9147751E0,2.3376904E0,0E0,7.050453E0,6.754822E0,1.0690933E1,0E0,0E0,0E0,8.9874697E-1,1.3847807E1,4.3328247E0,6.1882095E0,8.97155E0,6.031257E0,1.3931099E1,1.774157E1,1.62641E1,1.7819757E1,2.2135994E1,7.0887756E0,1.1030647E1,0E0,1.404908E1,1.3932785E1,2.0278351E0,1.0847347E1,1.5590816E1,1.6958912E1,1.2569166E1,1.1381296E1,1.0566292E1,7.2133713E0,1.3564898E1,7.8468094E0,0E0,4.3283653E0,0E0,5.717592E-1,1.3251537E1,5.4169044E0,1.9481134E1,0E0,0E0,0E0,0E0,2.5906067E0,0E0,0E0,0E0,1.0354698E1,1.13606E1,1.4533464E1,8.083235E0,0E0,0E0,2.9301243E0,0E0,8.368683E0,5.511814E0,5.50412E0,2.6699183E0,1.088796E1,1.9548225E0,0E0,0E0,0E0,2.5666676E0,1.0944366E1,3.1635132E0,4.4066086E0,1.7643599E1,0E0,5.6233735E0,3.0152526E0,3.7756329E0,1.738184E1,1.0569027E1,8.099583E0,1.8505392E1,0E0,1.3172272E1,1.2552188E1,6.6614876E0,0E0,1.3698908E1,3.105606E0,0E0,0E0,8.427554E0,1.2740796E1,1.5325246E1,9.511337E0,8.801677E0,0E0,0E0,6.893608E0,9.596399E0,9.904486E0,1.4160627E1,7.050596E0,1.1708236E1,1.49007225E1,1.9500065E1,0E0,8.396697E0,0E0,0E0,4.905163E0,2.6566098E0,5.206521E0,6.9195023E0,3.2172785E0,0E0,1.1437416E0,1.0582587E1,0E0,0E0,1.9709835E1,1.2051018E1,0E0,6.461014E0,1.0839212E1,1.080323E1,9.618158E0,2.5280457E0,9.716426E0,6.983116E0,1.2433363E1,5.835781E-1,0E0,1.1582551E0,5.1477413E0,0E0,0E0,0E0,9.799306E0,1.0566476E1,0E0,1.7651291E0,8.5483675E0,4.586647E0,0E0,0E0,0E0,0E0,0E0,0E0,0E0,5.5478096E-2,0E0,6.145401E0,0E0,1.8189697E0,3.590664E0,0E0,0E0,3.000821E0,0E0,0E0,0E0,0E0,0E0,0E0,5.6252213E0,1.1178374E0,1.0169952E1,0E0,6.4941525E0,0E0,7.649921E0,7.2051277E0,7.7349243E0,8.645057E0,1.4966194E1,8.949845E0,0E0,0E0,6.7205887E0,3.627664E0,2.7166047E0,1.6348572E0,1.3141528E1,9.072738E0,9.601475E0,4.1085663E0,8.962858E0,7.839916E0,6.873871E0,6.0351562E0,5.037156E0,1.0277189E1,4.564499E0,0E0,9.32901E0,1.3427536E1,1.0205045E1,3.221119E0,6.692106E0,1.5636814E1,0E0,0E0,1.3880704E1,6.810774E0,1.1423145E1,0E0,5.6026583E0,1.6228195E1,0E0,8.210534E0,5.8985977E0,8.2710495E0,0E0,0E0,0E0,0E0,0E0,4.983494E0,0E0,0E0,0E0,6.913757E-2,0E0,3.5830345E0,2.4137527E1,0E0,1.0707481E1,1.3463717E1,0E0,0E0,0E0,1.0246843E1,6.3413944E0,0E0,0E0,5.0098305E0,2.2572174E0,9.721704E0,0E0,4.8635626E0,8.236096E0,5.720413E0,5.80553E0,1.4600067E1,0E0,0E0,0E0,0E0,1.1832523E0,0E0,4.4791546E0,0E0,0E0,0E0,1.8598557E0,0E0,0E0,0E0,0E0,2.3903542E0,0E0,0E0,0E0,4.550537E0,1.5410767E0,2.236167E0,3.4930725E0,0E0,6.04564E0,1.4610882E0,0E0,6.7969666E0,0E0,0E0,0E0,1.1304235E0,0E0,0E0,0E0,1.7415267E-1,8.4599686E-1,2.5668614E0,7.6305847E0,6.141603E0,0E0,0E0,9.196122E0,0E0,0E0,0E0,0E0,3.1688385E0,0E0,0E0,0E0,0E0,0E0,4.0943184E0,8.510031E0,1.0991793E0,8.675535E0,1.1184123E1,0E0,6.8762093E0,0E0,0E0,8.891665E0,1.831642E1,0E0,8.130665E0,0E0,1.3175414E0,6.012207E0,5.3420186E0,0E0,0E0,0E0,0E0,0E0,0E0,0E0,0E0,2.641295E0,0E0,6.936941E0,0E0,0E0,0E0,2.5375745E0,0E0,1.04714775E1,1.6631601E1,0E0,6.428932E0,2.5757515E0,0E0,3.7569618E0,0E0,0E0,0E0,8.291817E0,8.336285E0,3.082252E0,0E0,0E0,1.9305573E0,0E0,3.296832E0,7.5622315E0,3.348772E0,0E0,1.3814163E-1,8.6179066E-1,0E0,0E0,5.252804E0,2.1916237E-1,5.8336105E0,5.4165716E0,8.600978E0,6.3949947E0,1.3085212E1,0E0,0E0,0E0,0E0,0E0,0E0,0E0,3.4019976E0,0E0,0E0,0E0,0E0,3.9598465E0,0E0,0E0,4.2207913E0,6.8996544E0,7.451828E0,0E0,0E0,1.3367767E0,0E0,0E0,0E0,3.0212913E0,1.7777901E0,1.1778717E1,2.971527E0,9.6698E-1,0E0,0E0,0E0,1.8807831E0,0E0,0E0,0E0,0E0,0E0,0E0,1.9533615E0,0E0,0E0,0E0,0E0,0E0,0E0,0E0,0E0,6.146825E0,7.754181E0,0E0,0E0,0E0,8.693213E0,0E0,1.6937485E0,0E0,0E0,5.6160593E0,0E0,0E0,0E0,3.126799E0,1.0245695E0,9.940231E0,0E0,2.751484E-1,0E0,0E0,7.9759645E0,4.7097597E0,7.872787E0,7.2644324E0,0E0,0E0,0E0,6.6918488E0,0E0,0E0,0E0,0E0,0E0,3.5211368E0,0E0,0E0,0E0,0E0,6.736088E0,0E0,8.374137E0,9.612607E0,0E0,0E0,0E0,5.25644E-1,5.5496216E-1,0E0,0E0,9.244543E0,0E0,0E0,1.0409641E0,0E0,1.8103333E0,7.514878E0,0E0,1.2387071E0,0E0,5.201149E-2,7.2544327E0,0E0,0E0,0E0,0E0,0E0,2.8975773E0,0E0,0E0,5.477089E0,0E0,7.226154E0,0E0,0E0,0E0,0E0,1.6710472E0,9.036527E0,4.977909E0,0E0,0E0,0E0,0E0,1.014883E0,0E0,0E0,0E0,1.8938756E0,0E0,0E0,0E0,0E0,0E0,0E0,3.9378357E-1,0E0,3.835287E0,3.127411E0,2.5609016E-1,7.90501E0,4.058838E-1,9.490204E-2,0E0,0E0,3.2474008E0,0E0,0E0,6.278473E0,8.013927E0,9.429249E0,1.0067535E1,0E0,1.9927979E-2,0E0,0E0,0E0,0E0,0E0,0E0,4.854328E0,2.7056704E0,0E0,0E0,6.801272E0,3.0577374E0,0E0,0E0,2.8295636E0,0E0,4.998293E0,6.2280087E0,9.211811E0,5.1282043E0,0E0,0E0,8.942292E0,0E0,3.2567556E0,4.113414E0,0E0,0E0,0E0,0E0,1.3552709E0,1.0648422E0,4.271553E0,0E0,0E0,0E0,0E0,1.7848206E-1,0E0,0E0,0E0,0E0,0E0,0E0,0E0,4.64275E0,0E0,0E0,0E0,0E0,0E0,0E0,0E0,2.7637482E-2,7.220026E0,0E0,0E0,0E0,0E0,0E0,0E0,0E0,0E0,0E0,1.2963028E0,0E0,0E0,1.5664215E0,0E0,0E0,4.085823E0,2.7579796E0,0E0,4.2700195E-1,0E0,9.79538E-2,0E0,0E0,6.3392334E0,0E0,0E0,2.2445805E0,4.152838E0,5.8636894E0,1.2680445E0,0E0,0E0,5.756378E-3,0E0,0E0,0E0,0E0,0E0,0E0,0E0,0E0,0E0,0E0,0E0,4.7615757E0,1.0255091E1,2.7297235E0,8.402958E0,0E0,0E0,4.093399E0,0E0,0E0,0E0,0E0,0E0,0E0,0E0,0E0,0E0,2.9470227E0,6.698147E0,2.5816574E0,1.2638092E-1,0E0,3.0590935E0,1.70443E1,1.1968613E-1,0E0,0E0,6.1760635E0,0E0,0E0,0E0,2.3470306E0,0E0,0E0,0E0,0E0,1.385792E0,3.6102295E-1,0E0,1.2135315E-1,6.7697754E0,7.0627027E0,0E0,0E0,0E0,0E0,3.8874776E0,2.8158226E0,0E0,0E0,0E0,0E0,0E0,0E0,6.259666E0,0E0,0E0,0E0,1.0229679E1,7.1744995E0,0E0,9.020024E0,0E0,0E0,0E0,0E0,0E0,2.260456E0,0E0,0E0,2.8761177E0,0E0,2.6106033E0,0E0,0E0,0E0,7.045088E0,1.40346365E1,1.8035736E0,4.7913017E0,0E0,0E0,3.7179565E-1,0E0,0E0,0E0,2.6950378E0,1.4224487E1,0E0,7.245363E0,0E0,0E0,2.7735138E-1,9.887508E0,1.8004255E0,0E0,6.976066E0,0E0,3.4846153E0,0E0,0E0,8.5203E0,0E0,1.5776367E0,0E0,1.3651695E0,0E0,0E0,7.3743296E0,1.524889E0,0E0,0E0,0E0,1.8528137E0,5.4029517E0,3.3618793E0,1.0372925E-1,1.3606682E0,3.032093E0,0E0,8.90514E0,6.1450806E0,0E0,0E0,0E0,0E0,0E0,0E0,0E0,0E0,0E0,2.4703655E0,0E0,0E0,4.0190363E-1,0E0,0E0,0E0,0E0,1.3495712E0,0E0,0E0,1.914978E-3,0E0,0E0,1.8140869E0,0E0,1.1459014E0,1.7077522E0,0E0,8.6120605E-2,0E0,0E0,0E0,0E0,0E0,2.71118E0,4.5105476E0,5.6770325E0,7.6796875E0,0E0,0E0,0E0,0E0,0E0,0E0,0E0,0E0,1.8894348E0,0E0,0E0,0E0,0E0,0E0,0E0,8.834839E-2,0E0,0E0,0E0,0E0,0E0,5.129425E0,5.3193665E0,1.4328238E-1,2.7734375E-1,0E0,0E0,5.117798E-2,1.3395233E0,0E0,5.4552155E0,0E0,0E0,0E0,3.078766E-1,0E0,0E0,0E0,0E0,0E0,0E0,0E0,0E0,0E0],"parents":[2147483647,0,0,1,1,2,2,3,3,4,4,5,5,6,6,7,7,8,8,9,9,10,10,11,11,12,12,13,13,14,14,15,15,16,16,17,17,18,18,19,19,20,20,21,21,22,22,23,23,24,24,26,26,27,27,28,28,29,29,30,30,31,31,32,32,33,33,34,34,36,36,37,37,38,38,42,42,44,44,47,47,48,48,49,49,50,50,52,52,53,53,55,55,56,56,59,59,60,60,61,61,62,62,63,63,64,64,65,65,66,66,67,67,68,68,69,69,70,70,71,71,72,72,73,73,74,74,75,75,76,76,77,77,78,78,79,79,80,80,85,85,86,86,88,88,89,89,90,90,94,94,95,95,96,96,97,97,98,98,99,99,100,100,101,101,102,102,103,103,104,104,105,105,106,106,108,108,109,109,110,110,111,111,112,112,113,113,114,114,115,115,116,116,117,117,118,118,119,119,121,121,123,123,124,124,125,125,126,126,131,131,135,135,136,136,137,137,138,138,141,141,143,143,144,144,145,145,146,146,147,147,148,148,152,152,153,153,154,154,155,155,156,156,158,158,159,159,160,160,161,161,162,162,163,163,164,164,166,166,167,167,168,168,170,170,171,171,174,174,175,175,176,176,177,177,178,178,181,181,182,182,183,183,184,184,185,185,186,186,187,187,188,188,190,190,193,193,194,194,195,195,196,196,197,197,199,199,200,200,203,203,204,204,206,206,207,207,208,208,209,209,210,210,211,211,212,212,213,213,214,214,216,216,217,217,221,221,222,222,224,224,225,225,226,226,234,234,236,236,238,238,239,239,242,242,249,249,250,250,251,251,253,253,255,255,256,256,257,257,258,258,259,259,260,260,263,263,264,264,265,265,266,266,267,267,268,268,269,269,270,270,271,271,272,272,273,273,274,274,275,275,276,276,277,277,279,279,280,280,281,281,282,282,283,283,284,284,287,287,288,288,289,289,291,291,292,292,294,294,295,295,296,296,302,302,306,306,308,308,309,309,311,311,312,312,316,316,317,317,320,320,321,321,322,322,324,324,325,325,326,326,327,327,328,328,333,333,335,335,339,339,344,344,348,348,349,349,350,350,351,351,353,353,354,354,356,356,360,360,364,364,365,365,366,366,367,367,368,368,371,371,376,376,382,382,383,383,384,384,385,385,386,386,388,388,391,391,392,392,394,394,396,396,397,397,398,398,407,407,409,409,413,413,415,415,416,416,418,418,419,419,421,421,425,425,426,426,427,427,430,430,432,432,433,433,434,434,436,436,437,437,440,440,441,441,442,442,443,443,444,444,445,445,446,446,454,454,459,459,462,462,463,463,464,464,467,467,471,471,472,472,473,473,474,474,475,475,479,479,486,486,495,495,496,496,500,500,502,502,505,505,509,509,510,510,511,511,513,513,516,516,517,517,518,518,519,519,523,523,529,529,534,534,536,536,537,537,541,541,542,542,545,545,548,548,550,550,551,551,553,553,555,555,556,556,562,562,565,565,567,567,572,572,573,573,574,574,579,579,583,583,590,590,592,592,593,593,594,594,595,595,596,596,597,597,600,600,603,603,604,604,605,605,606,606,608,608,615,615,616,616,619,619,620,620,623,623,625,625,626,626,627,627,628,628,631,631,633,633,634,634,639,639,640,640,641,641,646,646,654,654,662,662,663,663,673,673,676,676,679,679,680,680,682,682,684,684,687,687,690,690,691,691,692,692,693,693,696,696,708,708,709,709,710,710,711,711,714,714,724,724,725,725,726,726,727,727,729,729,730,730,731,731,734,734,738,738,743,743,744,744,746,746,747,747,748,748,753,753,754,754,761,761,765,765,766,766,768,768,774,774,777,777,779,779,783,783,784,784,785,785,786,786,789,789,793,793,794,794,796,796,799,799,800,800,801,801,803,803,805,805,808,808,810,810,812,812,815,815,816,816,820,820,821,821,822,822,823,823,824,824,825,825,827,827,828,828,838,838,841,841,846,846,849,849,852,852,854,854,855,855,857,857,863,863,864,864,865,865,866,866,875,875,882,882,888,888,889,889,890,890,891,891,894,894,895,895,897,897,901,901],"right_children":[2,4,6,8,10,12,14,16,18,20,22,24,26,28,30,32,34,36,38,40,42,44,46,48,50,-1,52,54,56,58,60,62,64,66,68,-1,70,72,74,-1,-1,-1,76,-1,78,-1,-1,80,82,84,86,-1,88,90,-1,92,94,-1,-1,96,98,100,102,104,106,108,110,112,114,116,118,120,122,124,126,128,130,132,134,136,138,-1,-1,-1,-1,140,142,-1,144,146,148,-1,-1,-1,150,152,154,156,158,160,162,164,166,168,170,172,174,-1,176,178,180,182,184,186,188,190,192,194,196,198,-1,200,-1,202,204,206,208,-1,-1,-1,-1,210,-1,-1,-1,212,214,216,218,-1,-1,220,-1,222,224,226,228,230,232,-1,-1,-1,234,236,238,240,242,-1,244,246,248,250,252,254,256,-1,258,260,262,-1,264,266,-1,-1,268,270,272,274,276,-1,-1,278,280,282,284,286,288,290,292,-1,294,-1,-1,296,298,300,302,304,-1,306,308,-1,-1,310,312,-1,314,316,318,320,322,324,326,328,330,-1,332,334,-1,-1,-1,336,338,-1,340,342,344,-1,-1,-1,-1,-1,-1,-1,346,-1,348,-1,350,352,-1,-1,354,-1,-1,-1,-1,-1,-1,356,358,360,-1,362,-1,364,366,368,370,372,374,-1,-1,376,378,380,382,384,386,388,390,392,394,396,398,400,402,404,-1,406,408,410,412,414,416,-1,-1,418,420,422,-1,424,426,-1,428,430,432,-1,-1,-1,-1,-1,434,-1,-1,-1,436,-1,438,440,-1,442,444,-1,-1,-1,446,448,-1,-1,450,452,454,-1,456,458,460,462,464,-1,-1,-1,-1,466,-1,468,-1,-1,-1,470,-1,-1,-1,-1,472,-1,-1,-1,474,476,478,480,-1,482,484,-1,486,-1,-1,-1,488,-1,-1,-1,490,492,494,496,498,-1,-1,500,-1,-1,-1,-1,502,-1,-1,-1,-1,-1,504,506,508,510,512,-1,514,-1,-1,516,518,-1,520,-1,522,524,526,-1,-1,-1,-1,-1,-1,-1,-1,528,-1,530,-1,-1,-1,532,-1,534,536,-1,538,540,-1,542,-1,-1,-1,544,546,548,-1,-1,550,-1,552,554,556,-1,558,560,-1,-1,562,564,566,568,570,572,574,-1,-1,-1,-1,-1,-1,-1,576,-1,-1,-1,-1,578,-1,-1,580,582,584,-1,-1,586,-1,-1,-1,588,590,592,594,596,-1,-1,-1,598,-1,-1,-1,-1,-1,-1,600,-1,-1,-1,-1,-1,-1,-1,-1,602,604,-1,-1,-1,606,-1,608,-1,-1,610,-1,-1,-1,612,614,616,-1,618,-1,-1,620,622,624,626,-1,-1,-1,628,-1,-1,-1,-1,-1,630,-1,-1,-1,-1,632,-1,634,636,-1,-1,-1,638,640,-1,-1,642,-1,-1,644,-1,646,648,-1,650,-1,652,654,-1,-1,-1,-1,-1,656,-1,-1,658,-1,660,-1,-1,-1,-1,662,664,666,-1,-1,-1,-1,668,-1,-1,-1,670,-1,-1,-1,-1,-1,-1,672,-1,674,676,678,680,682,684,-1,-1,686,-1,-1,688,690,692,694,-1,696,-1,-1,-1,-1,-1,-1,698,700,-1,-1,702,704,-1,-1,706,-1,708,710,712,714,-1,-1,716,-1,718,720,-1,-1,-1,-1,722,724,726,-1,-1,-1,-1,728,-1,-1,-1,-1,-1,-1,-1,730,-1,-1,-1,-1,-1,-1,-1,732,734,-1,-1,-1,-1,-1,-1,-1,-1,-1,736,-1,-1,738,-1,-1,740,742,-1,744,-1,746,-1,-1,748,-1,-1,750,752,754,756,-1,-1,758,-1,-1,-1,-1,-1,-1,-1,-1,-1,-1,-1,760,762,764,766,-1,-1,768,-1,-1,-1,-1,-1,-1,-1,-1,-1,770,772,774,776,-1,778,780,782,-1,-1,784,-1,-1,-1,786,-1,-1,-1,-1,788,790,-1,792,794,796,-1,-1,-1,-1,798,800,-1,-1,-1,-1,-1,-1,802,-1,-1,-1,804,806,-1,808,-1,-1,-1,-1,-1,810,-1,-1,812,-1,814,-1,-1,-1,816,818,820,822,-1,-1,824,-1,-1,-1,826,828,-1,830,-1,-1,832,834,836,-1,838,-1,840,-1,-1,842,-1,844,-1,846,-1,-1,848,850,-1,-1,-1,852,854,856,858,860,862,-1,864,866,-1,-1,-1,-1,-1,-1,-1,-1,-1,868,-1,-1,870,-1,-1,-1,-1,872,-1,-1,874,-1,-1,876,-1,878,880,-1,882,-1,-1,-1,-1,-1,884,886,888,890,-1,-1,-1,-1,-1,-1,-1,-1,892,-1,-1,-1,-1,-1,-1,894,-1,-1,-1,-1,-1,896,898,900,902,-1,-1,904,906,-1,908,-1,-1,-1,910,-1,-1,-1,-1,-1,-1,-1,-1,-1],"split_conditions":[2.8550273E-4,5.432716E-4,2.4962599E1,2.3648798E0,3.1679904E-4,1.0761946E-4,1.7104447E-3,8.9E0,-5.1049347E-4,1E0,7.037037E-1,6.758155E0,-5.7874517E0,-3.4782608E-4,-4.9357522E-1,1.5381695E-4,8.904719E-5,-5.2226234E1,-2.919414E-4,1.8491434E-4,6.654098E-4,2.6229507E-1,2.8129396E-4,2.2129521E0,1.7647058E-4,-1.2106353E-1,3.469388E-1,8.1E0,6.3176445E1,6.3E0,-5.335921E-4,-2.1180458E-4,4.4011544E-2,-4.0993208E-4,1.4740017E-7,-1.4676978E-1,1.7376902E-3,8.969923E-4,1E0,-1.6565602E-1,9.253223E-2,-1.2565711E-1,-3.3338278E-4,-1.2805362E-2,1.58E1,-1.0914868E-1,5.032241E-2,1.2135401E0,-1.5819296E-2,-2.5559223E-1,2.82E1,-1.16166495E-1,4.20765E-1,1.591449E1,-1.2997864E-1,2.18107E-1,-4.1368185E-4,6.3274585E-2,-1.2563153E-1,-3.678161E-1,1.2582782E-1,2E0,-7.7011275E-1,8.3481165E-4,-1.4105535E-4,8.4375E-1,2.84143E-2,2E0,-1.0289635E-2,1.3348927E1,8.192082E-2,4.1815066E0,-4.6570112E-5,-1.7210571E-2,-2.1506427E-3,1.6543509E-3,2.1E0,2E0,5.7831323E-1,4.932981E-3,-2.7024176E-4,2.2287851E-2,1.2769322E-1,1.12758994E-1,-1.5511325E-1,2.7094397E-4,1E0,-1.045689E-1,3.4231227E-4,7.5143576E-4,3.69863E-1,5.1374312E-2,-1.6084859E-1,-1.1405468E-1,-5.49179E-4,1.07E1,3.208101E-3,3.372974E-5,1.8953115E-3,3.4523575E-4,7.2656816E-4,-2.3025341E-4,5.2183914E-8,2.2139946E-4,1.0360213E-3,5E0,7.1910113E-1,-1.6575402E-1,-1.0784162E-3,1.0536419E0,1E0,5.82645E-3,2.265647E-4,1.0027288E0,-6.484273E-4,-5.5715274E-2,5.6307285E1,1.6278531E-2,-3.179058E-1,8.8E0,-1.4679733E-1,1.6256502E-3,-1.14069834E-1,8.904719E-5,4.137548E1,2.6343377E0,6.2E1,-1.07306994E-1,5.226281E-2,5.393636E-3,1.7059119E-1,6.5E0,2.5958784E-3,5.1266372E-2,1.1169127E-4,1.59E1,2E0,5.3658535E1,-1.22726575E-1,-1.1204286E-1,5.328421E-2,7.615924E1,1.6477607E-1,1.7712502E-4,4.748494E-1,2E0,-6.8627454E-2,-1.0268002E0,-8.7300665E-4,1.4037319E-1,2.2105495E-2,-1.3386638E-1,1.1165136E0,-8.334125E-3,3.3E0,7.1276593E-1,2.848753E-4,1.1565039E-1,4.883721E-1,4.971661E-4,1.3321493E-3,5.452004E-1,-1.3669065E-1,5.5E0,1E0,1.298928E-1,7.8324265E1,-1.9293233E-5,-1.3887511E-3,-1.4274429E-1,-3.0517267E-4,-4.8251748E-1,5.214117E-2,-1.5816893E-1,7.8138127E-4,1E0,1.2019342E-4,1.08E1,5.649717E-3,-1.2087343E-2,1.1098119E-1,5.18E1,-2.1041399E-1,-3.6011904E-1,-7.5024074E-1,2.38E1,-3.0927835E-3,-1.8125629E-3,1.2197455E-3,-1.5841185E-1,-7.533317E-1,-1.09504096E-1,1.4968662E-1,2.48E1,1.3821763E-1,2.3108922E-4,2.9746836E-1,1.7310023E-4,1.3601032E-1,9.905043E-4,5.0667115E-4,1.3632677E-1,2.8360322E-2,-8.3760686E-2,-1.0072939E-1,5.6148093E-2,9.195402E-1,3.3E0,2.2926994E-3,-1.4084507E-2,1.11E1,-4.6930014E-4,-6.508895E-3,-1.3072777E-1,-3.2772557E-4,-1.6104107E-1,-6.508895E-3,1.7101923E-3,-1.0755461E-1,-2.8532749E-2,1.1984303E-1,5.6501487E-3,1.0231342E-3,-1.5771663E-2,4E1,3.6559547E1,6.4E0,-1.1045082E-1,5.1090892E-2,8.8359475E-2,-1.58047E-1,-9.4577896E-5,1.2933385E-1,-1.0137283E-3,-1.2767693E0,-1.11697175E-1,-2.1506427E-3,6.9254264E-3,3.1953194E0,1.34E1,-1.0429992E-2,-1.4439397E-1,4.2368393E-4,5.7907026E-2,-1.5456966E-1,-1.1136975E-1,5.6195345E-2,1.5505011E-1,-5.898689E-3,3.8E0,1.22E1,-3.782514E-3,-1.3400844E-1,-2.0866187E-3,-1.6948694E-1,-8.199133E-1,-1.9243987E-1,3.1219513E2,5.265652E-5,1.2145749E0,6.3E0,5.548172E-2,-1.6665067E-1,-9.434096E-2,2.3E0,6.2E0,1.8519121E0,6.1929053E-1,2E0,-2.1349362E-1,1E0,-1.2215628E-1,9.7E0,-1.96443E-1,1.9102238E0,1.7376902E-3,1.2489384E-3,2.6259333E-1,5.247904E-2,1.0879026E-3,-2.6829268E1,1E0,-2.384385E-4,-1.9140452E0,6.9923718E-3,-1.6896679E-1,5.9388954E-2,4.3504414E-4,2.8949147E-4,2E0,-1.2440363E-1,-4.973608E-4,-4.1368185E-4,-1.3200234E-1,2.2901049E1,1.17E1,-1.3897113E0,-1.1049441E-1,5.077241E-2,-1.5091863E-1,5.6988973E-2,-1.0549801E-1,3.3597717E-1,-1.18128315E-1,5.33023E-2,3.189094E-2,2.1569746E1,-1.2173434E-1,3E0,-3.191042E-1,-1.5867282E-1,6.7E0,2.5325004E-4,-1.661252E-1,5.320501E-2,-1.2712777E-1,-2.3608291E-4,8.057432E-2,9.1548234E-2,-1.1428515E-1,-1.0760442E-3,-4.0131375E-1,5.520241E-3,1.09166935E-1,-3.7366986E0,-8.850064E-3,1E0,2.1E0,2.18E1,1.3483766E-1,2.7450291E-2,1.191568E-1,6.325376E-3,5.432716E-4,-2.449242E-2,-4.9823127E-4,-1.1076033E-1,-1.4535704E-1,1.1506163E-1,7.323232E-2,2.2996014E-2,-1.2306054E-1,1.1004404E-1,-1.1072045E-2,-4.879032E1,6.2463183E-2,1.5495567E-1,-3.119255E-2,1.32E1,5.01E1,-1.3881899E0,-5.7653502E-5,-1.9350507E-3,-1.6074249E-1,1E0,3.2627277E-2,4.6E0,6.5644095E-3,1.1778785E-1,-1.0923102E-1,2.2929937E-3,-1.0929432E-1,1.1597035E-1,-1.5380917E-1,4.2E0,6.104421E-2,2.7953814E1,-7.57334E-4,1.0851283E-4,-1.09863855E-1,1.3633552E-1,-1.5698587E-4,-1.4486368E-1,-1.5993983E-1,4.82067E-2,-2.9223142E-2,2.9913252E-4,5.094604E-2,-1.281475E-1,-1.05575256E-1,5.617813E-2,-1.7987749E-1,4.6855345E-1,-4.554974E1,-6.807871E-1,-1.12580914E-4,-5.0127826E-5,-1.0304812E-1,-6.807871E-1,-1.3583283E-1,5.1788986E-2,1.291313E-3,1.737284E-3,8.879837E-2,3.744719E-1,-1.1887723E-1,-8.375209E-4,1.0156235E0,-4.4135007E-1,5.609588E-2,-1.4579688E-1,1.3979578E-1,-1.1114097E-1,-8.901088E-3,-1.7798476E-1,1.3557269E-1,-1.0904964E-1,-7.101552E-3,-1.6740069E-1,-5.3995156E-1,-1.3638479E-1,6.254108E-3,1.6649273E-1,-1.5187145E-3,1.5609185E-1,2.2377622E-1,-3.9004377E-1,-1.5463342E-1,1.6024305E0,-4.651171E-3,1.5227662E-1,1.8378256E1,-1.0775315E-1,5.267492E-2,-1.5678392E-1,1.460285E-3,3.07E1,1.7638768E0,-1.1281206E-1,-1.949122E-2,4.1E0,-1.1428942E-1,-8.8683056E-4,-8.1928837E-4,8.47165E-1,4.836524E-2,-5.72973E1,1.930176E-4,-1.608171E-2,-1.5123293E-1,5.0660074E-1,-1.5834408E-1,1E0,-7.6521397E0,1E0,4.784689E-5,-1.5659956E0,5.3437453E-2,-1.6562006E-1,1.6017777E-1,-1.6458498E-2,2.1150006E-2,1.7202906E-1,-1.093828E-1,6.7898136E-4,5.2422166E-2,-1.4845319E-1,-1.2545577E-1,1.1708112E-1,1E0,2.4400156E-2,-1.0369145E-1,-1.5659956E0,2.2045454E2,4.8565382E-1,1.5540622E-1,2.7058413E-2,-5.0815876E-4,-1.385244E-2,1.6881889E-1,2.4600737E-2,-6.144104E-1,3.8059703E-1,-2.7702472E-3,1.11E1,-2.9127726E-1,4.747044E-2,-1.869977E-2,1.1684507E-1,5.9790883E-2,4.3121697E-3,1.1491694E-1,-1.08672656E-1,2.3126258E-2,1.5948163E-1,5.1472086E-2,7.3E0,1.5710722E-1,2.6941894E-2,7.2990814E-3,5.7234764E-2,1.6602008E-1,3.7655316E-2,5.3404827E-2,-1.041941E-1,-8.049412E-4,8.8125E-1,1.2025478E-1,-1.0531892E-1,-1.2132402E-1,1.3744906E-1,6.7559504E-3,6.2E0,5.617813E-2,-1.3100514E-1,-5.1269035E1,-1.6771498E-1,9.110045E-3,1.21211044E-1,1.0971475E-3,-9.0140283E-1,7.2E0,1.1908256E-1,4.310246E-1,-2.5958732E-2,-1.12924956E-1,1E0,2E0,-5.2231445E-4,8.8462705E-4,-1.678221E-1,7.235399E-3,1.2798761E-1,1.1267891E0,5.526781E-2,8.972931E-2,-1.1011143E-1,-2.496784E-2,1.1659407E-1,-4.0921498E-2,-1.01663485E-1,5.3594023E-2,-1.0297903E-1,6.686398E-2,-3.611004E-1,-1.4579384E-1,5.0395605E-4,1.7802042E-4,1.258428E-1,-1.013142E-1,5.595023E-2,2.36E1,1.653348E-4,5.6389082E-2,-1.5287153E-1,2E0,-1.0618402E-1,-1.1410042E-2,5.197368E-1,2.0886017E-2,-1.180185E-3,-1.5894742E-3,1.4871202E-1,2.4737208E-1,-1.2853692E-1,6.6577895E-3,5.749109E-5,4.8885204E-2,1.7296624E-1,1.461473E-1,2.8979955E-2,-2.6803939E-2,-1.2680702E-3,5.7940938E-2,4.8705298E-3,9.609869E-1,2.7314901E-2,-1.7446933E-4,-1.578751E-1,1.3912724E-1,-1.0139054E-1,-2.5186187E-2,1.14E1,2.0716124E-4,2.0957598E-3,-1.2653318E-3,1.5985624E-1,-1.7939666E-1,-2.3930607E-2,2.0595412E-1,-2.8060809E-2,-1.7378329E-1,5.1659435E-2,6.0606062E-2,-1.13444686E-1,1.6059323E-1,2.7546883E-2,1.2570262E-1,-2.595823E-2,2.590402E-2,1.503456E0,-1.2927529E-1,5.9820134E-3,-3.545695E0,1.0851283E-4,3.8727108E-1,1.8987873E-8,6.9E0,2.338926E-2,-1.7673557E-1,6.3689356E-4,-1.07150674E-1,1.1846181E-1,8.8E0,-5.3002597E-5,4.1428572E-1,-8.199133E-1,2.63343E-2,4E0,-1.0083312E-1,1.1511972E-1,-1.1680751E-1,5.236868E-2,1.4904022E-1,2.6768288E-2,1.62E1,2.0414673E1,1.7328678E-1,6.79427E-2,-2.2644164E-1,5.4917855E-5,-1.6059159E-1,2.6622081E-2,-1.5766239E-3,1.5370218E-1,1.9424455E-1,2.602402E-1,1.1165136E0,1.1764706E-1,-1.0208989E-2,1.4587551E-1,-5.8976753E-4,-1.7392455E-1,-3.5620052E-1,-1.7210571E-2,1.1511115E-1,-1.3580006E-1,5.9246104E-2,-9.964324E-3,9.8E0,-2.6220476E-4,4.1E0,-1.0541059E-1,1.52002E-1,2.6428161E-2,2.602551E-2,3.43E1,1.0948129E-1,-1.1558075E-1,1.2127369E-1,5.372304E-3,1.6258869E-1,4.6985112E-2,-1.0781316E-1,7.789597E-1,1.5683562E-1,6.074718E-3,-1.7843781E-1,8.265406E-3,-1.1558839E-1,1.1634102E-1,2.3755353E-2,2.9596314E-3,3E0,-1.18041016E-1,-1.4968161E-1,5.187903E-2,1.528043E-1,2.6399264E-2,1.407037E-1,4.8880153E-3,1.7794949E-1,6.949742E-2,4.6339806E-4,-1.7716624E-2,1.5909761E-3,-3.114705E-3,4.719187E-2,-4.0968023E-3,1E0,-3.1734318E-1,6.224076E-2,1.41E1,4.939113E-2,-1.3588137E-2,5.226281E-2,-1.2044815E-1,1.7262964E0,5.8112293E-2,-1.3284574E-1,3E0,1.323558E-1,1.6816399E-1,7.4323075E-4,-1.4000623E-1,5.1509697E-2,1.1905854E-3,-1.6249283E-1,2.6760269E-2,-2.5698245E-2,1.1741286E-1,-1.24304354E-1,9.153229E-2,1.614434E-1,6.282754E-3,-1.10641755E-1,5.236868E-2,5.2722674E-2,-1.3198926E-3,1.7891999E-1,6.7916507E-1,1.14E1,7.3603444E-2,9.7958855E-3,1.3332102E0,-1.2834074E-1,1.2002068E-1,5.1242378E-2,-1.2211777E-1,-9.968823E-3,1.5194981E-1,1.1632388E-1,-6.823474E-4,1.7513901E-1,1.26E1,2.0595412E-1,9.7E0,-3.6689334E-4,4.873351E-2,1.3647996E-3,-1.17590636E-1,-4.281266E-1,5.006603E-2,-1.03188716E-1,-5.2325886E-5,2.1636432E-2,1.4869191E-1,1.9853173E-2,1E0,1.6814154E-1,-4.0968023E-3,5.087003E-2,-1.1372631E-1,2.826087E-1,6.9186044E-1,5.0346274E-2,-1.0508168E-3,-1.6649401E-1,3.2011708E-4,1.291697E-1,-1.0199937E-2,6.581912E-2,-1.246115E-1,5.4162378E-5,1E0,1.2181493E-1,4.9677E-3,5.3335853E-2,1.7781007E-1,2.407879E-2,-1.6341937E-1,-8.762887E0,-1.5038049E-1,1.353375E-1,-1.0717853E-2,-6.048024E-1,8.175697E1,-1.8106729E-1,-2.0857987E-3,1.3662063E-1,-1.3796779E-2,-1.1270952E-1,1.15932465E-1,5.2578454E-3,-4.8393005E-1,5.0890047E-2,1.7701499E-1,1.2E1,-3.6905394E-3,4.5522067E-4,-1.4252771E-1,5.0375003E-2,1.7642425E-1,5.0658905E1,1.1457944E0,-1.1135268E-3,-8.163265E-2,1.1986138E-1,7.598505E-4,4.6E1,6.379984E-2,1.766607E-1,5.0866295E-2,1.2217024E-1,-1.3305455E-1,-1.3661872E-1,-2.483115E-4,6.7599036E-2,-1.0492142E-1,-3.0517267E-4,1.2857602E-3,-1.3371307E-2,-1.0497496E-1,-6.818105E-2,-1.4805424E-1,-1.4556785E0,5.9444558E-2,-1.6288774E-1,5.82645E-3,1.5342781E-2,5.7833557E-5,2.1656842E-3,-4.2592594E1,3.7911863E-3,1.5384892E-1,2.11E1,3.1343284E-1,-1.3652788E-1,1.4298777E-1,2.2948597E-2,-5.064378E-1,1.9822588E-4,1E0,1E0,-7.5024074E-1,6.5254235E-1,-1.8016274E-1,-2.7412281E1,-5.0761423E0,1.3252081E-1,-1.01482E-1,1.7658743E-1,6.964794E-2,-1.1251583E-1,1.3310282E-1,5.571637E-3,1.3854402E-1,-1.1076766E-1,7.166112E-1,-2.5064114E-2,-1.7541395E-1,-1.5143867E-4,-1.23232104E-1,1.5891144E-1,2.4036614E-2,2.6149435E-2,1.6111538E-3,-1.189984E-1,1.1523445E-1,5.145416E-1,2.7716672E-2,4.807851E-2,1.3468349E-3,-1.1726288E-1,4.0440806E-4,5.919866E-1,-4.289523E-3,-6.869267E0,4.719187E-2,2.2835943E-3,1.2122005E-1,-1.154045E-1,5.3460862E-2,-4.3625325E-1,1.8618618E-1,-1.5814302E0,1E0,1.2789796E-1,-6.6252137E-3,1.264128E-1,2.7511084E-2,1.699898E-1,3.1912684E-2,1.7367832E-1,5.1826354E-2,2.0833333E2,2.6427424E-2,4.399483E-3,1.1533117E-1,2.178133E-2,1.6169423E-1,6.950273E-2,-1.9573303E-2,-8.861524E-3,1.3750775E-1,5.1055845E-2,-1.4245276E-1,2.3049546E-2,7.6273865E-1,8.518519E-1,-1.4352281E-5,1.8E1,2.6750555E-2,6.972494E-2,3.185479E-3,3.2E0,5.0157714E-3,1.8987873E-8,5.6085706E-2,5.3693343E-2,7.5251753E-3,-7.6725325E-3,4.719187E-2,1.641142E-1,4.889491E-2,-7.815153E-2,-1.7977689E-1,-9.433424E-2,-1.489049E-1,4.719187E-2,1.754655E-1],