{"learner":{"attributes":{},"feature_names":[],"feature_types":[],"gradient_booster":{"model":{"gbtree_model_param":{"num_parallel_tree":"1","num_trees":"8"},"iteration_indptr":[0,1,2,3,4,5,6,7,8],"tree_info":[0,0,0,0,0,0,0,0],"trees":[{"base_weights":[-1.7517421E-7,-1.7726262E0,7.041152E-1,-1.9388185E-1,1.2939705E-1,-8.3100635E-1,1.0506052E0,-1.8144767E-1,3.953511E-1,1.2749101E0,-1.5024196E-1,9.069588E-1,-1.264621E-1,-4.5648098E-1,1.3450725E0,-1.5196787E-1,3.666748E-1,1.4888768E-1,-3.4392276E-1,6.1150577E-2,-1.19235516E-1,1.4083463E0,-3.4392276E-1,-4.6867877E-1,1.0877831E0,-1.1040306E-1,6.1150577E-2,3.1958153E-3,1.4819507E-1,-1.1040306E-1,6.1150577E-2,-1.457331E-1,7.968158E-2,1.3916413E-1,1.211743E-2],"categories":[],"categories_nodes":[],"categories_segments":[],"categories_sizes":[],"default_left":[0,0,0,0,0,0,0,0,0,0,0,0,0,0,1,0,0,0,0,0,0,0,0,0,1,0,0,0,0,0,0,0,0,0,0],"id":0,"left_children":[1,3,5,-1,-1,7,9,-1,11,13,15,17,-1,19,21,-1,23,-1,25,-1,-1,27,29,31,33,-1,-1,-1,-1,-1,-1,-1,-1,-1,-1],"loss_changes":[1.878989E2,2.4320724E1,5.8183407E1,0E0,0E0,2.5320555E1,2.3988174E1,0E0,9.554271E0,9.669884E0,1.1033522E1,6.4443183E0,0E0,3.5975962E0,8.167938E0,0E0,7.4670553E0,0E0,3.1442275E0,0E0,0E0,6.993271E0,3.1442275E0,8.730327E0,1.7404318E0,0E0,0E0,0E0,0E0,0E0,0E0,0E0,0E0,0E0,0E0],"parents":[2147483647,0,0,1,1,2,2,5,5,6,6,8,8,9,9,10,10,11,11,13,13,14,14,16,16,18,18,21,21,22,22,23,23,24,24],"right_children":[2,4,6,-1,-1,8,10,-1,12,14,16,18,-1,20,22,-1,24,-1,26,-1,-1,28,30,32,34,-1,-1,-1,-1,-1,-1,-1,-1,-1,-1],"split_conditions":[-3.2631762E-2,2.446476E-2,-2.4740736E-3,-1.9388185E-1,1.2939705E-1,-1.3757087E0,7.365977E-2,-1.8144767E-1,2.2797968E6,3.0732134E-1,2.0548553E0,-5.409444E-3,-1.264621E-1,2.1529999E0,7.118346E-1,-1.5196787E-1,8.431758E-3,1.4888768E-1,-5.880601E-1,6.1150577E-2,-1.19235516E-1,5.3106755E-1,1.2853E1,3.0526504E-2,1.455187E0,-1.1040306E-1,6.1150577E-2,3.1958153E-3,1.4819507E-1,-1.1040306E-1,6.1150577E-2,-1.457331E-1,7.968158E-2,1.3916413E-1,1.211743E-2],"split_indices":[18,15,15,0,0,10,18,0,17,25,9,6,0,3,0,0,15,0,12,0,0,23,1,5,23,0,0,0,0,0,0,0,0,0,0],"split_type":[0,0,0,0,0,0,0,0,0,0,0,0,0,0,0,0,0,0,0,0,0,0,0,0,0,0,0,0,0,0,0,0,0,0,0],"sum_hessian":[1.4854393E2,4.1798294E1,1.0674564E2,3.9998367E1,1.7999265E0,1.9399208E1,8.7346436E1,1.0499571E1,8.899636E0,7.3547E1,1.3799437E1,7.1497083E0,1.7499286E0,2.6498919E0,7.08971E1,3.2498672E0,1.0549569E1,4.749806E0,2.399902E0,1.149953E0,1.4999387E0,6.84972E1,2.399902E0,5.0497937E0,5.4997754E0,1.249949E0,1.149953E0,3.549855E0,6.494735E1,1.249949E0,1.149953E0,2.7498877E0,2.299906E0,3.8498428E0,1.6499326E0],"tree_param":{"num_deleted":"0","num_feature":"32","num_nodes":"35","size_leaf_vector":"1"}},{"base_weights":[-2.1461188E-3,-1.6136987E0,6.345323E-1,-1.7685974E-1,1.2134834E-1,-7.186611E-1,9.706237E-1,-1.4752605E0,4.524666E-1,1.1010662E0,-1.0016245E0,-1.6933201E-1,-2.1109091E-2,-7.180687E-1,1.2360946E0,-1.2832417E-1,1.1692843E0,6.0011055E-2,-1.5164655E-1,-1.3891731E-1,6.2828176E-2,2.8209612E-2,1.464648E-1,-1.765389E-1,1.243522E0,-1.3507456E-1,1.249841E-1,1.3268223E-1,-1.9014372E-2],"categories":[],"categories_nodes":[],"categories_segments":[],"categories_sizes":[],"default_left":[0,0,0,0,0,0,0,0,0,0,0,0,0,0,0,0,0,0,0,0,0,0,0,0,0,0,0,0,0],"id":1,"left_children":[1,3,5,-1,-1,7,9,11,13,15,17,-1,-1,19,21,-1,23,-1,-1,-1,-1,-1,-1,25,27,-1,-1,-1,-1],"loss_changes":[1.5351312E2,2.0701027E1,4.9474155E1,0E0,0E0,2.008347E1,2.3314339E1,3.3769379E0,9.478236E0,1.4749733E1,5.7586327E0,0E0,0E0,4.8376665E0,8.901262E-1,0E0,8.183907E0,0E0,0E0,0E0,0E0,0E0,0E0,1.0134558E1,9.289345E0,0E0,0E0,0E0,0E0],"parents":[2147483647,0,0,1,1,2,2,5,5,6,6,7,7,8,8,9,9,10,10,13,13,14,14,16,16,23,23,24,24],"right_children":[2,4,6,-1,-1,8,10,12,14,16,18,-1,-1,20,22,-1,24,-1,-1,-1,-1,-1,-1,26,28,-1,-1,-1,-1],"split_conditions":[-3.2631762E-2,2.446476E-2,-2.3576725E0,-1.7685974E-1,1.2134834E-1,5.074434E-4,1.3345008E-1,1.9330187E-3,-6.4681375E-1,-1.9797018E-1,-8.2891655E-1,-1.6933201E-1,-2.1109091E-2,-4.640679E-3,-2.5085732E-1,-1.2832417E-1,5.3106755E-1,6.0011055E-2,-1.5164655E-1,-1.3891731E-1,6.2828176E-2,2.8209612E-2,1.464648E-1,5.213478E1,-1.6715009E-3,-1.3507456E-1,1.249841E-1,1.3268223E-1,-1.9014372E-2],"split_indices":[18,15,10,0,0,15,18,4,21,19,7,0,0,6,7,0,23,0,0,0,0,0,0,11,6,0,0,0,0],"split_type":[0,0,0,0,0,0,0,0,0,0,0,0,0,0,0,0,0,0,0,0,0,0,0,0,0,0,0,0,0],"sum_hessian":[1.4761905E2,4.1369785E1,1.0624926E2,3.957589E1,1.793895E0,2.0912338E1,8.533692E1,1.2546842E1,8.365498E0,8.0457275E1,4.879647E0,1.041147E1,2.135372E0,3.388149E0,4.977348E0,1.7425356E0,7.871474E1,1.1466507E0,3.7329957E0,2.2398586E0,1.1482904E0,1.3937988E0,3.5835493E0,4.042999E0,7.467174E1,2.2466033E0,1.7963955E0,7.064177E1,4.029972E0],"tree_param":{"num_deleted":"0","num_feature":"32","num_nodes":"29","size_leaf_vector":"1"}},{"base_weights":[-4.0931716E-3,-1.4918163E0,5.757838E-1,-1.6389513E-1,1.1437719E-1,-7.3028505E-1,8.689391E-1,-1.5662423E-1,3.0163607E-1,1.0638496E0,-1.6845578E-1,7.700046E-1,-1.1876913E-1,-2.2751333E-1,1.1416492E0,8.5206914E-1,-7.1408457E-1,-3.597371E-1,1.3054363E-1,-1.1957061E-1,6.51196E-2,1.2008128E0,-3.671292E-1,-7.023677E-3,1.3420503E-1,-1.566944E-1,7.4114275E-1,5.2967507E-2,-1.0436901E-1,4.3949825E-3,1.2645526E-1,-1.0910269E-1,5.661663E-2,4.5923586E-3,1.13428585E-1],"categories":[],"categories_nodes":[],"categories_segments":[],"categories_sizes":[],"default_left":[0,0,0,0,0,0,0,0,0,0,0,0,0,0,1,0,0,0,0,0,0,0,0,0,0,0,0,0,0,0,0,0,0,0,0],"id":2,"left_children":[1,3,5,-1,-1,7,9,-1,11,13,15,17,-1,19,21,23,25,27,-1,-1,-1,29,31,-1,-1,-1,33,-1,-1,-1,-1,-1,-1,-1,-1],"loss_changes":[1.2716215E2,1.7905365E1,4.1245247E1,0E0,0E0,1.7713558E1,1.7786644E1,0E0,7.7389154E0,7.6383896E0,8.758434E0,5.338682E0,0E0,5.0384603E0,6.6390457E0,2.6046853E0,1.3673328E1,2.6041925E0,0E0,0E0,0E0,4.888588E0,2.9052525E0,0E0,0E0,0E0,1.1516252E0,0E0,0E0,0E0,0E0,0E0,0E0,0E0,0E0],"parents":[2147483647,0,0,1,1,2,2,5,5,6,6,8,8,9,9,10,10,11,11,13,13,14,14,15,15,16,16,17,17,21,21,22,22,26,26],"right_children":[2,4,6,-1,-1,8,10,-1,12,14,16,18,-1,20,22,24,26,28,-1,-1,-1,30,32,-1,-1,-1,34,-1,-1,-1,-1,-1,-1,-1,-1],"split_conditions":[-3.2631762E-2,2.446476E-2,-2.4740736E-3,-1.6389513E-1,1.1437719E-1,-1.3757087E0,7.365977E-2,-1.5662423E-1,2.2797968E6,3.9668015E-1,-8.2891655E-1,1.4184551E0,-1.1876913E-1,-6.47755E6,7.118346E-1,5.9761543E0,1.7884958E1,-1.821322E-2,1.3054363E-1,-1.1957061E-1,6.51196E-2,5.3106755E-1,-7.45217E6,-7.023677E-3,1.3420503E-1,-1.566944E-1,9.451982E-2,5.2967507E-2,-1.0436901E-1,4.3949825E-3,1.2645526E-1,-1.0910269E-1,5.661663E-2,4.5923586E-3,1.13428585E-1],"split_indices":[18,15,15,0,0,10,18,0,17,25,7,23,0,16,0,10,10,4,0,0,0,23,16,0,0,0,18,0,0,0,0,0,0,0,0],"split_type":[0,0,0,0,0,0,0,0,0,0,0,0,0,0,0,0,0,0,0,0,0,0,0,0,0,0,0,0,0,0,0,0,0,0,0],"sum_hessian":[1.4540515E2,4.0339115E1,1.0506604E2,3.8564358E1,1.7747583E0,1.898642E1,8.607962E1,1.0203109E1,8.78331E0,7.244316E1,1.36364565E1,7.0493827E0,1.7339275E0,4.0070763E0,6.843609E1,4.5551105E0,9.0813465E0,2.3722203E0,4.6771626E0,1.7348286E0,2.2722476E0,6.6050186E1,2.3859003E0,1.8775663E0,2.677544E0,5.677303E0,3.4040434E0,1.129277E0,1.2429433E0,3.537367E0,6.251282E1,1.2485076E0,1.1373925E0,1.6330433E0,1.7710001E0],"tree_param":{"num_deleted":"0","num_feature":"32","num_nodes":"35","size_leaf_vector":"1"}},{"base_weights":[-5.1273564E-3,-1.3953038E0,5.272518E-1,-1.5370582E-1,1.0826907E-1,-6.3883734E-1,8.151569E-1,-1.3033797E0,3.738671E-1,9.2671484E-1,-8.671827E-1,-2.2885779E-1,-1.5142222E-1,8.270113E-1,-1.18379675E-1,-1.1764171E-1,9.885142E-1,-1.3335524E-1,5.5661786E-2,-8.985172E-2,5.7124555E-2,1.3665223E-1,-2.7624387E-1,1.0390024E0,-4.3726736E-1,6.3715205E-2,-1.0300779E-1,-1.6828164E-2,1.108915E-1,-1.1722802E-1,5.3803135E-2],"categories":[],"categories_nodes":[],"categories_segments":[],"categories_sizes":[],"default_left":[0,0,0,0,0,0,0,0,0,0,0,0,0,0,0,0,1,0,0,0,0,0,0,0,0,0,0,0,0,0,0],"id":3,"left_children":[1,3,5,-1,-1,7,9,11,13,15,17,19,-1,21,-1,-1,23,-1,-1,-1,-1,-1,25,27,29,-1,-1,-1,-1,-1,-1],"loss_changes":[1.0662191E2,1.5676895E1,3.5495678E1,0E0,0E0,1.4747092E1,1.6566547E1,2.602415E0,7.4532804E0,1.14631195E1,4.553513E0,2.2884717E0,0E0,4.957124E0,0E0,0E0,6.03537E0,0E0,0E0,0E0,0E0,0E0,2.9689379E0,6.5317307E0,3.0360186E0,0E0,0E0,0E0,0E0,0E0,0E0],"parents":[2147483647,0,0,1,1,2,2,5,5,6,6,7,7,8,8,9,9,10,10,11,11,13,13,16,16,22,22,23,23,24,24],"right_children":[2,4,6,-1,-1,8,10,12,14,16,18,20,-1,22,-1,-1,24,-1,-1,-1,-1,-1,26,28,30,-1,-1,-1,-1,-1,-1],"split_conditions":[-3.2631762E-2,2.446476E-2,-2.3576725E0,-1.5370582E-1,1.0826907E-1,5.074434E-4,1.3345008E-1,2.5072682E-3,-4.7305617E0,-1.9797018E-1,9.129176E0,2.1937802E-3,-1.5142222E-1,2.9516011E-2,-1.18379675E-1,-1.1764171E-1,1.3348209E0,-1.3335524E-1,5.5661786E-2,-8.985172E-2,5.7124555E-2,1.3665223E-1,2.4964558E-1,5.3106755E-1,4.454948E1,6.3715205E-2,-1.0300779E-1,-1.6828164E-2,1.108915E-1,-1.1722802E-1,5.3803135E-2],"split_indices":[18,15,10,0,0,15,18,5,10,19,9,5,0,18,0,0,23,0,0,0,0,0,22,23,11,0,0,0,0,0,0],"split_type":[0,0,0,0,0,0,0,0,0,0,0,0,0,0,0,0,0,0,0,0,0,0,0,0,0,0,0,0,0,0,0],"sum_hessian":[1.4206999E2,3.8892075E1,1.03177925E2,3.71468E1,1.7452737E0,2.0188883E1,8.298904E1,1.2016535E1,8.172347E0,7.824938E1,4.739659E0,2.313193E0,9.7033415E0,6.6940365E0,1.4783106E0,1.7188278E0,7.6530556E1,3.6179688E0,1.1216902E0,1.1922876E0,1.1209056E0,4.335348E0,2.3586886E0,7.417522E1,2.3553343E0,1.1364611E0,1.2222275E0,3.9832647E0,7.0191956E1,1.2279476E0,1.1273867E0],"tree_param":{"num_deleted":"0","num_feature":"32","num_nodes":"31","size_leaf_vector":"1"}},{"base_weights":[-8.23546E-3,-1.3169161E0,4.8138383E-1,-1.4549917E-1,1.0286074E-1,-6.66935E-1,7.3633105E-1,-1.4008182E-1,2.1527483E-1,9.0680224E-1,-1.598397E-1,6.5327734E-1,-1.1292052E-1,-2.5216666E-1,9.783432E-1,-1.2914343E-1,2.68258E-1,1.1643795E-1,-3.822477E-1,-1.1048049E-1,5.3979564E-2,1.033382E0,-3.7303743E-1,-4.2120945E-1,8.717099E-1,-1.02707736E-1,4.847598E-2,-2.4377596E-2,1.0749095E-1,-1.04456544E-1,5.132688E-2,-1.2904076E-1,6.886803E-2,9.3530165E-3,1.1169596E-1],"categories":[],"categories_nodes":[],"categories_segments":[],"categories_sizes":[],"default_left":[0,0,0,0,0,0,0,0,0,0,0,0,0,0,1,0,0,0,0,0,0,0,0,0,0,0,0,0,0,0,0,0,0,0,0],"id":4,"left_children":[1,3,5,-1,-1,7,9,-1,11,13,15,17,-1,19,21,-1,23,-1,25,-1,-1,27,29,31,33,-1,-1,-1,-1,-1,-1,-1,-1,-1,-1],"loss_changes":[8.982937E1,1.3857796E1,3.0362993E1,0E0,0E0,1.2643444E1,1.2973541E1,0E0,6.345824E0,6.108856E0,7.2596297E0,4.5821323E0,0E0,3.9089289E0,5.353695E0,0E0,5.0194497E0,0E0,2.3629344E0,0E0,0E0,3.680153E0,2.5292625E0,6.5738697E0,1.0956998E0,0E0,0E0,0E0,0E0,0E0,0E0,0E0,0E0,0E0,0E0],"parents":[2147483647,0,0,1,1,2,2,5,5,6,6,8,8,9,9,10,10,11,11,13,13,14,14,16,16,18,18,21,21,22,22,23,23,24,24],"right_children":[2,4,6,-1,-1,8,10,-1,12,14,16,18,-1,20,22,-1,24,-1,26,-1,-1,28,30,32,34,-1,-1,-1,-1,-1,-1,-1,-1,-1,-1],"split_conditions":[-3.2631762E-2,2.446476E-2,-2.4740736E-3,-1.4549917E-1,1.0286074E-1,-1.3757087E0,7.365977E-2,-1.4008182E-1,2.2797968E6,3.9668015E-1,2.0548553E0,-5.409444E-3,-1.1292052E-1,-6.47755E6,7.118346E-1,-1.2914343E-1,8.431758E-3,1.1643795E-1,3E0,-1.1048049E-1,5.3979564E-2,3.3972195E-1,-7.45217E6,3.0526504E-2,1.4632E1,-1.02707736E-1,4.847598E-2,-2.4377596E-2,1.0749095E-1,-1.04456544E-1,5.132688E-2,-1.2904076E-1,6.886803E-2,9.3530165E-3,1.1169596E-1],"split_indices":[18,15,15,0,0,10,18,0,17,25,9,6,0,16,0,0,15,0,20,0,0,9,16,5,24,0,0,0,0,0,0,0,0,0,0],"split_type":[0,0,0,0,0,0,0,0,0,0,0,0,0,0,0,0,0,0,0,0,0,0,0,0,0,0,0,0,0,0,0,0,0,0,0],"sum_hessian":[1.3820355E2,3.7168343E1,1.0103522E2,3.5460537E1,1.7078078E0,1.8062618E1,8.2972595E1,9.5393095E0,8.52331E0,6.970191E1,1.3270686E1,6.816685E0,1.7066244E0,3.9056268E0,6.579629E1,3.0889516E0,1.0181735E1,4.480714E0,2.3359714E0,1.6905422E0,2.2150846E0,6.3447514E1,2.3487704E0,4.893135E0,5.2885995E0,1.2337539E0,1.1022176E0,1.8446882E0,6.1602825E1,1.2347081E0,1.1140623E0,2.6529002E0,2.240235E0,1.598359E0,3.6902406E0],"tree_param":{"num_deleted":"0","num_feature":"32","num_nodes":"35","size_leaf_vector":"1"}},{"base_weights":[-1.0643379E-2,-1.251901E0,4.419411E-1,-1.387571E-1,9.8026305E-2,-5.786717E-1,6.909115E-1,-1.1789483E0,3.1243208E-1,7.8987736E-1,-7.892606E-1,-1.919057E-1,-1.3787256E-1,7.4157184E-1,-1.1143279E-1,-1.1102944E-1,8.476203E-1,-1.23585E-1,5.4235198E-2,-8.1416056E-2,5.3762943E-2,1.2480338E-1,-2.6462862E-1,-3.2490753E-2,9.2521006E-1,5.766053E-2,-9.601763E-2,-1.4477694E-1,1.0338882E-1,9.795495E-2,-4.3643877E-2],"categories":[],"categories_nodes":[],"categories_segments":[],"categories_sizes":[],"default_left":[0,0,0,0,0,0,0,0,0,0,0,0,0,0,0,0,0,0,0,0,0,0,0,0,1,0,0,0,0,0,0],"id":5,"left_children":[1,3,5,-1,-1,7,9,11,13,15,17,19,-1,21,-1,-1,23,-1,-1,-1,-1,-1,25,27,29,-1,-1,-1,-1,-1,-1],"loss_changes":[7.6269135E1,1.2345104E1,2.5684687E1,0E0,0E0,1.1097464E1,1.2408081E1,2.1399574E0,6.2534413E0,9.269722E0,3.965996E0,1.8968847E0,0E0,4.108764E0,0E0,0E0,5.099411E0,0E0,0E0,0E0,0E0,0E0,2.4889667E0,1.2031766E1,5.477768E0,0E0,0E0,0E0,0E0,0E0,0E0],"parents":[2147483647,0,0,1,1,2,2,5,5,6,6,7,7,8,8,9,9,10,10,11,11,13,13,16,16,22,22,23,23,24,24],"right_children":[2,4,6,-1,-1,8,10,12,14,16,18,20,-1,22,-1,-1,24,-1,-1,-1,-1,-1,26,28,30,-1,-1,-1,-1,-1,-1],"split_conditions":[-3.2631762E-2,2.446476E-2,-2.3576725E0,-1.387571E-1,9.8026305E-2,5.074434E-4,1.3345008E-1,2.5072682E-3,-4.7305617E0,-1.9797018E-1,1.522114E0,-4.546234E0,-1.3787256E-1,2.9516011E-2,-1.1143279E-1,-1.1102944E-1,7.8786343E-1,-1.23585E-1,5.4235198E-2,-8.1416056E-2,5.3762943E-2,1.2480338E-1,2.4964558E-1,1.7391182E-1,1.3348209E0,5.766053E-2,-9.601763E-2,-1.4477694E-1,1.0338882E-1,9.795495E-2,-4.3643877E-2],"split_indices":[18,15,10,0,0,15,18,5,10,19,21,12,0,18,0,0,9,0,0,0,0,0,22,22,23,0,0,0,0,0,0],"split_type":[0,0,0,0,0,0,0,0,0,0,0,0,0,0,0,0,0,0,0,0,0,0,0,0,0,0,0,0,0,0,0],"sum_hessian":[1.3377995E2,3.527331E1,9.850665E1,3.3608948E1,1.6643631E0,1.9057858E1,7.944879E1,1.1194116E1,7.863742E0,7.490681E1,4.5419865E0,2.214332E0,8.979784E0,6.414603E0,1.4491388E0,1.6715691E0,7.323524E1,3.4551356E0,1.0868509E0,1.1324302E0,1.081902E0,4.1070256E0,2.3075771E0,5.980368E0,6.725487E1,1.121807E0,1.1857703E0,2.4161062E0,3.5642617E0,6.494377E1,2.3111005E0],"tree_param":{"num_deleted":"0","num_feature":"32","num_nodes":"31","size_leaf_vector":"1"}},{"base_weights":[-1.3553852E-2,-1.1970049E0,4.0556064E-1,-1.3312583E-1,9.3667604E-2,-6.0965836E-1,6.2688196E-1,-1.2792538E-1,1.6630882E-1,8.555214E-1,8.20173E-2,5.8144915E-1,-1.06355265E-1,-1.0808078E-1,9.189321E-1,8.227088E-1,-3.178164E-1,1.0532247E-1,-3.5203347E-1,9.6765697E-1,-3.8712204E-2,-4.8128623E-3,1.0060477E0,-8.535922E-1,7.755079E-1,4.5745116E-2,-9.497936E-2,-2.6356412E-2,1.0080681E-1,8.799508E-3,1.1741561E-1,-1.2652773E-1,6.4761735E-2,1.1704379E-1,-9.932605E-3],"categories":[],"categories_nodes":[],"categories_segments":[],"categories_sizes":[],"default_left":[0,0,0,0,0,0,0,0,0,0,0,0,0,0,0,0,0,0,0,0,0,0,0,0,0,0,0,0,0,0,0,0,0,0,0],"id":6,"left_children":[1,3,5,-1,-1,7,9,-1,11,13,15,17,-1,-1,19,21,23,-1,25,27,-1,-1,29,31,33,-1,-1,-1,-1,-1,-1,-1,-1,-1,-1],"loss_changes":[6.503148E1,1.1068394E1,2.2142557E1,0E0,0E0,9.482624E0,9.896713E0,0E0,5.289569E0,7.899872E0,7.5926833E0,3.6678524E0,0E0,0E0,3.875126E0,1.4784689E0,1.0501753E1,0E0,2.013339E0,2.918373E0,0E0,0E0,1.0456591E0,8.080866E0,2.2059698E0,0E0,0E0,0E0,0E0,0E0,0E0,0E0,0E0,0E0,0E0],"parents":[2147483647,0,0,1,1,2,2,5,5,6,6,8,8,9,9,10,10,11,11,14,14,15,15,16,16,18,18,19,19,22,22,23,23,24,24],"right_children":[2,4,6,-1,-1,8,10,-1,12,14,16,18,-1,-1,20,22,24,-1,26,28,-1,-1,30,32,34,-1,-1,-1,-1,-1,-1,-1,-1,-1,-1],"split_conditions":[-3.2631762E-2,2.446476E-2,-2.4740736E-3,-1.3312583E-1,9.3667604E-2,-1.3757087E0,4.5321327E-2,-1.2792538E-1,2.2797968E6,5.3106755E-1,-8.2891655E-1,-5.409444E-3,-1.06355265E-1,-1.0808078E-1,3.38205E0,-4.495385E0,-1.22E-1,1.0532247E-1,-1.443E-1,-2.0254226E0,-3.8712204E-2,-4.8128623E-3,1.9988E1,-1.226329E-3,8.607015E-3,4.5745116E-2,-9.497936E-2,-2.6356412E-2,1.0080681E-1,8.799508E-3,1.1741561E-1,-1.2652773E-1,6.4761735E-2,1.1704379E-1,-9.932605E-3],"split_indices":[18,15,15,0,0,10,18,0,17,23,7,6,0,0,14,7,13,0,13,7,0,0,3,6,5,0,0,0,0,0,0,0,0,0,0],"split_type":[0,0,0,0,0,0,0,0,0,0,0,0,0,0,0,0,0,0,0,0,0,0,0,0,0,0,0,0,0,0,0,0,0,0,0],"sum_hessian":[1.2913269E2,3.3286312E1,9.584639E1,3.1669697E1,1.6166127E0,1.6840946E1,7.900544E1,8.691934E0,8.149012E0,5.5250664E1,2.3754778E1,6.4866605E0,1.6623516E0,1.2432039E0,5.4007458E1,7.956936E0,1.5797843E1,4.2237387E0,2.2629218E0,5.231485E1,1.6926093E0,1.5121061E0,6.44483E0,1.074943E1,5.048413E0,1.0609338E0,1.2019881E0,1.4870241E0,5.0827824E1,1.233273E0,5.211557E0,8.55932E0,2.190109E0,3.2454214E0,1.8029915E0],"tree_param":{"num_deleted":"0","num_feature":"32","num_nodes":"35","size_leaf_vector":"1"}},{"base_weights":[-1.4149362E-2,-1.1499188E0,3.7577656E-1,-1.2835486E-1,8.9707196E-2,-5.432116E-1,5.965054E-1,-1.0910677E0,2.492912E-1,7.434303E-1,-2.419661E-1,-1.6249388E-1,-1.2858072E-1,6.653613E-1,-1.0586834E-1,-6.728728E-1,8.3446E-1,-1.19536854E-1,2.1814941E-1,-7.438224E-2,5.07483E-2,1.1409483E-1,-2.4578744E-1,6.0587484E-2,-1.2552483E-1,5.838426E-1,1.0979017E0,6.253562E-1,-1.004314E-1,-9.114118E-2,5.5323947E-2,8.1144884E-2,-3.7913956E-2,-3.6421068E-2,1.1872288E-1,-1.7995441E-2,9.515696E-2],"categories":[],"categories_nodes":[],"categories_segments":[],"categories_sizes":[],"default_left":[0,0,0,0,0,0,0,0,0,0,0,0,0,0,0,0,0,0,1,0,0,0,0,0,0,0,0,0,0,0,0,0,0,0,0,0,0],"id":7,"left_children":[1,3,5,-1,-1,7,9,11,13,15,17,19,-1,21,-1,23,25,-1,27,-1,-1,-1,29,-1,-1,31,33,35,-1,-1,-1,-1,-1,-1,-1,-1,-1],"loss_changes":[5.591825E1,9.977631E0,1.9396149E1,0E0,0E0,8.405279E0,9.578165E0,1.827548E0,5.314269E0,8.962292E0,5.5816317E0,1.583699E0,0E0,3.3313136E0,0E0,4.1033087E0,3.4307327E0,0E0,5.1215587E0,0E0,0E0,0E0,2.226016E0,0E0,0E0,7.702964E0,4.21093E0,2.1119692E0,0E0,0E0,0E0,0E0,0E0,0E0,0E0,0E0,0E0],"parents":[2147483647,0,0,1,1,2,2,5,5,6,6,7,7,8,8,9,9,10,10,11,11,13,13,15,15,16,16,18,18,22,22,25,25,26,26,27,27],"right_children":[2,4,6,-1,-1,8,10,12,14,16,18,20,-1,22,-1,24,26,-1,28,-1,-1,-1,30,-1,-1,32,34,36,-1,-1,-1,-1,-1,-1,-1,-1,-1],"split_conditions":[-3.2631762E-2,2.446476E-2,-2.3576725E0,-1.2835486E-1,8.9707196E-2,5.074434E-4,8.028558E-2,2.5072682E-3,-4.7305617E0,5.3106755E-1,2.0307026E0,-4.511347E-3,-1.2858072E-1,2.9516011E-2,-1.0586834E-1,-6.933196E-3,-3.87191E6,-1.19536854E-1,1.455187E0,-7.438224E-2,5.07483E-2,1.1409483E-1,-4.640679E-3,6.0587484E-2,-1.2552483E-1,-9.331091E-1,1.017E0,7.8662625E-4,-1.004314E-1,-9.114118E-2,5.5323947E-2,8.1144884E-2,-3.7913956E-2,-3.6421068E-2,1.1872288E-1,-1.7995441E-2,9.515696E-2],"split_indices":[18,15,10,0,0,15,18,5,10,23,9,15,0,18,0,4,16,0,23,0,0,0,6,0,0,12,3,22,0,0,0,0,0,0,0,0,0],"split_type":[0,0,0,0,0,0,0,0,0,0,0,0,0,0,0,0,0,0,0,0,0,0,0,0,0,0,0,0,0,0,0,0,0,0,0,0,0],"sum_hessian":[1.2428878E2,3.1266678E1,9.30221E1,2.9700739E1,1.5659388E0,1.7732628E1,7.5289474E1,1.0261872E1,7.470755E0,6.416009E1,1.112939E1,2.097032E0,8.16484E0,6.040546E0,1.4302093E0,3.4886992E0,6.067139E1,3.1025794E0,8.02681E0,1.0637832E0,1.033249E0,3.8032022E0,2.2373438E0,1.0790441E0,2.409655E0,3.2740704E1,2.7930685E1,6.387543E0,1.6392668E0,1.1438307E0,1.0935131E0,2.66089E1,6.1318045E0,1.4309822E0,2.6499702E1,1.9707588E0,4.4167843E0],"tree_param":{"num_deleted":"0","num_feature":"32","num_nodes":"37","size_leaf_vector":"1"}}]},"name":"gbtree"},"learner_model_param":{"base_score":"4.9680248E-1","boost_from_average":"1","num_class":"0","num_feature":"32","num_target":"1"},"objective":{"name":"binary:logistic","reg_loss_param":{"scale_pos_weight":"3.5999999"}}},"version":[2,0,3]}