{"learner":{"attributes":{},"feature_names":[],"feature_types":[],"gradient_booster":{"model":{"gbtree_model_param":{"num_parallel_tree":"1","num_trees":"5"},"iteration_indptr":[0,1,2,3,4,5],"tree_info":[0,0,0,0,0],"trees":[{"base_weights":[1.6480949E-7,7.044822E-1,-1.669491E0,1.0693158E0,1.4107436E-1,-3.854486E-1,-1.9261101E0,8.140654E-2,3.7103087E-1,1.2766513E-1,-4.0428898E-1,3.9554596E-1,-5.318109E-1,1.6075476E-1,-5.916018E-1],"categories":[],"categories_nodes":[],"categories_segments":[],"categories_sizes":[],"default_left":[0,0,0,0,0,0,0,0,0,0,0,0,0,0,0],"id":0,"left_children":[1,3,5,7,9,11,13,-1,-1,-1,-1,-1,-1,-1,-1],"loss_changes":[3.295505E2,4.0352783E1,2.665628E1,1.5625473E1,3.3860622E1,3.803051E1,8.858917E0,0E0,0E0,0E0,0E0,0E0,0E0,0E0,0E0],"parents":[2147483647,0,0,1,1,2,2,3,3,4,4,5,5,6,6],"right_children":[2,4,6,8,10,12,14,-1,-1,-1,-1,-1,-1,-1,-1],"split_conditions":[-1.1529126E-2,-1.1598298E-3,-1.0870611E-2,-8.11541E6,8.780213E1,1.7183121E-2,1.3710305E-1,8.140654E-2,3.7103087E-1,1.2766513E-1,-4.0428898E-1,3.9554596E-1,-5.318109E-1,1.6075476E-1,-5.916018E-1],"split_indices":[17,4,4,16,11,17,20,0,0,0,0,0,0,0,0],"split_type":[0,0,0,0,0,0,0,0,0,0,0,0,0,0,0],"sum_hessian":[2.7819986E2,1.960499E2,8.2149956E1,1.18449936E2,7.759996E1,1.4099993E1,6.8049965E1,2.0999989E1,9.744995E1,6.574997E1,1.1849994E1,6.3499966E0,7.7499957E0,1.0499995E0,6.699996E1],"tree_param":{"num_deleted":"0","num_feature":"29","num_nodes":"15","size_leaf_vector":"1"}},{"base_weights":[-4.455986E-3,5.0635785E-1,-1.2867509E0,7.5483733E-1,2.5282823E-2,-1.4061183E0,3.8011664E-1,-3.9497736E-1,2.369143E-1,2.9434267E-1,-1.4245059E-1,-2.4750361E-2,-4.4115126E-1,3.786514E-1,-3.0500165E-1],"categories":[],"categories_nodes":[],"categories_segments":[],"categories_sizes":[],"default_left":[0,0,0,0,0,0,0,0,0,0,0,0,0,0,0],"id":1,"left_children":[1,3,5,7,9,11,13,-1,-1,-1,-1,-1,-1,-1,-1],"loss_changes":[1.7674367E2,2.3047962E1,1.5828827E1,1.0230125E1,3.2379177E1,6.0098724E0,8.581812E0,0E0,0E0,0E0,0E0,0E0,0E0,0E0,0E0],"parents":[2147483647,0,0,1,1,2,2,3,3,4,4,5,5,6,6],"right_children":[2,4,6,8,10,12,14,-1,-1,-1,-1,-1,-1,-1,-1],"split_conditions":[-1.1529126E-2,-1.8334747E-4,-6.7042775E-4,4.6407095E-1,-3.4643009E0,1.20662756E-1,2.437E0,-3.9497736E-1,2.369143E-1,2.9434267E-1,-1.4245059E-1,-2.4750361E-2,-4.4115126E-1,3.786514E-1,-3.0500165E-1],"split_indices":[17,4,6,0,10,9,3,0,0,0,0,0,0,0,0],"split_type":[0,0,0,0,0,0,0,0,0,0,0,0,0,0,0],"sum_hessian":[2.6783716E2,1.919695E2,7.5867676E1,1.2621122E2,6.575827E1,7.09437E1,4.9239755E0,1.4813378E0,1.2472988E2,2.2257128E1,4.3501144E1,3.3967218E0,6.754698E1,3.0771625E0,1.8468128E0],"tree_param":{"num_deleted":"0","num_feature":"29","num_nodes":"15","size_leaf_vector":"1"}},{"base_weights":[-1.0136951E-2,-1.2199692E0,3.425278E-1,1.4568269E-1,-1.2916304E0,5.9763116E-1,-3.0115832E-2,-1.3574117E-1,-4.1158146E-1,-2.5957841E-2,2.2253777E-1,1.9986622E-1,-9.208008E-2],"categories":[],"categories_nodes":[],"categories_segments":[],"categories_sizes":[],"default_left":[0,0,0,0,0,0,0,0,0,0,0,0,0],"id":2,"left_children":[1,3,5,-1,7,9,11,-1,-1,-1,-1,-1,-1],"loss_changes":[1.0766614E2,7.5883026E0,1.8594233E1,0E0,3.0810547E0,1.1509865E1,1.5695079E1,0E0,0E0,0E0,0E0,0E0,0E0],"parents":[2147483647,0,0,1,1,2,2,4,4,5,5,6,6],"right_children":[2,4,6,-1,8,10,12,-1,-1,-1,-1,-1,-1],"split_conditions":[-9.06E-2,-6.724451E-2,-1.4022904E-3,1.4568269E-1,5.7370216E-1,-8.11541E6,-3.993347E0,-1.3574117E-1,-4.1158146E-1,-2.5957841E-2,2.2253777E-1,1.9986622E-1,-9.208008E-2],"split_indices":[13,17,4,0,0,16,10,0,0,0,0,0,0],"split_type":[0,0,0,0,0,0,0,0,0,0,0,0,0],"sum_hessian":[2.5036401E2,5.5953556E1,1.9441046E2,2.0232222E0,5.3930332E1,1.1504768E2,7.9362785E1,5.289805E0,4.8640526E1,2.0092594E1,9.4955086E1,2.2174925E1,5.718786E1],"tree_param":{"num_deleted":"0","num_feature":"29","num_nodes":"13","size_leaf_vector":"1"}},{"base_weights":[-1.2852099E-2,2.9521477E-1,-9.5716625E-1,4.9875408E-1,-1.8722494E-1,-5.579167E-2,-1.1901901E0,-4.1308132E-1,1.6313802E-1,-3.2176328E-1,3.647439E-2,2.5501803E-1,-3.312535E-1,1.0928696E-1,-3.7439165E-1],"categories":[],"categories_nodes":[],"categories_segments":[],"categories_sizes":[],"default_left":[0,0,0,0,0,0,0,0,0,0,0,0,0,0,0],"id":3,"left_children":[1,3,5,7,9,11,13,-1,-1,-1,-1,-1,-1,-1,-1],"loss_changes":[6.8335945E1,1.7488894E1,1.2069653E1,1.1297054E1,1.46995945E1,1.3206601E1,4.5739365E0,0E0,0E0,0E0,0E0,0E0,0E0,0E0,0E0],"parents":[2147483647,0,0,1,1,2,2,3,3,4,4,5,5,6,6],"right_children":[2,4,6,8,10,12,14,-1,-1,-1,-1,-1,-1,-1,-1],"split_conditions":[-1.295114E-2,8.243176E1,-1.0870611E-2,-3.0811723E-2,8.509958E1,1.7183121E-2,-1.5762026E1,-4.1308132E-1,1.6313802E-1,-3.2176328E-1,3.647439E-2,2.5501803E-1,-3.312535E-1,1.0928696E-1,-3.7439165E-1],"split_indices":[17,11,4,6,11,17,10,0,0,0,0,0,0,0,0],"split_type":[0,0,0,0,0,0,0,0,0,0,0,0,0,0,0],"sum_hessian":[2.3293123E2,1.7615195E2,5.677928E1,1.2386149E2,5.2290462E1,1.1917979E1,4.48613E1,2.2110016E0,1.2165048E2,1.2882971E1,3.9407494E1,6.4951015E0,5.422878E0,1.4176798E0,4.3443623E1],"tree_param":{"num_deleted":"0","num_feature":"29","num_nodes":"15","size_leaf_vector":"1"}},{"base_weights":[-1.964664E-2,-1.0483087E0,1.853033E-1,1.0503487E-1,-1.1344846E0,2.6100683E-1,-6.640585E-1,-3.5516217E-1,6.439913E-2,9.719416E-2,-1.904182E-1,-3.0512553E-1,3.517559E-1],"categories":[],"categories_nodes":[],"categories_segments":[],"categories_sizes":[],"default_left":[0,0,0,0,0,0,0,0,0,0,0,0,0],"id":4,"left_children":[1,3,5,-1,7,9,11,-1,-1,-1,-1,-1,-1],"loss_changes":[4.618442E1,4.7828674E0,1.1924234E1,0E0,2.5540314E0,9.711146E0,1.1072169E1,0E0,0E0,0E0,0E0,0E0,0E0],"parents":[2147483647,0,0,1,1,2,2,4,4,5,5,6,6],"right_children":[2,4,6,-1,8,10,12,-1,-1,-1,-1,-1,-1],"split_conditions":[-1.217E-1,-6.724451E-2,8.82334E1,1.0503487E-1,-3.411284E-4,-3.9078507E-1,7.85915E6,-3.5516217E-1,6.439913E-2,9.719416E-2,-1.904182E-1,-3.0512553E-1,3.517559E-1],"split_indices":[13,17,11,0,6,8,15,0,0,0,0,0,0],"split_type":[0,0,0,0,0,0,0,0,0,0,0,0,0],"sum_hessian":[2.1714459E2,3.5392338E1,1.8175226E2,1.8766176E0,3.351572E1,1.6751442E2,1.4237839E1,3.2450294E1,1.0654281E0,1.5710744E2,1.0406971E1,1.2316559E1,1.9212792E0],"tree_param":{"num_deleted":"0","num_feature":"29","num_nodes":"13","size_leaf_vector":"1"}}]},"name":"gbtree"},"learner_model_param":{"base_score":"5.003594E-1","boost_from_average":"1","num_class":"0","num_feature":"29","num_target":"1"},"objective":{"name":"binary:logistic","reg_loss_param":{"scale_pos_weight":"3.20000005"}}},"version":[2,0,3]}